/*!
 * The following copyright notice may not be removed under any circumstances.
 * 
 * Copyright:
 * Copyright © 2009 ParaType Ltd. All rights reserved.
 * 
 * Description:
 * This is a protected webfont and is intended for CSS @font-face use ONLY.
 * Reverse engineering this font is strictly prohibited.
 */
Cufon.registerFont({"w":1064,"face":{"font-family":"","font-weight":400,"font-style":"italic","font-stretch":"normal","units-per-em":"2048","panose-1":"2 11 5 3 2 2 3 9 2 4","ascent":"1536","descent":"-512","x-height":"23","bbox":"-309 -1782 2059.02 2697","underline-thickness":"102","underline-position":"-102","slope":"-12","unicode-range":"U+0020-FB04"},"glyphs":{" ":{"w":546},"!":{"d":"485,-1434r164,0r-149,711r-111,361r-94,0r41,-361xm297,25v-69,0,-119,-50,-119,-119v0,-71,49,-119,119,-119v71,0,119,46,119,119v0,69,-50,119,-119,119","w":559},"\"":{"d":"473,1434r151,0r-143,-396r-92,0xm246,1434r151,0r-143,-396r-92,0","w":620},"#":{"d":"647,-461r-217,0r-80,342r-139,0r80,-342r-160,0r29,-131r164,0r63,-268r-154,0r29,-131r156,0r78,-324r139,0r-78,324r217,0r78,-324r139,0r-78,324r158,0r-33,131r-155,0r-64,268r150,0r-33,131r-150,0r-79,342r-140,0xm463,-592r217,0r63,-268r-217,0"},"$":{"d":"711,-797v127,96,256,196,256,418v0,194,-105,304,-249,363v-54,22,-115,34,-183,39v-13,54,-37,182,-37,182r-131,0r39,-187v-109,-11,-221,-74,-281,-122r72,-125v56,37,147,95,239,106r123,-575v-89,-67,-179,-136,-223,-247v-32,-82,-25,-207,9,-283v61,-136,192,-212,374,-226r41,-184r131,0r-39,182v105,7,187,41,256,76r-70,129v-57,-25,-134,-53,-217,-60xm535,-119v150,-7,264,-95,264,-246v0,-136,-79,-202,-154,-270xm721,-1313v-140,6,-238,85,-238,219v0,118,74,175,142,234"},"%":{"d":"1231,-1460r102,80r-1051,1405r-102,-80xm123,1004v0,79,12,148,36,205v24,57,54,104,91,141v37,37,78,64,123,82v45,17,89,26,133,26v78,0,137,-21,177,-64v40,-42,60,-102,60,-180v0,-74,-10,-139,-31,-195v-20,-55,-47,-102,-82,-141v-35,-38,-76,-67,-123,-87v-47,-19,-97,-29,-149,-29v-69,0,-126,21,-170,64v-43,42,-65,101,-65,178xm264,1020v0,-44,10,-78,30,-103v20,-24,50,-36,89,-36v29,0,56,8,83,23v27,15,50,36,71,64v20,28,36,62,48,102v11,40,17,85,17,136v0,48,-11,82,-32,103v-21,20,-50,30,-89,30v-29,0,-56,-9,-83,-26v-27,-17,-50,-39,-70,-68v-19,-29,-35,-62,-47,-101v-11,-39,-17,-80,-17,-124xm791,1764v0,79,12,148,36,205v24,57,54,104,91,141v37,37,78,64,123,82v45,17,89,26,133,26v78,0,137,-21,177,-64v40,-42,60,-102,60,-180v0,-74,-10,-139,-31,-195v-20,-55,-47,-102,-82,-141v-35,-38,-76,-67,-123,-87v-47,-19,-97,-29,-149,-29v-69,0,-126,21,-170,64v-43,42,-65,101,-65,178xm932,1780v0,-44,10,-78,30,-103v20,-24,50,-36,89,-36v29,0,56,8,83,23v27,15,50,36,71,64v20,28,36,62,48,102v11,40,17,85,17,136v0,48,-11,82,-32,103v-21,20,-50,30,-89,30v-29,0,-56,-9,-83,-26v-27,-17,-50,-39,-70,-68v-19,-29,-35,-62,-47,-101v-11,-39,-17,-80,-17,-124","w":1507},"&":{"d":"1014,-166v-118,98,-252,191,-465,191v-174,0,-291,-76,-345,-197v-43,-98,-30,-220,14,-315v81,-180,236,-313,407,-402v0,0,-53,-134,-53,-187v0,-184,59,-299,188,-354v67,-29,201,-38,271,-8v70,30,110,84,110,176v0,78,-30,150,-89,216v-59,66,-140,128,-243,184v62,176,153,339,252,479v65,-63,123,-147,170,-229r49,-86r109,59v-29,56,-121,181,-121,181v0,0,-95,127,-140,173v77,95,119,140,209,201r-118,115v-76,-45,-148,-120,-205,-197xm342,-338v0,154,101,224,258,221v153,-3,259,-74,342,-151v-106,-149,-196,-335,-266,-516v-129,84,-248,182,-310,326v-16,40,-24,79,-24,120xm893,-1327v-131,0,-182,93,-168,229v5,58,21,95,39,144v78,-47,136,-92,175,-134v39,-42,58,-89,58,-141v0,-61,-34,-98,-104,-98","w":1581},"'":{"d":"293,-1434r151,0r-143,396r-92,0","w":413},"(":{"d":"303,-501v-66,310,-29,642,88,876r-94,71v-74,-108,-124,-212,-149,-312v-96,-375,11,-778,137,-1041v101,-211,244,-402,403,-547r76,72v-211,237,-383,519,-461,881","w":544},")":{"d":"293,-805v0,-254,-24,-423,-115,-581r103,-68v104,150,172,348,172,592v0,455,-157,794,-353,1064v-68,94,-142,175,-217,244r-78,-71v137,-142,257,-340,343,-537v79,-182,145,-402,145,-643","w":544},"*":{"d":"330,-1464r51,86r37,114r43,-116r49,-82r98,53r-51,88r-96,98r139,-24r98,0r0,114r-92,0r-133,-24r94,98r49,80r-98,57r-51,-86r-49,-125r-37,119r-51,86r-103,-57r54,-86r88,-86r-121,24r-103,0r0,-114r103,0r129,24r-92,-90r-56,-94","w":681},"+":{"d":"113,-766r360,0r0,-371r148,0r0,371r360,0r0,148r-360,0r0,370r-148,0r0,-370r-360,0r0,-148","w":983},",":{"d":"139,14v-52,17,-105,-32,-104,-86v2,-75,53,-127,135,-127v65,0,107,55,106,115v-3,154,-81,255,-172,327v-35,27,-73,47,-114,62r-33,-80v90,-29,164,-119,182,-211","w":380},"-":{"d":"162,-659r471,0r-35,139r-469,0","w":700},".":{"d":"190,25v-69,0,-118,-50,-118,-119v0,-71,48,-119,118,-119v71,0,119,46,119,119v0,70,-49,119,-119,119","w":432},"\/":{"d":"877,-1458r116,63r-1067,1690r-116,-66","w":688},"0":{"d":"198,-122v-117,-170,-89,-505,-35,-727v56,-229,159,-422,321,-533v75,-51,157,-76,247,-76v116,0,204,39,269,112v122,139,106,497,54,724v-53,231,-151,436,-306,558v-75,60,-162,89,-261,89v-142,1,-231,-62,-289,-147xm276,-457v1,196,53,338,236,338v61,0,118,-25,170,-73v112,-104,180,-280,220,-466v37,-170,54,-445,-17,-571v-33,-57,-92,-86,-178,-86v-55,0,-108,20,-159,63v-116,98,-192,265,-235,452v-25,105,-37,219,-37,343"},"1":{"d":"160,-152r272,0r213,-991r45,-121r-100,97r-246,161r-57,-104r506,-348r69,0r-278,1306r266,0r-31,152r-690,0"},"2":{"d":"768,-1458v183,-5,286,116,287,289v0,71,-19,148,-59,231v-131,272,-355,512,-560,713r-112,88r0,8r127,-23r419,0r-28,152r-776,0r12,-59r132,-128r172,-170r183,-196v108,-121,218,-258,286,-405v29,-64,44,-124,44,-179v1,-120,-54,-180,-178,-178v-125,3,-201,56,-291,111r-43,-123v116,-83,210,-127,385,-131"},"3":{"d":"162,-172v59,32,135,54,231,53v190,-1,306,-90,359,-227v16,-43,24,-86,24,-131v0,-160,-73,-222,-252,-221r-147,0r12,-60r373,-454r106,-91r-129,21r-379,0r29,-152r696,0r-12,60r-411,495r-80,60r0,4r67,-14v139,3,223,72,263,179v39,103,28,254,-12,354v-79,199,-253,320,-531,321v-110,1,-208,-20,-281,-52"},"4":{"d":"1053,-440r-232,0r-92,440r-149,0r92,-440r-602,0r14,-68r850,-948r104,0r-186,876r229,0xm799,-1030r55,-168r-8,0r-96,139r-355,391r-112,103r137,-15r282,0"},"5":{"d":"166,-164v65,26,118,46,215,45v192,-2,311,-94,367,-233v18,-46,24,-98,24,-154v-1,-171,-92,-231,-274,-231r-164,10r149,-707r607,0r-33,152r-461,0r-88,410v0,0,62,-5,82,-5v224,0,337,124,342,342v4,207,-77,347,-186,439v-120,101,-334,144,-540,108v-42,-7,-79,-20,-110,-35"},"6":{"d":"989,-500v0,248,-111,410,-287,486v-98,42,-231,57,-338,15v-151,-60,-235,-201,-235,-419v1,-299,132,-541,281,-708v143,-160,352,-300,600,-332r8,131v-266,50,-458,212,-592,401v-48,69,-84,140,-109,215v51,-62,136,-108,229,-129v137,-31,262,-2,346,77v64,60,97,147,97,263xm825,-479v-2,-140,-68,-238,-219,-234v-111,3,-193,48,-257,101v-23,20,-41,41,-54,63v-24,120,-10,269,43,342v38,52,89,92,176,92v167,0,257,-99,294,-231v12,-43,17,-88,17,-133"},"7":{"d":"141,0r742,-1200r106,-100r-119,18r-542,0r30,-152r813,0r-10,56r-852,1378r-168,0"},"8":{"d":"762,-739v93,79,184,165,184,333v0,209,-104,335,-263,396v-93,36,-266,51,-367,9v-114,-48,-191,-141,-191,-298v0,-94,31,-181,93,-261v62,-80,150,-144,263,-192v-90,-72,-171,-149,-168,-315v4,-201,118,-313,273,-365v91,-30,202,-37,293,-6v116,40,194,127,194,281v0,159,-93,256,-187,335v-37,31,-79,58,-124,83xm285,-317v2,133,74,199,213,198v130,-1,222,-55,266,-145v27,-57,27,-149,7,-212v-32,-99,-106,-154,-187,-206v-90,42,-162,94,-217,156v-55,62,-82,131,-82,209xm913,-1128v1,-124,-61,-187,-180,-187v-120,0,-200,53,-239,137v-38,81,-22,203,28,262v34,39,78,78,135,113v94,-61,185,-137,235,-239v14,-29,21,-57,21,-86"},"9":{"d":"879,-698v-90,75,-177,119,-340,116v-151,-3,-245,-86,-293,-202v-44,-106,-35,-280,8,-384v72,-173,217,-290,453,-290v184,0,290,104,341,247v19,54,29,116,29,187v2,327,-133,573,-295,744v-85,90,-180,160,-284,212v-104,52,-204,83,-299,93r-9,-131v341,-81,578,-282,689,-592xm919,-928v25,-207,-44,-394,-239,-391v-148,2,-230,81,-276,191v-30,71,-37,204,-4,276v36,78,93,129,198,131v124,3,253,-60,309,-127"},":":{"d":"473,-801v-69,0,-119,-50,-119,-119v0,-72,49,-118,119,-118v70,0,119,46,119,118v0,69,-50,119,-119,119xm301,25v-69,0,-119,-50,-119,-119v0,-71,49,-119,119,-119v71,0,119,46,119,119v0,69,-50,119,-119,119","w":546},";":{"d":"293,14v-53,17,-106,-32,-105,-86v2,-74,55,-127,136,-127v65,0,107,55,106,115v-3,154,-82,255,-173,327v-35,27,-73,47,-114,62r-32,-80v90,-29,164,-119,182,-211xm485,-801v-69,0,-118,-50,-118,-119v0,-72,48,-118,118,-118v70,0,119,46,119,118v0,70,-49,119,-119,119","w":559},"<":{"d":"111,-625r0,-59r776,-473r78,127r-486,297r-186,78r184,65r498,295r-78,123","w":983},"=":{"d":"113,-936r868,0r0,148r-868,0r0,-148xm113,-596r868,0r0,147r-868,0r0,-147","w":983},">":{"d":"979,-705r0,60r-776,473r-78,-125r485,-297r187,-78r-185,-65r-497,-295r78,-125","w":983},"?":{"d":"612,-1458v184,0,292,86,295,250v3,152,-54,252,-123,336v-104,127,-253,212,-344,352v-29,45,-50,97,-59,158r-129,0v12,-139,76,-235,146,-318v99,-118,238,-203,312,-343v22,-41,33,-89,33,-142v0,-116,-60,-162,-188,-162v-106,0,-201,50,-272,90r-39,-119v99,-61,205,-102,368,-102xm283,25v-69,0,-119,-50,-119,-119v0,-72,48,-119,119,-119v71,0,118,46,118,119v0,69,-49,119,-118,119","w":847},"@":{"d":"1231,-1020v102,-1,150,36,209,78r67,-64r70,0v0,0,-84,454,-119,683v-13,83,-18,180,74,176v116,-5,200,-67,259,-141v70,-89,122,-221,122,-380v0,-221,-82,-377,-203,-482v-121,-106,-300,-169,-522,-169v-246,0,-438,100,-568,231v-133,132,-233,335,-233,590v0,382,183,613,467,717v172,63,435,73,596,-6r41,131v-190,92,-485,81,-694,8v-226,-79,-394,-232,-487,-449v-96,-222,-92,-566,4,-789v101,-234,278,-409,513,-504v213,-86,490,-90,711,-14v210,72,369,209,456,404v74,165,90,401,21,583v-60,156,-162,281,-301,355v-68,36,-140,54,-217,54v-120,0,-188,-44,-186,-174v0,-29,3,-59,8,-86r-8,0v-64,97,-146,188,-259,236v-65,28,-144,35,-207,2v-92,-48,-149,-147,-149,-287v0,-192,72,-367,159,-483v49,-66,105,-120,170,-160v65,-40,133,-60,206,-60xm854,-344v0,106,38,197,152,197v27,0,56,-10,85,-29v101,-69,180,-183,240,-295r62,-334v-44,-49,-77,-76,-160,-76v-127,0,-212,91,-269,175v-59,88,-110,224,-110,362","w":2179},"A":{"d":"827,-397r-499,0r-222,397r-174,0r828,-1456r76,0r206,1456r-157,0xm408,-545r403,0r-59,-436r-4,-217r-3,0r-92,221","w":1140},"B":{"d":"1117,-1272v41,77,40,204,7,289v-49,127,-153,211,-305,233r0,9v99,24,172,84,207,173v12,31,18,64,18,101v3,191,-86,310,-199,385v-102,68,-250,96,-407,98v0,0,-116,2,-196,-4v-82,-6,-135,-15,-160,-22r299,-1411v114,-17,246,-31,385,-29v169,2,291,63,351,178xm272,-145v109,15,248,25,352,-3v139,-38,248,-120,248,-296v0,-176,-167,-213,-348,-215r-143,0xm977,-1102v0,-153,-104,-200,-254,-201v-70,0,-157,3,-209,13r-104,491v0,0,221,4,270,-6v158,-33,297,-102,297,-297","w":1138},"C":{"d":"696,-127v122,2,200,-32,275,-72r12,140v-91,61,-182,84,-328,84v-264,0,-407,-151,-475,-353v-65,-192,-33,-467,33,-633v83,-209,228,-366,427,-444v92,-36,185,-53,280,-53v134,0,228,19,311,55r-74,150v-62,-34,-157,-55,-260,-54v-180,3,-315,87,-405,195v-103,123,-177,306,-175,532v2,205,79,351,219,419v47,23,100,34,160,34","w":1114},"D":{"d":"741,-1450v346,0,529,181,529,530v0,351,-126,614,-330,776v-124,99,-291,162,-514,162v-80,0,-306,-9,-344,-16r305,-1436v95,-13,248,-16,354,-16xm1098,-897v1,-275,-133,-420,-424,-400v0,0,-128,4,-156,9r-242,1147v202,18,345,11,476,-66v156,-91,261,-245,311,-434v23,-90,35,-175,35,-256","w":1273},"E":{"d":"387,-1434r739,0r-30,152r-580,0r-100,469r530,0r-31,151r-530,0r-109,510r590,0r-32,152r-752,0","w":1044},"F":{"d":"387,-1434r739,0r-30,152r-580,0r-104,489r540,0r-30,152r-541,0r-135,641r-164,0","w":1007},"G":{"d":"1180,-1255v-62,-34,-163,-55,-265,-52v-297,8,-463,182,-549,413v-48,132,-68,335,-26,490v30,109,94,192,184,241v68,38,190,46,275,23v31,-9,63,-22,94,-38r84,-400r-229,-40r20,-97r377,0r-133,631v-134,105,-369,149,-554,72v-195,-81,-310,-265,-313,-545v-3,-322,103,-552,263,-701v76,-71,164,-120,256,-153v182,-66,433,-60,587,6","w":1193},"H":{"d":"1034,-657r-651,0r-137,657r-164,0r303,-1434r164,0r-131,625r649,0r131,-625r164,0r-303,1434r-164,0","w":1308},"I":{"d":"430,-1434r164,0r-303,1434r-164,0","w":567},"J":{"d":"455,-1434r163,0r-237,1119v-42,202,-129,355,-386,333v-43,-5,-91,-12,-120,-30r62,-146v36,28,133,39,181,12v66,-38,88,-120,107,-210","w":569},"K":{"d":"489,-664r-104,0r-139,664r-164,0r303,-1434r164,0r-143,668r81,-29r588,-639r203,0r-586,623r-94,63r80,82r358,666r-186,0","w":1179},"L":{"d":"889,0r-807,0r303,-1434r164,0r-273,1282r644,0","w":1007},"M":{"d":"1333,-963r64,-215r-8,0r-115,197r-492,647r-49,0r-235,-647r-31,-197r-8,0r-17,213r-204,965r-156,0r305,-1434r113,0r266,734r31,159r2,0r94,-164r559,-729r145,0r-305,1434r-164,0","w":1544},"N":{"d":"535,-938r-70,-211r-6,0r-25,211r-198,938r-154,0r309,-1456r82,0r447,958r67,201r8,0r19,-201r200,-936r154,0r-309,1457r-76,0","w":1314},"O":{"d":"629,25v-335,0,-487,-206,-484,-549v4,-406,162,-711,427,-860v90,-50,189,-74,298,-74v322,0,454,207,455,540v1,269,-79,503,-195,664v-62,86,-135,154,-220,204v-85,50,-179,75,-281,75xm1153,-913v0,-241,-84,-398,-311,-398v-78,0,-150,22,-214,65v-134,90,-223,243,-272,424v-26,95,-39,193,-39,296v-1,237,92,401,316,403v77,0,147,-20,210,-63v197,-135,310,-398,310,-727","w":1333},"P":{"d":"750,-564v-144,31,-217,34,-390,19r-114,545r-164,0r301,-1419v98,-24,217,-31,334,-31v264,0,438,107,442,371v2,208,-82,343,-203,427v-61,42,-129,72,-206,88xm987,-1063v0,-217,-181,-254,-396,-237v-29,2,-54,6,-73,10r-125,596v39,9,142,10,142,10v199,0,345,-64,414,-198v25,-48,38,-108,38,-181","w":1089},"Q":{"d":"1296,350v-110,33,-257,33,-372,4v-114,-28,-325,-93,-325,-93v-79,-23,-159,-28,-239,-11r31,-150v90,-20,183,-14,266,10v0,0,208,65,318,92v113,27,236,28,354,1xm629,25v-335,0,-487,-206,-484,-549v4,-406,162,-711,427,-860v90,-50,189,-74,298,-74v322,0,454,207,455,540v1,269,-79,503,-195,664v-62,86,-135,154,-220,204v-85,50,-179,75,-281,75xm1153,-913v0,-241,-84,-398,-311,-398v-78,0,-150,22,-214,65v-134,90,-223,243,-272,424v-26,95,-39,193,-39,296v-1,237,92,401,316,403v77,0,147,-20,210,-63v197,-135,310,-398,310,-727","w":1333},"R":{"d":"383,-1419v148,-25,327,-51,477,-11v150,40,253,142,254,334v0,120,-36,220,-106,300v-70,80,-172,132,-306,155r74,74r221,567r-178,0r-246,-618r-192,-31r-135,649r-164,0xm547,-762v233,-2,395,-88,395,-325v0,-137,-96,-214,-244,-216v-58,0,-133,4,-180,13r-112,528r141,0","w":1163},"S":{"d":"119,-201v75,41,190,78,319,78v145,0,266,-38,325,-127v42,-63,40,-183,-6,-244v-86,-113,-238,-167,-343,-264v-73,-68,-135,-152,-133,-293v5,-295,213,-402,507,-407v138,-2,277,23,361,65r-82,146v-69,-36,-190,-64,-309,-64v-167,0,-307,77,-305,240v0,113,65,170,133,222v77,60,176,104,248,170v73,66,133,152,133,290v0,133,-47,235,-143,307v-96,72,-233,107,-412,107v-153,0,-289,-30,-377,-76","w":1034},"T":{"d":"1233,-1282r-424,0r-270,1282r-164,0r270,-1282r-420,0r31,-152r1008,0","w":1081},"U":{"d":"342,-362v0,177,93,227,268,229v257,2,325,-176,371,-391r193,-910r155,0r-201,957v-51,227,-128,402,-333,467v-60,19,-130,28,-209,28v-258,0,-408,-103,-408,-356v0,-56,8,-119,23,-190r190,-906r164,0r-190,908v-15,60,-23,115,-23,164","w":1265},"V":{"d":"518,-453r0,220r4,0r92,-224r543,-977r176,0r-823,1457r-76,0r-221,-1457r168,0","w":1107},"W":{"d":"438,-477r-18,237r2,0r80,-241r481,-953r88,0r76,957r-19,237r2,0r82,-241r437,-953r168,0r-689,1457r-90,0r-77,-961r12,-217r-8,0r-82,219r-480,959r-90,0r-80,-1457r168,0","w":1613},"X":{"d":"592,-733r-266,-701r178,0r176,486r25,117r69,-117r391,-486r199,0r-571,695r290,739r-178,0r-196,-514r-29,-123r-78,123r-418,514r-198,0","w":1204},"Y":{"d":"494,-569r-273,-865r178,0r183,627r6,125r2,0r61,-129r445,-623r184,0r-623,863r-120,571r-164,0","w":1087},"Z":{"d":"29,-154r891,-1046r100,-82r-750,0r31,-152r916,0r-31,154r-897,1053r-96,75r751,0r-31,152r-915,0"},"[":{"d":"436,-1434r355,0r-31,144r-199,0r-344,1618r201,0r-31,143r-354,0","w":595},"\\":{"d":"920,227r-136,60r-700,-1688r141,-57","w":778},"]":{"d":"223,471r-352,0r31,-143r196,0r342,-1618r-198,0r30,-144r355,0","w":600},"^":{"d":"590,-1456r59,0r346,565r-170,0r-161,-276r-48,-142r-63,144r-191,274r-153,0","w":1024},"_":{"d":"-90,281r835,0r0,139r-835,0r0,-139","w":835},"`":{"d":"856,-1169r-88,0r-166,-263r8,-43r187,0","w":487},"a":{"d":"848,-403v-20,90,-28,197,-29,299v0,0,-2,78,4,108r-114,0r-29,-178r-8,0v-56,76,-134,147,-232,182v-33,12,-67,17,-104,17v-163,0,-244,-106,-244,-318v0,-315,116,-563,320,-688v110,-67,250,-85,410,-57v55,10,107,22,155,37xm256,-293v0,94,34,189,127,187v77,-1,132,-44,179,-82v47,-40,92,-97,120,-150r115,-553v-41,-19,-93,-29,-156,-29v-145,0,-229,99,-287,200v-61,107,-97,266,-98,427","w":997},"b":{"d":"770,-1049v166,-4,230,136,231,299v2,244,-76,436,-186,568v-94,112,-230,195,-412,200v-127,3,-250,-32,-315,-81r291,-1371r153,0r-124,586r8,0v61,-77,140,-149,244,-184v34,-12,71,-17,110,-17xm806,-868v-41,-68,-119,-58,-190,-24v-109,53,-196,152,-254,255r-102,481v41,29,99,43,174,43v44,0,90,-13,138,-40v106,-62,184,-171,228,-305v25,-74,38,-159,38,-255v0,-69,-12,-121,-32,-155","w":1067},"c":{"d":"471,-106v82,2,190,-51,238,-84r39,102v-60,52,-146,84,-236,104v-84,18,-183,6,-242,-23v-106,-52,-166,-150,-168,-296v-3,-231,71,-420,174,-547v88,-109,217,-195,392,-199v97,-1,156,20,219,48r-58,127v-47,-27,-120,-45,-196,-44v-47,0,-93,16,-137,48v-93,67,-160,174,-199,300v-21,66,-31,134,-31,203v0,159,64,257,205,261","w":860},"d":{"d":"858,-352v-22,113,-41,231,-29,356r-102,0r-29,-178r-8,0v-57,77,-138,148,-238,182v-110,38,-221,13,-284,-66v-82,-104,-78,-351,-31,-512v50,-170,138,-315,271,-404v93,-62,213,-80,348,-60v32,5,88,26,88,26r90,-426r153,0xm266,-311v1,103,36,208,140,205v71,-2,128,-45,172,-82v46,-40,94,-97,122,-150r115,-532v-53,-34,-104,-41,-194,-41v-130,0,-206,90,-259,184v-59,105,-96,257,-96,416","w":1042},"e":{"d":"467,-106v110,0,223,-48,281,-93r49,99v-83,73,-219,124,-365,125v-220,2,-330,-137,-330,-357v0,-224,72,-404,172,-526v85,-103,207,-191,373,-191v138,0,229,56,269,153v11,29,16,60,16,93v0,97,-49,171,-142,228v-107,66,-317,94,-518,79v-9,43,-16,90,-16,136v1,146,63,254,211,254xm774,-797v0,-84,-60,-120,-151,-121v-75,0,-141,26,-196,77v-55,51,-97,128,-126,231v164,-1,340,-3,428,-81v29,-26,45,-61,45,-106","w":948},"f":{"d":"-188,270v55,18,86,25,157,25v52,0,91,-25,117,-75v26,-50,48,-129,66,-236r143,-877r-158,0r27,-131r149,0v0,0,33,-194,61,-268v39,-106,116,-167,261,-166v94,0,180,20,246,49r-45,121v-67,-26,-130,-39,-191,-39v-51,0,-88,17,-111,52v-23,35,-40,90,-53,167r-14,84r207,0r-25,131r-200,0r-164,963v-25,145,-68,271,-179,328v-92,47,-259,30,-339,-13","w":569},"g":{"d":"344,23v-162,0,-250,-130,-246,-308v6,-320,131,-563,336,-689v73,-45,157,-68,252,-68v137,-1,231,24,320,63r-218,1026v-29,134,-78,232,-148,294v-70,62,-163,93,-280,93v-89,0,-162,-12,-219,-34v-57,-22,-101,-41,-131,-58r68,-115v74,46,165,76,293,76v68,0,125,-24,171,-73v46,-49,82,-127,105,-232r37,-172r-8,0v-77,97,-163,197,-332,197xm262,-311v0,108,43,202,139,202v133,0,209,-102,270,-186v23,-32,41,-63,56,-92r104,-494v-43,-24,-110,-30,-176,-30v-134,0,-220,89,-279,181v-65,104,-114,254,-114,419","w":1034},"h":{"d":"795,-1049v145,0,217,64,215,224v0,57,-10,126,-27,207r-131,618r-154,0v0,0,100,-459,144,-693v6,-32,8,-60,8,-85v0,-97,-35,-140,-127,-140v-89,0,-159,53,-215,99v-61,50,-120,125,-152,198r-129,621r-153,0r303,-1434r153,0r-127,586r9,0v63,-77,151,-146,258,-182v38,-13,80,-19,125,-19","w":1083},"i":{"d":"328,-1024r153,0r-217,1024r-153,0xm471,-1227v-61,0,-111,-49,-111,-110v0,-61,50,-113,111,-113v61,0,113,52,113,113v0,61,-52,110,-113,110","w":530},"j":{"d":"303,-1024r154,0r-230,1079v-27,127,-70,221,-127,281v-69,73,-169,101,-297,86r31,-133v186,2,219,-141,252,-295xm446,-1227v-61,0,-110,-49,-110,-110v0,-61,49,-113,110,-113v61,0,113,52,113,113v0,61,-51,110,-113,110","w":509},"k":{"d":"434,-461r-110,0r-97,461r-153,0r303,-1434r153,0r-186,873r88,-23r369,-440r188,0r-364,416r-97,67r78,80r230,461r-170,0","w":919},"l":{"d":"260,18v-103,0,-160,-41,-158,-153v0,-27,4,-61,13,-101r254,-1198r153,0r-250,1190v-11,57,-13,131,43,131v63,0,86,-7,136,-24r0,117v-49,25,-120,38,-191,38","w":552},"m":{"d":"1324,-722v16,-97,13,-201,-91,-196v-76,4,-136,55,-184,97v-53,47,-106,114,-138,176r-133,645r-153,0r123,-580v17,-78,32,-144,32,-223v0,-70,-21,-116,-90,-115v-82,1,-143,51,-192,94v-50,46,-103,110,-136,167r-135,657r-153,0r217,-1024r108,0r-12,176r8,0r71,-68v76,-67,165,-131,304,-133v130,-2,153,88,156,218v66,-82,153,-160,262,-199v35,-13,71,-19,106,-19v137,4,196,57,195,207v0,57,-11,133,-31,228r-129,614r-153,0r129,-616v8,-39,14,-74,19,-106","w":1562},"n":{"d":"774,-1049v145,0,224,65,221,222v0,41,-6,90,-18,147r-146,680r-153,0r152,-720v20,-109,-6,-203,-125,-198v-84,3,-150,47,-201,88v-56,46,-106,112,-142,175r-135,655r-153,0r217,-1024r106,0r-8,176r8,0v87,-101,192,-201,377,-201","w":1069},"o":{"d":"639,-1049v215,3,313,132,315,344v2,211,-60,394,-150,519v-81,112,-196,208,-370,211v-122,2,-202,-44,-257,-109v-48,-57,-75,-139,-75,-235v0,-323,123,-560,329,-677v64,-37,134,-53,208,-53xm791,-692v0,-138,-38,-228,-183,-226v-45,0,-89,14,-129,46v-129,102,-213,287,-213,516v0,149,46,249,189,250v45,0,88,-16,128,-48v86,-70,146,-188,180,-318v19,-70,28,-144,28,-220","w":1019},"p":{"d":"432,25v-75,0,-159,-16,-199,-41r-90,426r-153,0r305,-1434r106,0r-10,176r8,0v61,-76,135,-149,238,-184v34,-12,71,-17,111,-17v175,4,237,126,239,308v2,238,-73,432,-178,563v-53,65,-113,115,-179,150v-66,35,-133,53,-198,53xm823,-729v0,-98,-38,-190,-133,-189v-86,1,-148,54,-197,100v-50,49,-97,117,-128,179r-101,485v75,63,215,63,304,4v160,-106,254,-310,255,-579","w":1040},"q":{"d":"338,25v-181,0,-244,-132,-244,-314v0,-205,75,-389,170,-513v107,-140,272,-269,521,-234v76,11,153,28,206,59r-295,1387r-153,0r125,-582r-9,0v-74,94,-159,197,-321,197xm819,-881v-36,-22,-107,-29,-160,-30v-53,0,-105,17,-153,51v-102,72,-174,193,-215,330v-22,73,-33,149,-33,227v0,65,11,114,32,147v41,66,127,59,194,19v101,-60,180,-166,233,-271","w":1030},"r":{"d":"406,-848v64,-93,132,-185,282,-190v30,0,61,5,94,14r-41,135v-101,-21,-187,-1,-253,57v-51,44,-90,97,-119,160r-142,672r-153,0r217,-1024r106,0r0,176r9,0","w":669},"s":{"d":"309,-106v128,0,223,-54,221,-183v0,-79,-46,-120,-94,-157v-112,-84,-270,-131,-270,-326v0,-89,48,-152,103,-196v60,-48,153,-81,259,-81v132,0,197,14,275,56r-51,123v-55,-31,-129,-47,-224,-48v-106,0,-200,42,-198,146v1,70,49,101,94,135v114,85,267,141,270,336v3,222,-169,326,-395,326v-113,0,-226,-25,-293,-66r57,-129v53,36,155,65,246,64","w":815},"t":{"d":"545,-31v-52,32,-157,56,-240,56v-124,0,-186,-57,-186,-170v0,-23,3,-52,10,-86r139,-662r-153,0r30,-131r152,0r43,-203r164,-47r-53,250r268,0r-31,131r-266,0r-129,619v0,0,-10,54,-10,81v0,65,28,87,90,87v74,0,122,-20,172,-50r0,125","w":641},"u":{"d":"334,25v-143,0,-212,-75,-211,-222v0,-48,7,-101,20,-161r140,-666r153,0r-143,682v-22,103,-24,239,92,236v81,-2,145,-47,196,-88v57,-46,110,-115,146,-179r137,-651r154,0v0,0,-102,459,-146,693v-17,91,-29,201,-30,304r0,27r-121,0r0,-195r-8,0v-65,85,-151,162,-263,201v-37,13,-75,19,-116,19","w":1046},"v":{"d":"393,-424r19,195r4,0r88,-199r346,-596r176,0r-639,1047r-65,0r-199,-1047r164,0","w":915},"w":{"d":"874,-1024r97,598r8,197r2,0r80,-201r301,-594r156,0r-551,1047r-78,0r-109,-676r-2,-168r-4,0r-76,170r-389,674r-73,0r-119,-1047r155,0r64,596r-4,199r8,0r82,-203r338,-592r114,0","w":1402},"x":{"d":"416,-524r-219,-500r174,0r121,283r36,116r84,-116r248,-283r187,0r-435,492r244,532r-174,0r-139,-311r-41,-123r-86,123r-275,311r-186,0","w":991},"y":{"d":"397,-360r11,196r10,0r78,-198r340,-662r163,0r-483,913r-105,196v-62,111,-132,220,-223,290v-55,43,-106,52,-182,41v-17,-3,-33,-8,-47,-15r49,-141v72,21,113,0,168,-54v41,-40,84,-109,133,-206r-176,-1024r164,0","w":899},"z":{"d":"23,-141r575,-654r113,-88r-529,0r31,-141r690,0r-31,141r-581,660r-111,82r535,0r-29,141r-690,0","w":878},"{":{"d":"342,-479v66,10,110,91,95,177v-34,191,-111,506,-113,552v-1,52,27,78,86,78r96,0r-33,143r-166,0v-96,1,-150,-57,-147,-154v0,-19,4,-39,8,-59r102,-487v13,-57,17,-131,-21,-157v-23,-16,-54,-26,-95,-26r30,-139v101,0,166,-58,191,-174r106,-496v24,-116,96,-215,230,-215r166,0r-31,144r-98,0v-84,3,-111,43,-127,121r-101,485v-16,104,-88,174,-176,194","w":667},"|":{"d":"236,-1434r141,0r0,1700r-141,0r0,-1700","w":487},"}":{"d":"438,-1436v96,0,148,54,148,154v0,19,-4,39,-8,59r-103,488v-5,23,-8,44,-8,61v-4,90,42,119,127,121r-33,139v-123,2,-173,84,-197,198r-98,472v-24,116,-98,215,-231,215r-164,0r33,-143r96,0v80,-3,107,-45,123,-121r102,-486v19,-104,87,-174,178,-194r5,-12v-71,-10,-115,-88,-101,-178r4,-25r110,-506v8,-64,-18,-99,-83,-98r-94,0r28,-144r166,0","w":677},"~":{"d":"383,-713v-96,0,-150,41,-219,97r-70,-123v59,-45,112,-77,160,-95v84,-31,157,-35,238,-8v64,21,122,54,182,77v29,11,59,17,90,17v75,0,117,-29,168,-73r69,125v-83,55,-146,96,-253,96v-117,0,-187,-63,-274,-96v-28,-11,-58,-17,-91,-17","w":983},"\u00a1":{"d":"197,410r-160,0r151,-711r109,-361r96,0r-45,361xm387,-809v-69,0,-119,-50,-119,-119v0,-71,49,-119,119,-119v70,0,119,48,119,119v0,69,-50,119,-119,119","w":593},"\u00a2":{"d":"618,-111v68,-8,154,-50,201,-79r39,102v-60,53,-162,91,-256,106r-39,187r-135,0r39,-185v-168,-27,-258,-138,-260,-323v-3,-212,58,-384,145,-509v77,-112,190,-201,340,-228r41,-189r137,0r-41,182v67,7,118,25,168,46r-57,127v-39,-23,-93,-36,-152,-41xm396,-554v-32,110,-39,278,12,362v25,42,61,68,106,79r168,-796v-95,27,-168,106,-217,190v-29,49,-51,105,-69,165"},"\u00a3":{"d":"392,-383v31,-84,32,-207,11,-299r-192,0r31,-131r133,0v-26,-119,-23,-282,24,-380v79,-165,233,-261,467,-265v103,-1,211,26,275,61r-56,131v-85,-46,-260,-74,-373,-30v-115,45,-188,146,-190,305v0,75,5,124,19,178r317,0r-31,131r-256,0v12,74,12,181,-5,252v-23,98,-59,187,-124,237r-92,70r-2,10r127,-28r500,0r-31,141r-868,0r30,-145v96,-2,170,-56,218,-114v29,-35,50,-76,68,-124"},"\u00a5":{"d":"264,-672r182,0r-235,-762r178,0r189,627r6,125r2,0r61,-129r436,-623r185,0r-551,762r182,0r-27,123r-233,0r-27,129r234,0r-27,123r-233,0r-62,297r-164,0r62,-297r-238,0r25,-123r240,0r26,-129r-237,0"},"\u00a7":{"d":"395,-115v103,-1,195,-34,193,-139v-2,-71,-52,-102,-103,-130v-97,-53,-216,-92,-274,-185v-46,-73,-37,-208,13,-275v31,-41,67,-79,114,-110r94,-37v-54,-45,-86,-91,-86,-176v0,-148,105,-226,222,-269v83,-31,237,-26,316,-4v43,12,80,28,111,47r-59,125v-57,-32,-143,-51,-234,-51v-107,0,-196,58,-196,158v0,67,60,92,110,117v62,31,145,51,199,92v58,43,107,100,107,202v0,124,-82,219,-160,269r-111,37v60,45,97,88,97,190v0,100,-49,165,-109,209v-61,45,-151,69,-254,70v-129,1,-212,-31,-287,-74r66,-125v57,31,138,61,231,59xm740,-649v22,-42,25,-113,0,-151v-27,-42,-76,-68,-128,-89r-92,-37v-86,40,-176,91,-176,213v0,98,67,138,140,167r89,36v70,-29,133,-73,167,-139","w":968},"\u00a8":{"d":"494,-1237v-56,0,-95,-46,-95,-100v0,-57,38,-105,95,-105v57,0,96,48,96,105v0,54,-41,100,-96,100xm868,-1237v-57,0,-94,-46,-94,-102v0,-56,37,-103,94,-103v58,0,97,46,97,103v0,57,-39,102,-97,102","w":501},"\u00a9":{"d":"209,-290v-67,-174,-68,-439,6,-608v75,-174,207,-301,385,-368v171,-65,386,-65,557,0v178,67,310,194,385,368v74,172,74,436,0,608v-75,174,-208,300,-385,368v-173,66,-405,63,-575,0v-178,-66,-305,-191,-373,-368xm346,-844v-59,140,-58,361,0,501v59,143,162,242,306,296v137,52,316,52,453,0v211,-81,351,-258,351,-547v0,-289,-140,-465,-352,-547v-138,-52,-315,-52,-452,0v-144,54,-247,155,-306,297xm698,-594v-1,151,67,250,211,250v64,0,119,-12,164,-37r43,121v-65,37,-139,55,-242,55v-227,0,-339,-159,-339,-389v0,-253,147,-418,406,-385v41,6,73,16,106,29r55,22r-53,125v-87,-48,-228,-58,-297,15v-35,37,-54,100,-54,194","w":1650},"\u00aa":{"d":"492,-1335v-96,0,-166,22,-228,49r-10,-100v78,-38,175,-64,297,-64v113,0,197,53,197,152v0,184,-95,333,-101,520r-102,0r-6,-94r-7,0v-51,47,-118,102,-225,102v-114,0,-184,-74,-184,-176v0,-140,104,-199,223,-226v76,-18,169,-17,250,-6v31,-89,7,-157,-104,-157xm264,-961v1,49,31,76,86,76v56,0,100,-13,132,-38v32,-25,56,-50,73,-74r16,-86v-100,-5,-165,-5,-236,21v-40,15,-72,47,-71,101","w":780},"\u00ab":{"d":"434,-530r406,-467r90,94r-252,295r-115,76r70,75r137,289r-111,86xm78,-530r409,-471r93,96r-254,297r-117,76r72,75r137,291r-111,88","w":929},"\u00ac":{"d":"137,-803r869,0r0,393r-144,0r0,-245r-725,0r0,-148","w":1034},"\u00ae":{"d":"323,-692v-54,-130,-55,-335,1,-464v81,-185,244,-310,499,-310v257,0,422,123,501,310v55,130,54,335,-1,464v-56,131,-157,225,-291,275v-128,49,-295,47,-422,0v-133,-50,-232,-144,-287,-275xm440,-1109v-40,101,-40,271,2,371v61,144,186,236,381,236v198,0,324,-88,383,-234v40,-100,41,-274,-2,-373v-62,-144,-184,-237,-381,-237v-198,0,-325,90,-383,237xm1026,-1051v0,88,-66,135,-145,140r57,28r152,224r-125,0r-148,-213r-98,-31r0,244r-107,0r0,-531v45,-14,143,-20,205,-20v112,2,209,41,209,159xm788,-965v71,-1,124,-14,125,-82v1,-47,-39,-71,-118,-71v-27,1,-58,-1,-76,8r0,145r69,0","w":1433},"\u00af":{"d":"664,-1317r575,0r-27,127r-577,0","w":641},"\u00b0":{"d":"312,-1048v-29,-68,-31,-169,0,-238v43,-100,129,-172,266,-172v136,0,223,69,266,168v29,68,30,175,0,242v-42,99,-130,167,-266,167v-136,0,-224,-68,-266,-167xm578,-1335v-88,0,-158,70,-158,166v0,97,69,165,158,165v87,0,157,-70,157,-165v0,-96,-69,-166,-157,-166","w":870},"\u00b1":{"d":"113,-1010r360,0r0,-370r148,0r0,370r360,0r0,148r-360,0r0,246r-148,0r0,-246r-360,0r0,-148xm113,-512r868,0r0,147r-868,0r0,-147","w":983},"\u00b4":{"d":"870,-1475r172,0r-10,43r-252,263r-90,0","w":487},"\u00b5":{"d":"403,25v-117,0,-171,-60,-196,-144r-10,0r-15,256r-57,273r-154,0r303,-1434r154,0r-121,588v-13,74,-20,88,-20,143v0,117,55,176,164,176v167,0,276,-120,337,-243r142,-664r153,0r-147,690v-19,103,-41,218,-41,334r-104,0r-25,-152r-8,0v-70,90,-195,177,-355,177","w":1075},"\u03bc":{"d":"403,25v-117,0,-171,-60,-196,-144r-10,0r-15,256r-57,273r-154,0r303,-1434r154,0r-121,588v-13,74,-20,88,-20,143v0,117,55,176,164,176v167,0,276,-120,337,-243r142,-664r153,0r-147,690v-19,103,-41,218,-41,334r-104,0r-25,-152r-8,0v-70,90,-195,177,-355,177","w":1075},"\u00b6":{"d":"774,-1434r141,0r0,1700r-141,0r0,-1700xm455,-635v-102,-2,-169,-59,-216,-123v-71,-97,-112,-279,-61,-426v33,-96,92,-172,178,-216v44,-23,93,-34,148,-34r92,0r0,1700r-141,0r0,-901","w":1013},"\u00b7":{"d":"201,-418v0,37,11,66,33,87v21,21,50,32,85,32v35,0,64,-11,86,-32v22,-21,33,-50,33,-87v0,-35,-11,-64,-33,-86v-21,-22,-50,-33,-86,-33v-35,0,-64,11,-86,33v-21,22,-32,51,-32,86","w":546},"\u00b8":{"d":"709,260v0,-26,-14,-46,-43,-58v-29,-12,-67,-18,-115,-18r133,-184r109,0r-68,88v73,8,127,58,127,143v0,57,-23,102,-64,141v-58,54,-193,66,-303,46r35,-80v89,6,189,0,189,-78","w":743},"\u00ba":{"d":"358,-762v-141,1,-235,-95,-235,-242v0,-155,53,-269,127,-346v60,-63,148,-106,256,-108v156,-2,237,89,237,244v0,147,-44,259,-113,336v-60,68,-154,115,-272,116xm602,-1206v1,-90,-37,-133,-121,-133v-70,0,-121,47,-153,94v-37,54,-64,134,-64,225v0,84,37,142,119,139v115,-5,171,-91,201,-189v12,-40,18,-85,18,-136","w":776},"\u00bb":{"d":"573,-549r-405,467r-90,-92r252,-295r114,-78r-71,-88r-140,-289r117,-73xm930,-549r-410,471r-92,-94r254,-297r115,-78r-72,-90r-141,-291r118,-73","w":929},"\u00bf":{"d":"266,434v-184,0,-292,-86,-295,-250v-3,-152,55,-252,123,-336v103,-127,254,-212,343,-352v28,-45,49,-97,59,-158r131,0v-12,140,-76,235,-147,318v-101,117,-236,203,-311,342v-23,41,-34,88,-34,141v0,118,59,165,189,164v106,0,199,-50,270,-90r41,119v-100,61,-207,102,-369,102xm598,-811v-69,0,-119,-50,-119,-119v0,-71,49,-119,119,-119v70,0,119,48,119,119v0,69,-50,119,-119,119","w":845},"\u00c1":{"d":"956,-1782r237,0r-10,43r-358,199r-150,0xm827,397r-499,0r-222,-397r-174,0r828,1456r76,0r206,-1456r-157,0xm408,545r403,0r-59,436r-4,217r-3,0r-92,-221","w":1140},"\u00c9":{"d":"924,-1782r237,0r-10,43r-358,199r-150,0xm387,1434r739,0r-30,-152r-580,0r-100,-469r530,0r-31,-151r-530,0r-109,-510r590,0r-32,-152r-590,0r-162,0","w":1044},"\u00cd":{"d":"668,-1782r237,0r-10,43r-358,199r-150,0xm430,1434r164,0r-303,-1434r-164,0","w":567},"\u00d3":{"d":"1090,-1782r237,0r-10,43r-358,199r-150,0xm145,524v0,125,17,245,52,359v34,113,83,213,146,298v63,85,140,153,230,203v89,49,188,74,297,74v65,0,126,-10,183,-30v56,-19,104,-51,144,-94v40,-43,71,-98,94,-167v23,-68,34,-151,34,-249v0,-129,-17,-250,-51,-364v-34,-114,-82,-214,-144,-300v-61,-86,-135,-154,-220,-204v-85,-50,-179,-75,-281,-75v-161,0,-282,47,-363,141v-81,93,-121,229,-121,408xm317,526v0,-129,27,-228,80,-298v53,-70,132,-105,236,-105v77,0,147,21,210,64v63,42,118,99,165,172v46,72,82,156,107,252v25,95,38,196,38,302v0,79,-9,145,-27,197v-17,52,-41,93,-70,122v-29,29,-63,50,-101,62v-37,11,-75,17,-113,17v-78,0,-149,-22,-214,-65v-64,-43,-119,-100,-165,-173v-45,-72,-81,-156,-107,-251v-26,-95,-39,-193,-39,-296","w":1333},"\u00da":{"d":"1040,-1782r237,0r-10,43r-358,199r-150,0xm1174,1434r155,0r-201,-957v-19,-87,-43,-162,-72,-225v-28,-63,-64,-114,-107,-154v-43,-39,-94,-69,-154,-88v-60,-19,-130,-28,-209,-28v-75,0,-139,9,-191,26v-52,17,-94,40,-126,71v-32,31,-55,68,-70,113v-14,44,-21,93,-21,146v0,56,8,119,23,190r190,906r164,0r-190,-908v-15,-60,-23,-115,-23,-164v0,-86,23,-146,68,-179v45,-33,111,-50,200,-50v53,0,100,8,141,23v40,15,75,38,104,69v29,31,54,72,74,121v19,49,37,109,52,178","w":1265},"\u00dd":{"d":"971,-1782r237,0r-10,43r-358,199r-150,0xm494,569r-273,865r178,0r183,-627r6,-125r2,0r61,129r445,623r184,0r-623,-863r-120,-571r-164,0","w":1087},"\u00e1":{"d":"848,403v-11,-51,-18,-102,-23,-154v-4,-51,-6,-100,-6,-145r0,-58v0,-19,1,-35,4,-50r-114,0r-29,178r-8,0v-17,-23,-37,-47,-61,-71v-24,-23,-50,-45,-79,-64v-29,-19,-59,-35,-92,-47v-33,-11,-67,-17,-104,-17v-163,0,-244,106,-244,318v0,87,11,176,34,266v23,90,58,171,105,244v47,72,107,131,182,178v74,47,164,70,269,70v38,0,85,-5,140,-14v55,-9,107,-21,155,-36xm383,106v33,0,64,8,94,24v30,16,58,36,85,59v27,23,50,47,71,74v21,27,37,52,49,75r115,553v-41,19,-93,29,-156,29v-63,0,-118,-19,-166,-56v-48,-37,-88,-85,-121,-144v-33,-59,-57,-127,-74,-202v-16,-75,-24,-150,-24,-225v0,-52,10,-96,31,-133v20,-36,52,-54,96,-54xm804,1475r172,0r-10,-43r-252,-263r-90,0","w":997},"\u00e9":{"d":"797,100v-48,-41,-105,-72,-170,-93v-65,-21,-130,-32,-195,-32v-109,0,-192,32,-247,95v-55,63,-83,150,-83,262v0,112,16,212,48,301v31,89,73,164,124,225v51,61,109,109,174,142v65,33,131,49,199,49v49,0,92,-7,128,-21v36,-13,66,-31,89,-54v23,-23,41,-49,52,-78v11,-29,16,-60,16,-93v0,-97,-47,-173,-142,-228v-94,-55,-231,-83,-411,-83v-17,0,-34,0,-52,1v-17,1,-36,2,-55,3v-5,-26,-9,-51,-12,-74v-3,-23,-4,-44,-4,-62v0,-75,17,-137,51,-184v34,-47,87,-70,160,-70v60,0,115,10,165,30v50,20,89,41,116,63xm623,918v-75,0,-141,-26,-196,-77v-55,-51,-97,-128,-126,-231v52,0,106,1,162,4v56,3,107,10,153,22v45,11,83,30,113,55v30,25,45,61,45,106v0,13,-2,27,-7,42v-5,14,-13,27,-24,39v-11,11,-26,21,-46,29v-19,7,-44,11,-74,11xm768,1475r172,0r-10,-43r-252,-263r-90,0","w":948},"\u00ed":{"d":"328,-1024r153,0r-217,1024r-153,0xm542,1475r172,0r-10,-43r-252,-263r-90,0","w":530},"\u00f3":{"d":"102,319v0,108,14,207,42,297v28,89,67,166,116,230v49,64,106,114,171,150v65,35,134,53,208,53v57,0,106,-9,147,-28v40,-19,73,-44,98,-76v25,-32,43,-69,54,-111v11,-41,16,-84,16,-129v0,-103,-13,-198,-40,-287v-27,-89,-64,-166,-111,-232v-47,-65,-101,-117,-164,-155v-63,-37,-131,-56,-205,-56v-61,0,-113,10,-155,30v-41,20,-75,46,-102,79v-27,33,-46,70,-58,111v-11,41,-17,82,-17,124xm266,356v0,-81,15,-143,45,-186v30,-43,78,-64,144,-64v45,0,88,16,128,49v40,32,75,75,106,130v31,55,55,117,74,188v19,70,28,143,28,219v0,69,-13,124,-38,165v-25,41,-74,61,-145,61v-45,0,-88,-16,-129,-47v-41,-31,-77,-72,-109,-124v-32,-51,-57,-111,-76,-179v-19,-67,-28,-138,-28,-212xm772,1475r172,0r-10,-43r-252,-263r-90,0","w":1019},"\u00f7":{"d":"113,-766r868,0r0,148r-868,0r0,-148xm573,-940v-69,0,-118,-50,-118,-119v0,-71,48,-119,118,-119v70,0,119,48,119,119v0,70,-49,119,-119,119xm573,-190v-69,0,-118,-50,-118,-119v0,-71,48,-119,118,-119v71,0,119,46,119,119v0,70,-49,119,-119,119","w":983},"\u00fa":{"d":"436,1024r-143,-682v-8,-37,-12,-71,-12,-102v0,-38,8,-70,23,-96v15,-25,42,-38,81,-38v33,0,66,8,100,25v33,17,65,38,96,64v31,25,59,54,84,86v25,31,45,62,62,92r137,651r154,0r-129,-608v-5,-23,-11,-52,-17,-85v-5,-33,-10,-69,-15,-106v-5,-37,-8,-72,-11,-107v-3,-35,-4,-65,-4,-91r0,-27r-121,0r0,195r-8,0v-21,-27,-44,-54,-71,-80v-27,-26,-56,-49,-88,-70v-32,-21,-67,-38,-104,-51v-37,-13,-75,-19,-116,-19v-30,0,-58,4,-83,11v-25,7,-48,19,-67,36v-19,17,-34,39,-45,67v-11,28,-16,64,-16,108v0,48,7,102,20,161r140,666r153,0xm774,1475r172,0r-10,-43r-252,-263r-90,0","w":1046},"\u00fd":{"d":"397,360r11,-196r10,0r78,198r340,662r163,0r-483,-913r-105,-196v-35,-63,-71,-120,-108,-170v-37,-50,-75,-90,-115,-120v-39,-30,-80,-45,-122,-45v-23,0,-44,1,-61,4v-17,3,-32,8,-46,15r49,141v15,-5,32,-8,49,-8v39,0,79,21,119,62v40,41,84,109,133,206r-176,1024r164,0xm692,1475r172,0r-10,-43r-252,-263r-90,0","w":899},"\u010c":{"d":"977,-1528r-97,0r-198,-211r6,-43r137,0r94,103r19,69r49,-67r145,-105r156,0r-8,45xm983,59v-47,-31,-96,-53,-148,-66v-51,-12,-111,-18,-180,-18v-81,0,-152,15,-215,44v-63,29,-116,70,-160,123v-43,53,-77,115,-100,186v-23,71,-35,148,-35,233v0,154,23,287,68,400v45,113,105,206,179,280v73,74,156,129,248,164v92,35,185,53,280,53v78,0,142,-6,191,-17v49,-11,89,-23,120,-38r-74,-150v-27,15,-63,28,-108,39v-44,10,-95,15,-152,15v-77,0,-150,-17,-221,-51v-70,-33,-132,-81,-185,-144v-53,-63,-95,-139,-127,-229v-31,-90,-47,-191,-47,-303v0,-65,9,-126,26,-182v17,-55,42,-103,74,-143v32,-40,72,-71,119,-94v47,-23,100,-34,160,-34v64,0,117,7,160,22v43,14,81,31,115,50","w":1114},"\u010d":{"d":"748,88v-21,-18,-44,-34,-71,-48v-27,-13,-54,-25,-82,-34v-28,-9,-56,-17,-83,-23v-27,-5,-53,-8,-78,-8v-67,0,-122,11,-165,32v-43,21,-76,48,-101,81v-25,33,-42,68,-52,107v-9,38,-14,74,-14,108v0,116,16,220,48,313v31,92,73,170,126,234v52,64,112,113,181,148v68,34,138,51,211,51v52,0,95,-5,128,-15v33,-9,64,-20,91,-33r-58,-127v-23,13,-52,24,-86,32v-34,8,-71,12,-110,12v-47,0,-92,-16,-137,-48v-44,-31,-83,-73,-117,-124v-34,-51,-61,-109,-82,-176v-21,-66,-31,-134,-31,-203v0,-89,19,-154,56,-197v37,-43,86,-64,149,-64v41,0,84,9,129,28v45,19,82,37,109,56xm672,1126r-71,0r-146,373r148,0r47,-135r14,-119r70,119r114,135r144,0","w":860},"\u010e":{"d":"832,-1528r-97,0r-198,-211r6,-43r137,0r94,103r19,69r49,-67r145,-105r156,0r-8,45xm387,1434v52,7,111,11,177,13v65,2,124,3,177,3v81,0,154,-11,220,-32v65,-21,121,-54,167,-98v45,-43,80,-98,105,-165v25,-67,37,-145,37,-235v0,-60,-6,-125,-17,-196v-11,-71,-29,-140,-54,-209v-25,-69,-59,-135,-102,-200v-42,-64,-94,-121,-157,-171v-63,-49,-136,-89,-221,-118v-85,-29,-182,-44,-293,-44v-21,0,-48,0,-81,1v-33,1,-66,2,-99,3v-95,5,-150,9,-164,12xm729,1298v-17,0,-35,-0,-55,-1r-60,-2v-19,-1,-38,-2,-56,-3v-17,-1,-31,-3,-40,-4r-242,-1147v5,-1,16,-2,33,-3r52,-2r54,-2v17,-1,29,-1,36,-1v119,0,219,25,301,74v81,49,148,112,199,187v51,75,89,157,112,247v23,90,35,175,35,256v0,61,-7,117,-21,166v-13,49,-35,91,-64,126v-29,35,-67,62,-114,81v-47,19,-103,28,-170,28","w":1273},"\u010f":{"d":"1090,-1079v63,-94,114,-227,141,-355r156,0v-46,156,-146,290,-242,392xm858,352v-11,-53,-19,-103,-25,-150v-5,-46,-8,-89,-8,-128v0,-15,0,-29,1,-42v1,-12,2,-24,3,-36r-102,0r-29,178r-8,0v-17,-23,-37,-47,-62,-71v-24,-23,-51,-45,-81,-64v-30,-19,-62,-35,-96,-47v-33,-11,-68,-17,-103,-17v-75,0,-135,28,-180,83v-44,55,-66,143,-66,264v0,81,12,164,35,249v23,85,58,162,103,232v45,69,101,127,169,172v67,45,145,67,234,67v25,0,46,-1,64,-2v17,-1,34,-3,50,-6v15,-3,30,-6,44,-11r43,-15r90,426r153,0xm406,106v29,0,58,8,88,24v30,16,58,36,85,59v26,23,50,47,71,74v21,27,38,52,50,75r115,532v-23,15,-50,26,-79,32v-29,6,-68,9,-115,9v-55,0,-104,-17,-148,-50v-43,-33,-81,-78,-112,-134v-31,-56,-54,-120,-71,-193v-16,-72,-24,-146,-24,-223v0,-56,11,-104,33,-145v22,-40,58,-60,107,-60","w":1042},"\u011a":{"d":"807,-1528r-97,0r-198,-211r6,-43r137,0r94,103r19,69r49,-67r145,-105r156,0r-8,45xm387,1434r739,0r-30,-152r-580,0r-100,-469r530,0r-31,-151r-530,0r-109,-510r590,0r-32,-152r-590,0r-162,0","w":1044},"\u011b":{"d":"797,100v-48,-41,-105,-72,-170,-93v-65,-21,-130,-32,-195,-32v-109,0,-192,32,-247,95v-55,63,-83,150,-83,262v0,112,16,212,48,301v31,89,73,164,124,225v51,61,109,109,174,142v65,33,131,49,199,49v49,0,92,-7,128,-21v36,-13,66,-31,89,-54v23,-23,41,-49,52,-78v11,-29,16,-60,16,-93v0,-97,-47,-173,-142,-228v-94,-55,-231,-83,-411,-83v-17,0,-34,0,-52,1v-17,1,-36,2,-55,3v-5,-26,-9,-51,-12,-74v-3,-23,-4,-44,-4,-62v0,-75,17,-137,51,-184v34,-47,87,-70,160,-70v60,0,115,10,165,30v50,20,89,41,116,63xm623,918v-75,0,-141,-26,-196,-77v-55,-51,-97,-128,-126,-231v52,0,106,1,162,4v56,3,107,10,153,22v45,11,83,30,113,55v30,25,45,61,45,106v0,13,-2,27,-7,42v-5,14,-13,27,-24,39v-11,11,-26,21,-46,29v-19,7,-44,11,-74,11xm688,1126r-71,0r-146,373r148,0r47,-135r14,-119r70,119r114,135r144,0","w":948},"\u0147":{"d":"943,-1528r-97,0r-198,-211r6,-43r137,0r94,103r19,69r49,-67r145,-105r156,0r-8,45xm535,938r-70,211r-6,0r-25,-211r-198,-938r-154,0r309,1456r82,0r447,-958r67,-201r8,0r19,201r200,936r154,0r-309,-1457r-76,0","w":1314},"\u0148":{"d":"658,0r137,647v5,25,10,49,15,73v4,24,6,45,6,64v0,39,-9,72,-28,97v-19,25,-53,37,-103,37v-35,0,-70,-8,-105,-25v-34,-17,-66,-38,-96,-63v-30,-25,-57,-53,-81,-84v-24,-31,-44,-61,-61,-91r-135,-655r-153,0r217,1024r106,0r-8,-176r8,0v18,22,39,45,64,69v25,23,52,45,83,64v31,19,65,36,104,49v38,13,80,19,126,19v68,0,122,-17,162,-50v39,-33,59,-90,59,-172v0,-41,-6,-90,-18,-147r-146,-680r-153,0xm721,1126r-71,0r-146,373r148,0r47,-135r14,-119r70,119r114,135r144,0","w":1069},"\u0158":{"d":"775,-1528r-97,0r-198,-211r6,-43r137,0r94,103r19,69r49,-67r145,-105r156,0r-8,45xm383,1419v57,11,113,19,166,24v53,5,107,7,160,7v52,0,103,-7,152,-20v49,-13,92,-33,130,-61v37,-28,67,-65,90,-110v22,-45,33,-99,33,-163v0,-120,-35,-220,-106,-300v-70,-80,-172,-132,-306,-155r74,-74r221,-567r-178,0r-246,618r-192,31r-135,-649r-164,0xm698,1303v-33,0,-65,-1,-98,-4v-33,-2,-60,-5,-82,-9r-112,-528r141,0v49,0,98,5,145,15v47,9,89,26,126,51v37,24,67,57,90,100v23,42,34,95,34,159v0,25,-5,50,-15,75v-9,25,-24,49,-43,70v-19,21,-44,39,-76,52v-31,13,-68,19,-110,19","w":1163},"\u0159":{"d":"741,889v-12,3,-25,5,-38,6v-13,1,-24,2,-35,2v-69,0,-129,-22,-180,-66v-51,-43,-90,-96,-119,-159r-142,-672r-153,0r217,1024r106,0r0,-176r9,0v17,26,34,50,53,73v19,22,40,42,63,60v23,18,49,32,76,42v27,10,57,15,90,15v30,0,61,-5,94,-14xm561,1126r-71,0r-146,373r148,0r47,-135r14,-119r70,119r114,135r144,0","w":669},"\u0160":{"d":"863,-1528r-97,0r-198,-211r6,-43r137,0r94,103r19,69r49,-67r145,-105r156,0r-8,45xm795,369v0,49,-13,91,-38,125v-25,34,-57,65,-96,93v-38,28,-79,55,-124,81v-44,26,-85,56,-124,90v-38,34,-70,74,-95,121v-25,46,-37,103,-37,172v0,73,13,135,40,187v26,51,62,93,108,126v46,33,100,57,162,72v62,15,128,22,197,22v79,0,151,-6,214,-19v63,-12,112,-27,147,-46r-82,-146v-27,15,-68,30,-122,44v-54,13,-116,20,-187,20v-90,0,-163,-21,-220,-62v-57,-41,-85,-100,-85,-178v0,-51,13,-93,38,-128v25,-35,56,-66,95,-94v38,-28,79,-55,124,-81v44,-26,85,-56,124,-89v38,-33,70,-73,95,-120v25,-47,38,-103,38,-170v0,-133,-48,-235,-144,-307v-95,-71,-232,-107,-411,-107v-91,0,-169,8,-233,24v-63,16,-111,33,-144,52r84,150v31,-18,74,-36,128,-53v54,-17,118,-25,191,-25v42,0,84,4,127,11v43,7,81,21,115,40v34,19,62,45,83,76v21,31,32,71,32,119","w":1034},"\u0161":{"d":"530,289v0,35,-9,65,-27,90v-17,25,-40,47,-67,67v-27,19,-57,39,-88,58v-31,19,-61,40,-88,64v-27,24,-50,52,-68,84v-17,32,-26,72,-26,120v0,38,9,74,28,108v18,33,43,63,75,88v32,25,70,45,115,60v45,14,93,21,144,21v73,0,129,-5,169,-15v39,-9,75,-23,106,-41r-51,-123v-55,31,-129,47,-224,48v-57,0,-105,-12,-142,-36v-37,-24,-56,-61,-56,-110v0,-29,9,-54,27,-75v17,-21,40,-41,67,-60v27,-19,57,-39,88,-59v31,-19,61,-42,88,-67v27,-25,50,-55,68,-89v17,-34,26,-74,26,-121v0,-107,-36,-188,-108,-243v-71,-55,-167,-83,-287,-83v-61,0,-118,6,-169,19v-51,12,-93,28,-124,47r57,129v27,-18,63,-33,108,-46v45,-12,91,-18,138,-18v67,0,120,15,161,45v40,29,60,75,60,138xm579,1126r-71,0r-146,373r148,0r47,-135r14,-119r70,119r114,135r144,0","w":815},"\u0164":{"d":"828,-1528r-97,0r-198,-211r6,-43r137,0r94,103r19,69r49,-67r145,-105r156,0r-8,45xm1233,1282r-424,0r-270,-1282r-164,0r270,1282r-420,0r31,152r1008,0","w":1081},"\u0165":{"d":"529,-1108v63,-94,114,-227,141,-355r156,0v-46,156,-146,290,-242,392xm145,1024r152,0r43,203r164,47r-53,-250r268,0r-31,-131r-266,0r-129,-619r-7,-45v-2,-13,-3,-25,-3,-36v0,-33,8,-55,23,-68v15,-13,37,-19,67,-19v33,0,63,4,90,13v27,8,55,20,82,37r0,-125v-29,-17,-66,-30,-111,-41v-45,-10,-88,-15,-129,-15v-124,0,-186,57,-186,170v0,23,3,52,10,86r139,662r-153,0","w":641},"\u016e":{"d":"893,-1403v-125,0,-216,-56,-216,-170v0,-116,82,-174,216,-174v127,0,217,52,217,174v0,112,-90,170,-217,170xm893,-1659v-57,0,-91,32,-91,86v0,52,33,82,91,82v56,0,92,-30,92,-82v0,-55,-33,-86,-92,-86xm1174,1434r155,0r-201,-957v-19,-87,-43,-162,-72,-225v-28,-63,-64,-114,-107,-154v-43,-39,-94,-69,-154,-88v-60,-19,-130,-28,-209,-28v-75,0,-139,9,-191,26v-52,17,-94,40,-126,71v-32,31,-55,68,-70,113v-14,44,-21,93,-21,146v0,56,8,119,23,190r190,906r164,0r-190,-908v-15,-60,-23,-115,-23,-164v0,-86,23,-146,68,-179v45,-33,111,-50,200,-50v53,0,100,8,141,23v40,15,75,38,104,69v29,31,54,72,74,121v19,49,37,109,52,178","w":1265},"\u016f":{"d":"436,1024r-143,-682v-8,-37,-12,-71,-12,-102v0,-38,8,-70,23,-96v15,-25,42,-38,81,-38v33,0,66,8,100,25v33,17,65,38,96,64v31,25,59,54,84,86v25,31,45,62,62,92r137,651r154,0r-129,-608v-5,-23,-11,-52,-17,-85v-5,-33,-10,-69,-15,-106v-5,-37,-8,-72,-11,-107v-3,-35,-4,-65,-4,-91r0,-27r-121,0r0,195r-8,0v-21,-27,-44,-54,-71,-80v-27,-26,-56,-49,-88,-70v-32,-21,-67,-38,-104,-51v-37,-13,-75,-19,-116,-19v-30,0,-58,4,-83,11v-25,7,-48,19,-67,36v-19,17,-34,39,-45,67v-11,28,-16,64,-16,108v0,48,7,102,20,161r140,666r153,0xm504,1317v0,57,18,103,54,136v36,33,84,50,145,50v57,0,105,-15,143,-45v38,-30,57,-77,57,-141v0,-53,-19,-97,-57,-132v-38,-35,-86,-52,-143,-52v-57,0,-105,16,-143,48v-37,32,-56,77,-56,136xm615,1317v0,-27,9,-49,28,-64v18,-15,38,-22,60,-22v26,0,48,7,65,21v17,13,25,35,25,65v0,30,-9,52,-28,67v-19,14,-39,21,-62,21v-23,0,-44,-7,-62,-21v-17,-13,-26,-36,-26,-67","w":1046},"\u017d":{"d":"793,-1528r-97,0r-198,-211r6,-43r137,0r94,103r19,69r49,-67r145,-105r156,0r-8,45xm29,154r891,1046r100,82r-750,0r31,152r916,0r-31,-154r-897,-1053r-96,-75r751,0r-31,-152r-915,0"},"\u017e":{"d":"23,141r575,654r113,88r-529,0r31,141r690,0r-31,-141r-581,-660r-111,-82r535,0r-29,-141r-690,0xm592,1126r-71,0r-146,373r148,0r47,-135r14,-119r70,119r114,135r144,0","w":878},"\u0192":{"d":"-20,244v58,24,105,40,180,41v52,0,92,-23,118,-70v26,-47,51,-118,66,-215r139,-883r-174,0r0,-141r197,0r22,-137v17,-101,47,-177,90,-225v43,-48,113,-72,211,-72v93,0,183,22,248,51r-47,131v-65,-27,-128,-41,-188,-41v-51,0,-85,16,-104,47v-19,31,-35,85,-48,162r-14,84r246,0r0,141r-269,0r-149,883v-31,165,-37,228,-108,322v-47,63,-115,104,-224,104v-82,1,-176,-25,-235,-49"},"\u02c6":{"d":"944,-1499r62,0r135,373r-129,0r-49,-136r-13,-118r-69,118r-117,136r-139,0","w":882},"\u02c7":{"d":"905,-1126r-71,0r-146,-373r148,0r47,135r14,119r70,-119r114,-135r144,0","w":882},"\u02d8":{"d":"827,-1317v123,0,205,-74,258,-158r72,37v-40,111,-124,199,-233,242v-104,42,-219,24,-288,-46v-45,-46,-70,-108,-73,-185r99,-48v24,89,60,158,165,158","w":583},"\u02d9":{"d":"752,-1227v-61,0,-111,-49,-111,-110v0,-61,50,-113,111,-113v61,0,112,52,112,113v0,61,-51,110,-112,110","w":544},"\u02da":{"d":"1006,-1133v-113,0,-199,-68,-199,-184v0,-115,82,-188,199,-186v117,1,200,62,200,186v0,107,-91,184,-200,184xm1006,-1405v-51,0,-88,30,-88,88v0,51,42,86,88,86v54,-1,90,-28,90,-86v0,-55,-41,-88,-90,-88","w":821},"\u02db":{"d":"662,399v-94,0,-166,-50,-162,-149v5,-120,80,-186,162,-232v31,-17,63,-29,96,-38r104,0v-73,34,-145,72,-181,142v-11,23,-17,48,-17,75v2,52,27,84,86,82v26,0,55,-6,86,-17r2,88v-39,32,-112,49,-176,49","w":782},"\u02dc":{"d":"821,-1317v-58,0,-85,27,-129,60r-26,-86v44,-45,82,-76,114,-93v32,-17,59,-26,84,-26v89,3,116,82,203,82v31,0,68,-17,111,-50r30,89v-39,39,-73,66,-102,81v-29,15,-55,23,-78,23v-90,-3,-117,-80,-207,-80","w":714},"\u02dd":{"d":"842,-1434r151,0r-6,33r-186,232r-82,0xm1126,-1434r166,0r-6,33r-268,232r-90,0","w":972},"\u2206":{"d":"25,0r0,-76r520,-1380r69,0r525,1380r0,76r-1114,0xm213,-147r727,0r-317,-826r-50,-215r-2,0r-57,219","w":1165},"\u0394":{"d":"25,0r0,-76r520,-1380r69,0r525,1380r0,76r-1114,0xm213,-147r727,0r-317,-826r-50,-215r-2,0r-57,219","w":1165},"\u03a9":{"d":"846,-1307v-323,2,-481,202,-481,541v0,169,55,287,135,372v67,72,162,120,270,138r0,256r-586,0r0,-143r238,0r192,20r0,-53r-110,-21v-146,-72,-246,-203,-294,-375v-43,-151,-30,-351,22,-485v93,-243,288,-401,616,-401v335,0,534,165,624,415v50,138,61,336,15,482v-52,163,-156,286,-289,362r-117,23r0,53r197,-20r238,0r0,143r-588,0r0,-256v171,-38,300,-138,366,-292v48,-113,54,-286,14,-418v-40,-133,-122,-235,-240,-294v-62,-32,-136,-47,-222,-47","w":1644},"\u2126":{"d":"846,-1307v-323,2,-481,202,-481,541v0,169,55,287,135,372v67,72,162,120,270,138r0,256r-586,0r0,-143r238,0r192,20r0,-53r-110,-21v-146,-72,-246,-203,-294,-375v-43,-151,-30,-351,22,-485v93,-243,288,-401,616,-401v335,0,534,165,624,415v50,138,61,336,15,482v-52,163,-156,286,-289,362r-117,23r0,53r197,-20r238,0r0,143r-588,0r0,-256v171,-38,300,-138,366,-292v48,-113,54,-286,14,-418v-40,-133,-122,-235,-240,-294v-62,-32,-136,-47,-222,-47","w":1644},"\u03c0":{"d":"137,-854v68,-93,135,-169,287,-170r842,0r-31,145r-162,0r-137,641v-13,49,-7,103,41,103v26,0,66,-7,88,-12r14,110v-50,19,-116,45,-190,45v-90,0,-125,-36,-127,-121v0,-37,7,-70,14,-104r144,-662r-373,0r-187,879r-153,0r188,-879r-28,0v-73,4,-99,42,-140,91","w":1294},"\u2013":{"d":"264,-659r826,0r-33,139r-826,0","w":1284},"\u2014":{"d":"264,-659r1137,0r-33,139r-1137,0","w":1595},"\u2018":{"d":"356,-1366v54,-14,84,32,84,80v0,75,-39,117,-110,119v-68,2,-109,-58,-109,-121v-1,-96,44,-167,90,-216v37,-41,91,-71,140,-89r30,71v-59,29,-113,83,-125,156","w":380},"\u2019":{"d":"379,-1450v82,0,104,40,104,119v0,139,-81,219,-165,275v-25,17,-47,27,-64,32r-33,-70v59,-32,114,-81,127,-157v-55,-3,-82,-36,-82,-97v0,-52,37,-79,75,-95v13,-5,25,-7,38,-7","w":382},"\u201a":{"d":"49,2595v0,17,4,31,12,44v7,13,17,23,28,32v11,8,22,14,35,19v13,5,25,7,38,7v41,0,68,-10,83,-31v14,-20,21,-49,21,-88v0,-47,-9,-88,-27,-123v-17,-35,-38,-66,-63,-91v-25,-25,-50,-46,-76,-62v-25,-15,-46,-26,-63,-31r-33,70v31,17,59,38,82,64v23,25,38,56,45,93v-55,3,-82,36,-82,97","w":387},"\u201c":{"d":"725,1286v0,-39,-10,-69,-30,-89v-19,-20,-46,-30,-80,-30v-35,0,-62,12,-81,37v-19,25,-28,53,-28,84v0,47,9,88,27,124v17,36,38,67,63,92v25,25,50,45,76,60v26,14,47,24,64,29r30,-71v-31,-15,-59,-36,-82,-63v-23,-27,-37,-58,-43,-93v4,1,10,2,19,2v21,0,37,-8,48,-25v11,-16,17,-35,17,-57xm440,1286v0,-39,-10,-69,-30,-89v-19,-20,-46,-30,-80,-30v-35,0,-62,12,-81,37v-19,25,-28,53,-28,84v0,47,9,88,27,124v17,36,38,67,63,92v25,25,50,45,76,60v26,14,47,24,64,29r30,-71v-31,-15,-59,-36,-82,-63v-23,-27,-37,-58,-43,-93v4,1,10,2,19,2v21,0,37,-8,48,-25v11,-16,17,-35,17,-57","w":665},"\u201d":{"d":"549,1348v0,17,4,31,12,44v7,13,17,23,28,32v11,8,22,14,35,19v13,5,25,7,38,7v41,0,68,-10,83,-31v14,-20,21,-49,21,-88v0,-47,-9,-88,-27,-123v-17,-35,-38,-66,-63,-91v-25,-25,-50,-46,-76,-62v-25,-15,-46,-26,-63,-31r-33,70v31,17,59,38,82,64v23,25,38,56,45,93v-55,3,-82,36,-82,97xm266,1348v0,17,4,31,12,44v7,13,17,23,28,32v11,8,22,14,35,19v13,5,25,7,38,7v41,0,68,-10,83,-31v14,-20,21,-49,21,-88v0,-47,-9,-88,-27,-123v-17,-35,-38,-66,-63,-91v-25,-25,-50,-46,-76,-62v-25,-15,-46,-26,-63,-31r-33,70v31,17,59,38,82,64v23,25,38,56,45,93v-55,3,-82,36,-82,97","w":665},"\u201e":{"d":"329,2595v0,17,4,31,12,44v7,13,17,23,28,32v11,8,22,14,35,19v13,5,25,7,38,7v41,0,68,-10,83,-31v14,-20,21,-49,21,-88v0,-47,-9,-88,-27,-123v-17,-35,-38,-66,-63,-91v-25,-25,-50,-46,-76,-62v-25,-15,-46,-26,-63,-31r-33,70v31,17,59,38,82,64v23,25,38,56,45,93v-55,3,-82,36,-82,97xm49,2595v0,17,4,31,12,44v7,13,17,23,28,32v11,8,22,14,35,19v13,5,25,7,38,7v41,0,68,-10,83,-31v14,-20,21,-49,21,-88v0,-47,-9,-88,-27,-123v-17,-35,-38,-66,-63,-91v-25,-25,-50,-46,-76,-62v-25,-15,-46,-26,-63,-31r-33,70v31,17,59,38,82,64v23,25,38,56,45,93v-55,3,-82,36,-82,97","w":669},"\u2020":{"d":"219,-1028r254,0r80,22r0,-96r70,-332r151,0r-72,332r-38,96r90,-22r254,0r-33,147r-258,0r-78,-22r4,86r-172,817r-117,410r-96,0r61,-412r173,-815r38,-86r-90,22r-254,0","w":946},"\u2021":{"d":"440,-481v-2,-24,-2,-84,-2,-84r56,-254r36,-84r-90,22r-254,0r33,-147r254,0r80,22v-2,-27,-2,-94,-2,-94r72,-334r151,0r-72,334r-38,94r90,-22r254,0r-33,147r-258,0r-78,-22r4,84r-53,254r-39,84r86,-23r258,0r-31,148r-254,0r-82,-23v0,0,-1,61,2,94r-59,285r-117,410r-96,0r61,-412r62,-283r39,-94r-90,23r-254,0r30,-148r254,0","w":946},"\u2022":{"d":"252,-517v-29,-66,-30,-167,0,-235v43,-98,126,-170,262,-170v135,0,219,68,262,165v29,66,29,174,0,240v-43,97,-127,165,-262,165v-135,0,-220,-68,-262,-165","w":925},"\u2026":{"d":"1163,25v-69,0,-119,-50,-119,-119v0,-71,49,-119,119,-119v71,0,119,46,119,119v0,70,-49,119,-119,119xm668,25v-69,0,-119,-50,-119,-119v0,-72,48,-119,119,-119v71,0,118,46,118,119v0,69,-49,119,-118,119xm174,25v-69,0,-119,-50,-119,-119v0,-71,49,-119,119,-119v71,0,119,46,119,119v0,69,-50,119,-119,119","w":1476},"\u2030":{"d":"1192,-1460r102,80r-1051,1405r-102,-80xm123,1004v0,79,12,148,36,205v24,57,54,104,91,141v37,37,78,64,123,82v45,17,89,26,133,26v78,0,137,-21,177,-64v40,-42,60,-102,60,-180v0,-74,-10,-139,-31,-195v-20,-55,-47,-102,-82,-141v-35,-38,-76,-67,-123,-87v-47,-19,-97,-29,-149,-29v-69,0,-126,21,-170,64v-43,42,-65,101,-65,178xm264,1020v0,-44,10,-78,30,-103v20,-24,50,-36,89,-36v29,0,56,8,83,23v27,15,50,36,71,64v20,28,36,62,48,102v11,40,17,85,17,136v0,48,-11,82,-32,103v-21,20,-50,30,-89,30v-29,0,-56,-9,-83,-26v-27,-17,-50,-39,-70,-68v-19,-29,-35,-62,-47,-101v-11,-39,-17,-80,-17,-124xm713,1764v0,79,12,148,36,205v24,57,54,104,91,141v37,37,78,64,123,82v45,17,89,26,133,26v78,0,137,-21,177,-64v40,-42,60,-102,60,-180v0,-74,-10,-139,-31,-195v-20,-55,-47,-102,-82,-141v-35,-38,-76,-67,-123,-87v-47,-19,-97,-29,-149,-29v-69,0,-126,21,-170,64v-43,42,-65,101,-65,178xm854,1780v0,-44,10,-78,30,-103v20,-24,50,-36,89,-36v29,0,56,8,83,23v27,15,50,36,71,64v20,28,36,62,48,102v11,40,17,85,17,136v0,48,-11,82,-32,103v-21,20,-50,30,-89,30v-29,0,-56,-9,-83,-26v-27,-17,-50,-39,-70,-68v-19,-29,-35,-62,-47,-101v-11,-39,-17,-80,-17,-124xm1407,1764v0,79,12,148,36,205v24,57,54,104,91,141v37,37,78,64,123,82v45,17,89,26,133,26v78,0,137,-21,177,-64v40,-42,60,-102,60,-180v0,-74,-10,-139,-31,-195v-20,-55,-47,-102,-82,-141v-35,-38,-76,-67,-123,-87v-47,-19,-97,-29,-149,-29v-69,0,-126,21,-170,64v-43,42,-65,101,-65,178xm1548,1780v0,-44,10,-78,30,-103v20,-24,50,-36,89,-36v29,0,56,8,83,23v27,15,50,36,71,64v20,28,36,62,48,102v11,40,17,85,17,136v0,48,-11,82,-32,103v-21,20,-50,30,-89,30v-29,0,-56,-9,-83,-26v-27,-17,-50,-39,-70,-68v-19,-29,-35,-62,-47,-101v-11,-39,-17,-80,-17,-124","w":2125},"\u2039":{"d":"115,-530r409,-471r90,98r-252,295r-114,76r67,79r140,289r-113,86","w":614},"\u203a":{"d":"580,-549r-410,471r-92,-88r254,-297r117,-84r-72,-86r-139,-291r116,-77","w":579},"\u2044":{"d":"688,-1460r107,74r-998,1411r-106,-74","w":376},"\u20ac":{"d":"995,-57v-83,56,-201,82,-333,82v-232,0,-362,-123,-420,-301v-19,-61,-30,-130,-31,-207r2,-37r-201,0r64,-131r145,0v8,-40,19,-110,29,-148r-176,0r63,-131r152,0v64,-175,164,-306,295,-402v101,-73,223,-124,377,-126v120,-2,209,21,284,59r-71,125v-69,-41,-255,-64,-365,-22v-170,65,-284,195,-358,366r565,0r-62,131r-544,0v-13,38,-21,105,-27,148r498,0r-62,131r-442,0r-2,8v-4,249,96,395,344,397v95,0,182,-32,248,-65"},"\u2122":{"d":"901,-1294r-278,0r0,598r-160,0r0,-598r-279,0r0,-140r717,0r0,140xm1683,-1038r21,-211r-8,0r-80,174r-178,287r-68,0r-182,-285r-74,-176r-8,0r27,209r0,344r-150,0r0,-738r160,0r215,344r57,119r2,0r62,-123r198,-340r162,0r0,738r-156,0r0,-342","w":1814},"\u2202":{"d":"453,25v-260,4,-394,-142,-394,-398v0,-287,119,-503,309,-612v68,-39,148,-59,238,-59v108,0,146,15,203,59r10,0v-13,-183,-126,-279,-277,-321v-47,-13,-94,-19,-141,-19v0,0,-30,-1,-43,2r31,-135v190,1,342,36,441,131v110,105,159,263,159,487v0,273,-50,496,-151,654v-80,124,-202,208,-385,211xm819,-807v-53,-58,-111,-96,-225,-94v-119,2,-201,71,-257,151v-65,93,-108,231,-106,388v2,153,77,243,236,243v153,0,230,-109,279,-225v52,-121,72,-298,73,-463","w":1038},"\u220f":{"d":"1098,-1282r-699,0r0,1692r-172,0r0,-1844r1043,0r0,1844r-172,0r0,-1692","w":1390},"\u2211":{"d":"381,182r-82,76r784,0r0,152r-929,0r0,-152r458,-709r70,-61r-72,-66r-456,-704r0,-152r929,0r0,152r-776,0r88,76r441,682","w":1036},"\u221a":{"d":"410,-913r188,464r47,234r4,0r39,-238r303,-981r154,0r-463,1457r-64,0r-321,-789r-248,0r0,-147r361,0","w":983},"\u221e":{"d":"541,-1104v199,-2,334,105,411,230v59,-82,124,-140,196,-176v109,-53,243,-77,360,-28v123,52,198,172,198,347v0,190,-84,312,-218,369v-80,35,-194,36,-280,8v-125,-41,-213,-128,-276,-230v-49,79,-109,140,-180,184v-107,66,-237,90,-360,40v-127,-52,-214,-170,-214,-349v0,-189,83,-309,216,-367v44,-18,94,-28,147,-28xm1346,-485v149,1,237,-166,188,-326v-25,-82,-86,-140,-193,-141v-56,0,-113,16,-171,47v-58,31,-111,80,-158,145v49,108,122,204,230,252v33,15,67,23,104,23xm354,-808v-57,163,40,329,207,323v116,-5,186,-68,248,-131v23,-25,44,-51,63,-80v-37,-77,-82,-139,-138,-186v-56,-47,-121,-70,-195,-70v-99,0,-158,66,-185,144","w":1757},"\u222b":{"d":"760,-1278v-57,-21,-114,-39,-187,-39v-52,0,-88,16,-107,48v-19,32,-28,88,-28,169r0,1219v-1,207,-78,305,-280,307v-94,1,-182,-23,-248,-49r47,-131v57,21,112,39,184,39v52,0,88,-17,107,-51v19,-34,26,-90,26,-171r0,-1214v4,-207,78,-305,283,-307v92,-1,182,22,246,49","w":718},"\u2248":{"d":"94,569v59,45,112,77,160,95v48,17,92,26,131,26v38,0,74,-6,107,-18v33,-11,64,-24,94,-39v30,-14,59,-27,88,-38v29,-11,59,-17,90,-17v26,0,53,5,80,16v27,11,57,30,88,57r69,-125v-52,-35,-99,-60,-140,-75v-41,-14,-79,-21,-113,-21v-37,0,-71,6,-102,18v-31,11,-60,24,-88,39v-28,14,-56,27,-84,39v-28,11,-58,17,-91,17v-31,0,-65,-7,-101,-22v-35,-14,-75,-39,-118,-75xm94,909v59,45,112,77,160,95v48,17,92,26,131,26v38,0,74,-6,107,-18v33,-11,64,-24,94,-39v30,-14,59,-27,88,-38v29,-11,59,-17,90,-17v26,0,53,5,80,16v27,11,57,30,88,57r69,-125v-52,-35,-99,-60,-140,-75v-41,-14,-79,-21,-113,-21v-37,0,-71,6,-102,18v-31,11,-60,24,-88,39v-28,14,-56,27,-84,39v-28,11,-58,17,-91,17v-31,0,-65,-7,-101,-22v-35,-14,-75,-39,-118,-75","w":983},"\u2260":{"d":"113,-936r467,0r125,-281r147,0r-125,281r254,0r0,148r-317,0r-86,192r403,0r0,147r-467,0r-137,314r-148,0r138,-314r-254,0r0,-147r317,0r86,-192r-403,0r0,-148","w":983},"\u2264":{"d":"999,-168r-73,129r-754,-430r74,-131xm111,-872r0,-60r776,-473r78,127r-486,297r-186,78r184,65r498,295r-78,123","w":983},"\u2265":{"d":"948,-479r-747,440r-78,-127r749,-440xm1001,-952r0,59r-776,473r-78,-127r486,-297r186,-78r-184,-65r-498,-295r78,-123","w":983},"\u25ca":{"d":"598,23r-68,0r-411,-723r411,-756r68,0r416,745xm635,-330r209,-360r-223,-397r-58,-181r-4,0r-57,185r-209,360r223,397r59,181r3,0","w":1036},"\ufb01":{"d":"1028,-1251v-61,-47,-169,-65,-276,-66v-195,-2,-244,131,-277,293r512,0r-172,1024r-153,0r147,-893r-360,0r-148,893v-22,133,-47,239,-105,324v-46,67,-111,102,-219,102v-85,0,-152,-11,-210,-41r45,-115v55,18,86,25,157,25v52,0,91,-27,117,-81v26,-54,46,-125,61,-214r148,-893r-152,0r27,-131r152,0v50,-250,152,-424,446,-424v134,0,254,32,326,80","w":1050},"\ufb02":{"d":"-188,270v55,18,86,25,157,25v52,0,91,-27,117,-81v26,-54,48,-125,61,-214r132,-893r-152,0r27,-131r151,0v48,-252,142,-437,436,-434v92,1,192,10,274,22v28,4,51,9,68,15r-190,1171v-15,67,-5,140,61,137v50,-2,81,-9,127,-22r-8,115v-51,22,-120,38,-190,38v-107,0,-174,-48,-159,-164v41,-323,105,-684,105,-684r76,-479v-81,-14,-225,-34,-297,3v-95,49,-123,162,-149,282r203,0r-27,131r-203,0r-131,893v-20,134,-42,240,-101,324v-47,67,-114,102,-223,102v-85,0,-152,-11,-210,-41","w":1118},"\ufb03":{"d":"1467,1024r153,0r-217,-1024r-153,0xm1499,1337v0,31,11,58,32,80v21,22,48,33,79,33v31,0,58,-11,80,-33v22,-22,33,-49,33,-80v0,-31,-11,-58,-33,-79v-22,-21,-49,-31,-80,-31v-31,0,-58,11,-79,32v-21,21,-32,47,-32,78xm1018,893r-164,-963v-8,-51,-19,-97,-34,-140v-15,-43,-34,-80,-57,-113v-23,-32,-52,-57,-88,-76v-35,-18,-78,-27,-129,-27v-41,0,-78,3,-113,9v-35,6,-67,17,-97,32r45,115v27,-9,52,-16,75,-20v22,-3,49,-5,82,-5v52,0,91,25,117,75v26,50,48,129,66,236r143,877r-158,0r27,131r149,0r27,137v9,51,21,95,35,132v13,37,31,67,54,92v23,24,51,42,84,55v33,12,74,18,122,18v45,0,89,-4,131,-13v42,-9,80,-21,115,-36r-45,-121v-67,26,-130,39,-191,39v-51,0,-88,-17,-111,-52v-23,-35,-40,-90,-53,-167r-14,-84r207,0r-25,-131r-200,0xm449,893r-164,-963v-8,-51,-19,-97,-34,-140v-15,-43,-34,-80,-57,-113v-23,-32,-52,-57,-88,-76v-35,-18,-78,-27,-129,-27v-41,0,-78,3,-113,9v-35,6,-67,17,-97,32r45,115v27,-9,52,-16,75,-20v22,-3,49,-5,82,-5v52,0,91,25,117,75v26,50,48,129,66,236r143,877r-158,0r27,131r149,0r27,137v9,51,21,95,35,132v13,37,31,67,54,92v23,24,51,42,84,55v33,12,74,18,122,18v45,0,89,-4,131,-13v42,-9,80,-21,115,-36r-45,-121v-67,26,-130,39,-191,39v-51,0,-88,-17,-111,-52v-23,-35,-40,-90,-53,-167r-14,-84r207,0r-25,-131r-200,0","w":1669},"\ufb04":{"d":"1411,244v-4,-23,-6,-43,-6,-58v0,-26,5,-45,14,-56v9,-11,20,-17,35,-17v27,0,50,2,69,5v19,3,41,10,67,19r0,-117v-12,-7,-26,-12,-43,-17v-17,-5,-34,-8,-51,-11v-17,-3,-34,-5,-51,-7v-17,-2,-32,-3,-46,-3v-48,0,-86,11,-115,33v-29,21,-43,61,-43,120v0,27,4,61,13,101r254,1198r153,0xm1018,893r-164,-963v-8,-51,-19,-97,-34,-140v-15,-43,-34,-80,-57,-113v-23,-32,-52,-57,-88,-76v-35,-18,-78,-27,-129,-27v-41,0,-78,3,-113,9v-35,6,-67,17,-97,32r45,115v27,-9,52,-16,75,-20v22,-3,49,-5,82,-5v52,0,91,25,117,75v26,50,48,129,66,236r143,877r-158,0r27,131r149,0r27,137v9,51,21,95,35,132v13,37,31,67,54,92v23,24,51,42,84,55v33,12,74,18,122,18v45,0,89,-4,131,-13v42,-9,80,-21,115,-36r-45,-121v-67,26,-130,39,-191,39v-51,0,-88,-17,-111,-52v-23,-35,-40,-90,-53,-167r-14,-84r207,0r-25,-131r-200,0xm449,893r-164,-963v-8,-51,-19,-97,-34,-140v-15,-43,-34,-80,-57,-113v-23,-32,-52,-57,-88,-76v-35,-18,-78,-27,-129,-27v-41,0,-78,3,-113,9v-35,6,-67,17,-97,32r45,115v27,-9,52,-16,75,-20v22,-3,49,-5,82,-5v52,0,91,25,117,75v26,50,48,129,66,236r143,877r-158,0r27,131r149,0r27,137v9,51,21,95,35,132v13,37,31,67,54,92v23,24,51,42,84,55v33,12,74,18,122,18v45,0,89,-4,131,-13v42,-9,80,-21,115,-36r-45,-121v-67,26,-130,39,-191,39v-51,0,-88,-17,-111,-52v-23,-35,-40,-90,-53,-167r-14,-84r207,0r-25,-131r-200,0","w":1691},"\u00a0":{"w":546}}});
