/*!
 * The following copyright notice may not be removed under any circumstances.
 * 
 * Copyright:
 * Copyright © 2009 ParaType Ltd. All rights reserved.
 * 
 * Description:
 * This is a protected webfont and is intended for CSS @font-face use ONLY.
 * Reverse engineering this font is strictly prohibited.
 */
Cufon.registerFont({"w":1116,"face":{"font-family":"","font-weight":400,"font-stretch":"normal","units-per-em":"2048","panose-1":"2 11 5 3 2 2 3 2 2 4","ascent":"1536","descent":"-512","x-height":"23","bbox":"-362 -1782 2238 2697","underline-thickness":"102","underline-position":"-102","unicode-range":"U+0020-FB04"},"glyphs":{" ":{"w":546},"!":{"d":"260,-1434r170,0r0,711r-35,361r-100,0r-35,-361r0,-711xm342,25v-70,0,-117,-50,-117,-119v0,-71,47,-119,117,-119v73,0,121,46,121,119v0,70,-50,119,-121,119","w":624},"\"":{"d":"424,1434r160,0r-63,-396r-97,0r0,396xm184,1434r160,0r-63,-396r-97,0r0,396","w":686},"#":{"d":"573,-461r-215,0r-79,342r-142,0r80,-342r-160,0r29,-131r162,0r63,-268r-151,0r28,-131r154,0r78,-324r141,0r-78,324r215,0r78,-324r142,0r-78,324r157,0r-32,131r-156,0r-64,268r150,0r-33,131r-147,0r-80,342r-141,0xm389,-592r215,0r64,-268r-215,0"},"$":{"d":"987,-379v-3,231,-138,364,-352,395r0,189r-139,0r0,-180v-133,-2,-257,-22,-340,-66r55,-149v69,39,166,67,285,67r0,-553v-166,-83,-334,-170,-334,-418v0,-214,128,-334,334,-358r0,-186r139,0r0,180v127,4,205,23,291,59r-49,144v-66,-31,-140,-53,-242,-56r0,506v127,68,261,138,321,273v20,44,31,94,31,153xm602,-127v122,-19,219,-96,215,-238v-4,-151,-112,-204,-215,-260r0,498xm376,-1238v-61,79,-58,212,12,278v38,36,84,70,140,100r0,-449v-73,8,-122,32,-152,71"},"%":{"d":"1305,-1460r100,78r-1051,1407r-102,-80xm143,1110v0,61,8,114,25,158v16,43,38,79,66,108v28,29,62,50,101,63v39,13,81,19,126,19v45,0,87,-6,126,-19v39,-12,72,-32,100,-59v28,-27,50,-63,67,-108v16,-44,24,-98,24,-162v0,-64,-8,-118,-25,-163v-16,-44,-38,-80,-66,-107v-28,-27,-62,-47,-101,-60v-39,-12,-80,-18,-125,-18v-45,0,-88,6,-127,19v-39,12,-72,32,-100,59v-28,27,-50,63,-67,108v-16,44,-24,98,-24,162xm295,1110v0,-82,15,-141,44,-176v29,-35,70,-53,122,-53v26,0,49,4,70,11v20,7,37,20,52,37v14,17,25,40,32,69v7,29,11,67,11,112v0,45,-4,83,-11,112v-7,29,-18,53,-33,70v-14,17,-31,29,-52,36v-21,7,-44,11,-69,11v-52,0,-93,-16,-122,-48v-29,-32,-44,-92,-44,-181xm874,1870v0,61,8,114,25,158v16,43,38,79,66,108v28,29,62,50,101,63v39,13,81,19,126,19v45,0,87,-6,126,-19v39,-12,72,-32,100,-59v28,-27,50,-63,67,-108v16,-44,24,-98,24,-162v0,-64,-8,-118,-25,-163v-16,-44,-38,-80,-66,-107v-28,-27,-62,-47,-101,-60v-39,-12,-80,-18,-125,-18v-45,0,-88,6,-127,19v-39,12,-72,32,-100,59v-28,27,-50,63,-67,108v-16,44,-24,98,-24,162xm1026,1870v0,-82,15,-141,44,-176v29,-35,70,-53,122,-53v26,0,49,4,70,11v20,7,37,20,52,37v14,17,25,40,32,69v7,29,11,67,11,112v0,45,-4,83,-11,112v-7,29,-18,53,-33,70v-14,17,-31,29,-52,36v-21,7,-44,11,-69,11v-52,0,-93,-16,-122,-48v-29,-32,-44,-92,-44,-181","w":1583},"&":{"d":"1159,-166v-106,105,-238,191,-448,191v-212,0,-359,-89,-431,-234v-46,-93,-51,-229,-10,-331v61,-156,186,-265,320,-349v-68,-104,-161,-239,-104,-403v37,-106,133,-166,280,-166v147,0,247,51,284,155v37,103,11,178,-52,266v-44,61,-114,119,-210,175v47,84,110,169,170,246v0,0,133,162,203,233v70,-83,121,-200,160,-315r127,59v-34,96,-92,193,-142,277v-19,31,-36,57,-53,77v66,63,124,115,200,161r56,34r-102,115v-73,-35,-155,-99,-248,-191xm1063,-268v-39,-39,-80,-81,-117,-129r-109,-140v0,0,-124,-170,-171,-247v-98,76,-196,153,-241,278v-26,72,-28,168,7,232v53,96,160,155,303,155v114,0,200,-44,269,-93v24,-18,44,-37,59,-56xm772,-1329v-92,0,-143,49,-143,133v0,100,47,174,92,242v73,-47,123,-90,151,-128v28,-38,41,-71,41,-100v-2,-92,-41,-147,-141,-147","w":1667},"'":{"d":"184,-1434r160,0r-63,396r-97,0r0,-396","w":446},"(":{"d":"287,-498v0,368,111,662,282,873r-104,76v-209,-222,-342,-535,-342,-949v0,-418,141,-731,348,-960r98,72v-174,221,-282,506,-282,888","w":573},")":{"d":"4,379v175,-221,283,-507,283,-889v0,-260,-65,-487,-154,-672v-35,-74,-78,-140,-129,-200r105,-76v169,176,279,416,323,707v58,382,-26,727,-166,976v-44,81,-99,156,-164,226","w":573},"*":{"d":"266,-1464r51,86r37,114r43,-116r49,-82r99,53r-53,88r-95,98r140,-24r98,0r0,114r-94,0r-131,-24r94,98r47,80r-96,57r-54,-86r-47,-125r-39,119r-51,86r-102,-57r55,-86r86,-86r-119,24r-102,0r0,-114r102,0r127,24r-92,-90r-53,-94","w":718},"+":{"d":"82,-766r360,0r0,-369r148,0r0,369r360,0r0,148r-360,0r0,368r-148,0r0,-368r-360,0r0,-148","w":1034},",":{"d":"231,14v-74,23,-131,-26,-131,-102v0,-65,52,-113,117,-111v93,2,144,73,143,176v-2,143,-61,233,-145,291v-26,17,-52,29,-78,37r-51,-80v85,-29,141,-111,145,-211","w":399},"-":{"d":"121,-666r495,0r0,152r-495,0r0,-152","w":737},".":{"d":"217,25v-70,0,-117,-50,-117,-119v0,-71,47,-119,117,-119v73,0,121,46,121,119v0,70,-50,119,-121,119","w":438},"\/":{"d":"672,-1458r129,57r-748,1688r-129,-58","w":724},"0":{"d":"88,-717v0,-246,40,-431,120,-555v80,-124,196,-186,349,-186v165,0,285,61,359,183v74,122,112,308,112,558v0,246,-40,431,-120,555v-80,124,-197,187,-351,187v-163,0,-282,-65,-357,-195v-75,-130,-112,-312,-112,-547xm258,-717v0,239,36,449,165,554v37,30,82,44,134,44v104,0,181,-49,229,-145v48,-96,72,-247,72,-453v0,-236,-29,-453,-160,-555v-38,-29,-85,-43,-141,-43v-103,0,-179,48,-227,145v-48,97,-72,248,-72,453"},"1":{"d":"221,-152r287,0r0,-991r20,-121r-82,97r-225,161r-78,-104r451,-348r74,0r0,1306r280,0r0,152r-727,0r0,-152"},"2":{"d":"166,-1327v89,-76,222,-131,381,-131v179,1,292,80,341,210v44,116,28,242,-14,362v-88,254,-255,468,-409,661r-100,88r0,8r131,-23r446,0r0,152r-815,0r0,-59r109,-117v138,-156,283,-336,388,-528v60,-109,119,-231,119,-377v0,-138,-83,-234,-231,-234v-110,0,-214,57,-279,105"},"3":{"d":"223,-172v91,46,265,75,385,32v112,-40,192,-129,195,-276v3,-194,-126,-282,-320,-282r-151,0r0,-60r295,-454r94,-91r-133,21r-406,0r0,-152r731,0r0,60r-325,489r-72,60r0,4r70,-15v183,7,297,98,352,235v43,105,36,263,-10,361v-75,161,-227,261,-453,265v-116,2,-215,-20,-295,-52"},"4":{"d":"1073,-440r-242,0r0,440r-159,0r0,-440r-631,0r0,-68r680,-948r110,0r0,872r242,0r0,144xm672,-1030r20,-168r-6,0r-72,139r-288,391r-99,101r144,-17r301,0r0,-446"},"5":{"d":"201,-156v70,26,134,37,235,37v190,0,326,-120,326,-319v0,-205,-136,-297,-342,-297r-172,10r0,-709r639,0r0,152r-486,0r0,408r88,-5v268,1,440,157,437,430v-4,238,-122,379,-301,443v-138,49,-346,36,-467,-10"},"6":{"d":"596,-852v257,0,416,160,412,420v-3,212,-98,353,-250,421v-104,47,-265,47,-371,3v-170,-71,-265,-231,-264,-473v2,-416,159,-714,415,-878v84,-53,175,-86,273,-99r35,131v-244,46,-400,204,-490,407v-31,69,-50,142,-61,215v49,-77,163,-147,301,-147xm838,-416v0,-191,-87,-293,-277,-293v-126,0,-236,79,-274,160v-8,102,-7,131,13,213v21,85,76,149,146,188v63,35,165,39,234,6v95,-45,158,-137,158,-274"},"7":{"d":"225,0r514,-1200r90,-100r-120,18r-584,0r0,-152r856,0r0,56r-590,1378r-166,0"},"8":{"d":"715,-752v131,82,262,171,262,379v0,197,-101,312,-248,368v-100,38,-257,41,-356,1v-137,-53,-234,-156,-234,-338v0,-86,22,-160,67,-224v45,-64,116,-122,212,-173v-124,-79,-246,-162,-246,-361v0,-180,98,-281,232,-332v90,-34,228,-35,321,-2v90,32,156,88,193,170v47,106,28,248,-27,337v-35,59,-94,118,-176,175xm796,-255v29,-60,27,-157,-4,-215v-55,-102,-158,-157,-262,-212v-83,47,-143,99,-178,156v-52,87,-71,161,-36,258v33,93,115,149,241,149v118,0,200,-52,239,-136xm784,-1098v0,-166,-162,-260,-317,-198v-76,31,-135,89,-135,192v0,132,86,191,170,245v32,21,67,39,102,56v61,-48,107,-95,136,-141v29,-46,44,-98,44,-154"},"9":{"d":"817,-698v-74,86,-142,116,-297,116v-194,0,-320,-97,-381,-239v-44,-101,-42,-253,-4,-361v60,-168,190,-276,416,-276v293,0,442,209,442,516v0,298,-70,531,-196,696v-111,147,-276,241,-492,271r-37,-131v246,-39,403,-178,490,-376v29,-66,48,-139,59,-216xm541,-1315v-172,-1,-265,121,-265,299v0,184,106,289,279,291v123,1,231,-45,274,-119v17,-148,-8,-264,-65,-355v-42,-67,-117,-116,-223,-116"},":":{"d":"303,-801v-70,0,-117,-50,-117,-119v0,-72,47,-118,117,-118v72,0,121,46,121,118v0,70,-50,119,-121,119xm303,25v-70,0,-117,-50,-117,-119v0,-71,47,-119,117,-119v73,0,121,46,121,119v0,70,-50,119,-121,119","w":448},";":{"d":"313,14v-74,23,-131,-26,-131,-102v0,-65,52,-113,117,-111v93,2,144,73,143,176v-2,143,-61,233,-145,291v-26,17,-52,29,-78,37r-51,-80v85,-29,141,-111,145,-211xm313,-801v-70,0,-116,-50,-116,-119v0,-72,45,-118,116,-118v72,0,121,46,121,118v0,71,-49,119,-121,119","w":524},"<":{"d":"86,-625r0,-59r774,-473r78,127r-485,297r-187,78r185,65r497,295r-78,123","w":1034},"=":{"d":"82,-936r868,0r0,148r-868,0r0,-148xm82,-596r868,0r0,147r-868,0r0,-147","w":1034},">":{"d":"948,-705r0,60r-774,473r-78,-125r486,-297r186,-78r-184,-65r-498,-295r78,-125","w":1034},"?":{"d":"76,-1356v108,-62,205,-103,377,-102v177,1,291,74,341,202v34,86,27,211,-4,292v-71,185,-244,273,-320,452v-19,42,-28,92,-28,150r-135,0v-25,-316,214,-405,315,-616v17,-36,25,-77,25,-124v0,-139,-79,-213,-235,-213v-104,0,-216,44,-281,86xm383,25v-70,0,-117,-50,-117,-119v0,-71,47,-119,117,-119v73,0,121,46,121,119v0,70,-50,119,-121,119","w":892},"@":{"d":"1169,-1020v104,-1,149,35,209,78r70,-64r70,0r-105,588v-11,59,-20,110,-20,170v0,64,15,98,77,98v116,0,202,-65,260,-140v69,-89,122,-219,121,-378v-4,-335,-176,-523,-432,-608v-188,-62,-428,-59,-605,18v-195,85,-340,232,-424,430v-80,190,-81,465,-6,656v110,277,354,442,734,442v94,0,206,-20,273,-57r41,131v-192,92,-485,81,-696,8v-228,-79,-392,-232,-486,-449v-97,-222,-92,-566,5,-789v102,-234,277,-409,513,-504v213,-86,489,-90,710,-14v210,72,368,210,456,404v75,165,91,401,22,583v-59,156,-163,281,-302,355v-68,36,-140,54,-216,54v-120,0,-192,-44,-189,-174v0,-29,3,-59,8,-86r-8,0v-61,98,-145,188,-257,236v-66,28,-143,34,-208,2v-94,-47,-149,-147,-149,-287v0,-192,72,-367,159,-483v48,-66,105,-120,170,-160v65,-40,133,-60,205,-60xm795,-344v0,106,37,197,151,192v76,-4,126,-51,172,-99v58,-60,111,-143,152,-220r61,-334v-44,-49,-73,-72,-157,-72v-126,0,-214,88,-270,173v-59,89,-109,222,-109,360","w":2179},"A":{"d":"856,-397r-528,0r-144,397r-168,0r543,-1456r78,0r545,1456r-178,0xm383,-545r422,0r-160,-436r-51,-217r-2,0r-51,221","w":1198},"B":{"d":"174,-1421v212,-28,540,-63,708,35v88,51,161,138,156,280v-6,188,-112,295,-270,338r0,8v137,23,238,92,286,207v42,99,31,251,-19,337v-87,151,-259,228,-488,232r-82,0v-99,-2,-209,-7,-291,-26r0,-1411xm344,-145v106,13,245,26,346,-1v117,-32,211,-104,211,-249v0,-211,-170,-262,-379,-264r-178,0r0,514xm553,-1303v-72,-1,-155,3,-209,13r0,487v0,0,225,6,272,-8v98,-28,181,-82,222,-169v13,-28,20,-58,20,-91v-2,-175,-134,-229,-305,-232","w":1196},"C":{"d":"585,-164v137,63,362,40,466,-29r41,134v-79,64,-216,84,-357,84v-311,0,-484,-167,-571,-409v-64,-179,-63,-501,5,-674v67,-171,181,-297,343,-359v74,-28,149,-41,225,-41v144,0,241,12,334,49r-41,149v-96,-46,-320,-70,-446,-16v-194,82,-290,275,-289,559v1,277,101,467,290,553","w":1169},"D":{"d":"537,18v-116,-1,-258,-6,-363,-16r0,-1436v173,-18,280,-16,383,-16v346,0,546,164,628,430v53,171,54,395,2,572v-54,186,-165,326,-333,404v-87,41,-193,62,-317,62xm503,-1298v-54,0,-112,5,-159,10r0,1147v109,8,148,8,197,8v360,0,503,-239,503,-594v0,-150,-33,-290,-100,-385v-76,-108,-196,-189,-383,-186r-58,0","w":1339},"E":{"d":"174,-1434r780,0r0,152r-610,0r0,469r559,0r0,151r-559,0r0,510r621,0r0,152r-791,0r0,-1434","w":1097},"F":{"d":"174,-1434r780,0r0,152r-610,0r0,489r569,0r0,152r-569,0r0,641r-170,0r0,-1434","w":1058},"G":{"d":"1139,-84v-141,107,-444,147,-647,65v-250,-101,-375,-342,-377,-698v-1,-257,81,-446,207,-570v104,-103,252,-169,436,-171v144,-2,244,13,338,49r-43,149v-97,-47,-322,-68,-452,-17v-126,49,-210,146,-263,281v-53,135,-55,397,-8,542v63,196,194,327,440,327v87,0,162,-17,223,-51r0,-400r-336,-40r0,-97r482,0r0,631","w":1253},"H":{"d":"1032,-657r-688,0r0,657r-170,0r0,-1434r170,0r0,625r688,0r0,-625r170,0r0,1434r-170,0r0,-657","w":1376},"I":{"d":"213,-1434r170,0r0,1434r-170,0r0,-1434","w":595},"J":{"d":"88,-131v125,0,141,-98,141,-225r0,-1078r170,0r0,1119v2,224,-103,352,-333,333v-48,-4,-101,-13,-136,-30r33,-146v38,18,80,27,125,27","w":595},"K":{"d":"440,-664r-96,0r0,664r-170,0r0,-1434r170,0r0,668r92,-29r482,-639r196,0r-479,617r-86,67r104,82r525,668r-215,0","w":1249},"L":{"d":"1022,0r-848,0r0,-1434r170,0r0,1282r678,0r0,152","w":1058},"M":{"d":"1276,-963r20,-215r-10,0r-78,197r-372,647r-52,0r-395,-649r-74,-195r-10,0r29,213r0,965r-160,0r0,-1434r127,0r449,734r67,159r4,0r64,-164r428,-729r133,0r0,1434r-170,0r0,-963","w":1619},"N":{"d":"432,-938r-110,-207r-9,0r21,207r0,938r-160,0r0,-1456r90,0r686,956r107,197r10,0r-23,-197r0,-934r160,0r0,1457r-90,0","w":1378},"O":{"d":"115,-717v0,-239,50,-421,151,-549v101,-128,245,-192,432,-192v322,0,485,178,554,437v24,90,34,192,34,304v0,239,-50,422,-152,550v-102,128,-247,192,-436,192v-210,0,-348,-82,-441,-204v-97,-128,-142,-314,-142,-538xm295,-717v0,247,68,446,222,542v51,32,112,48,181,48v127,0,226,-49,299,-145v73,-96,109,-244,109,-445v0,-247,-70,-446,-224,-541v-51,-32,-113,-49,-184,-49v-125,0,-224,49,-296,145v-72,96,-107,244,-107,445","w":1400},"P":{"d":"718,-562v-136,34,-202,30,-374,17r0,545r-170,0r0,-1419v226,-45,553,-52,715,55v105,69,182,178,180,354v-2,260,-144,397,-351,448xm504,-688v230,-2,387,-86,385,-322v-2,-212,-156,-293,-365,-293v-61,0,-135,1,-180,13r0,594v65,11,160,8,160,8","w":1144},"Q":{"d":"434,100v161,-41,325,18,455,54v114,31,232,70,375,69v60,0,119,-7,178,-20r0,147v-116,34,-266,32,-390,4v-126,-28,-364,-95,-364,-95v-89,-22,-169,-30,-254,-9r0,-150xm115,-717v0,-239,50,-421,151,-549v101,-128,245,-192,432,-192v322,0,485,178,554,437v24,90,34,192,34,304v0,239,-50,422,-152,550v-102,128,-247,192,-436,192v-210,0,-348,-82,-441,-204v-97,-128,-142,-314,-142,-538xm295,-717v0,247,68,446,222,542v51,32,112,48,181,48v127,0,226,-49,299,-145v73,-96,109,-244,109,-445v0,-247,-70,-446,-224,-541v-51,-32,-113,-49,-184,-49v-125,0,-224,49,-296,145v-72,96,-107,244,-107,445","w":1400},"R":{"d":"1010,-1055v3,227,-146,367,-326,412r98,76r357,567r-199,0r-395,-618r-201,-31r0,649r-170,0r0,-1419v160,-24,384,-52,544,-11v173,44,289,159,292,375xm829,-1049v-2,-156,-119,-259,-286,-254r-56,0v-50,1,-102,5,-143,13r0,528r160,0v187,-1,328,-92,325,-287","w":1218},"S":{"d":"152,-205v124,73,432,122,575,21v53,-37,94,-94,94,-181v0,-57,-18,-103,-51,-140v-113,-123,-321,-165,-462,-264v-97,-69,-179,-160,-179,-325v0,-112,39,-201,117,-266v78,-65,188,-98,332,-98v145,0,296,23,387,65r-52,150v-121,-57,-433,-108,-547,-3v-44,41,-67,87,-67,142v0,53,17,98,51,133v116,122,323,169,462,273v94,71,181,158,179,319v-2,210,-120,319,-283,375v-120,41,-341,33,-458,5v-67,-16,-119,-33,-156,-52","w":1087},"T":{"d":"1100,-1282r-447,0r0,1282r-170,0r0,-1282r-446,0r0,-152r1063,0r0,152","w":1136},"U":{"d":"686,18v-328,1,-511,-141,-512,-462r0,-990r170,0r0,910v-3,254,92,391,344,391v111,0,190,-30,238,-91v48,-61,71,-161,71,-300r0,-910r164,0r0,957v-1,322,-158,494,-475,495","w":1335},"V":{"d":"547,-449r49,218r2,0r53,-222r346,-981r170,0r-542,1457r-76,0r-553,-1457r186,0","w":1163},"W":{"d":"455,-473r32,237r2,0r35,-241r295,-957r82,0r297,961r35,237r2,0r37,-241r241,-957r166,0r-399,1457r-94,0r-291,-961r-37,-217r-10,0r-37,219r-291,959r-94,0r-410,-1457r181,0","w":1695},"X":{"d":"530,-729r-436,-705r205,0r291,486r51,117r49,-117r307,-486r189,0r-451,691r471,743r-198,0r-324,-514r-55,-123r-54,123r-331,514r-191,0","w":1265},"Y":{"d":"489,-569r-473,-865r199,0r336,627r35,125r2,0r37,-129r321,-623r182,0r-469,863r0,571r-170,0r0,-569","w":1142},"Z":{"d":"78,-154r723,-1046r86,-82r-809,0r0,-152r962,0r0,154r-727,1053r-86,75r813,0r0,152r-962,0r0,-154"},"[":{"d":"174,-1434r371,0r0,144r-211,0r0,1618r211,0r0,143r-371,0r0,-1905","w":622},"\\":{"d":"817,227r-135,60r-758,-1688r137,-57","w":778},"]":{"d":"451,471r-373,0r0,-143r213,0r0,-1618r-213,0r0,-144r373,0r0,1905","w":622},"^":{"d":"479,-1456r60,0r346,565r-168,0r-164,-276r-47,-142r-64,144r-188,274r-156,0","w":1024},"_":{"d":"0,276r836,0r0,144r-836,0r0,-144","w":835},"`":{"d":"451,-1169r-93,0r-235,-263r0,-43r194,0","w":573},"a":{"d":"864,-725v0,245,-40,519,17,729r-121,0r-43,-143r-10,0v-62,94,-164,155,-320,155v-144,0,-237,-68,-283,-170v-36,-79,-29,-203,13,-270v81,-129,258,-163,469,-164v0,0,77,-2,112,4v4,-41,7,-77,7,-110v0,-156,-51,-203,-209,-203v-117,0,-225,29,-303,72r-52,-123v98,-61,243,-91,398,-92v220,-2,325,103,325,315xm250,-291v-2,97,82,167,182,164v138,-3,224,-66,266,-162r0,-170v-162,-9,-348,-10,-420,83v-18,23,-28,51,-28,85","w":1015},"b":{"d":"506,18v-131,1,-272,-34,-348,-77r0,-1375r164,0r0,510r8,0v56,-72,155,-125,278,-125v133,0,232,42,298,127v66,85,100,216,100,394v0,341,-172,543,-500,546xm322,-170v50,30,129,45,208,45v93,0,166,-33,222,-99v56,-66,84,-167,84,-306v-1,-159,-38,-288,-138,-346v-32,-19,-71,-29,-118,-29v-150,2,-224,93,-258,219r0,516","w":1105},"c":{"d":"575,-119v94,0,177,-35,228,-74r53,125v-75,57,-193,93,-321,93v-321,-1,-433,-216,-435,-537v-3,-323,140,-535,445,-537v126,0,210,19,291,60r-48,141v-60,-34,-135,-57,-227,-57v-194,0,-291,131,-291,393v0,170,49,299,161,360v39,22,87,33,144,33","w":923},"d":{"d":"565,-1042v102,0,140,9,215,34r0,-426r164,0r0,1082v1,138,-3,243,21,356r-111,0r-41,-145r-8,0v-52,91,-159,166,-301,166v-137,0,-238,-43,-304,-129v-66,-86,-100,-221,-100,-404v0,-326,158,-532,465,-534xm780,-846v-55,-42,-109,-52,-209,-53v-94,0,-168,31,-221,93v-53,62,-80,161,-80,298v1,164,34,300,138,360v33,20,74,29,122,29v152,-2,250,-80,250,-219r0,-508","w":1101},"e":{"d":"600,-119v89,0,200,-39,244,-82r61,119v-111,98,-385,146,-555,69v-172,-77,-249,-252,-250,-499v-3,-326,143,-537,451,-537v107,0,201,21,264,74v80,67,127,172,125,330v0,45,-4,95,-12,149r-658,0v0,237,92,377,330,377xm721,-843v-77,-87,-280,-76,-361,1v-47,44,-78,115,-88,217r508,0v0,-104,-21,-175,-59,-218","w":1040},"f":{"d":"682,-1270v-52,-23,-103,-32,-168,-33v-101,-2,-137,50,-142,143v-3,37,-3,136,-3,136r272,0r0,143r-272,0r0,881r-164,0r0,-881r-160,0r0,-143r160,0r0,-57v-2,-227,65,-369,293,-365v96,2,150,9,221,39","w":653},"g":{"d":"594,-1042v145,0,249,25,348,61r0,1028v0,270,-146,386,-418,387v-144,1,-234,-17,-325,-55r43,-139v75,27,141,51,254,51v153,0,245,-38,272,-159v8,-37,12,-82,12,-134r0,-98r-8,0v-57,79,-133,124,-270,123v-138,0,-239,-43,-304,-129v-65,-86,-98,-221,-98,-402v-1,-340,161,-533,494,-534xm530,-121v154,-3,218,-79,248,-215r0,-524v-55,-26,-124,-39,-209,-39v-93,0,-166,31,-219,94v-53,63,-80,161,-80,295v1,165,35,299,139,360v33,19,73,29,121,29","w":1099},"h":{"d":"330,-909v71,-81,161,-140,313,-140v184,0,283,69,317,221v12,55,19,125,19,210r0,618r-164,0r0,-584v2,-187,-31,-321,-219,-321v-135,0,-274,103,-274,223r0,682r-164,0r0,-1434r164,0r0,525r8,0","w":1120},"i":{"d":"193,-1024r163,0r0,1024r-163,0r0,-1024xm270,-1227v-63,0,-112,-46,-112,-108v0,-61,49,-115,112,-115v62,0,119,54,119,115v0,62,-57,108,-119,108","w":548},"j":{"d":"18,291v166,6,173,-133,172,-297r0,-1018r164,0r0,1079v0,127,-23,221,-66,285v-52,76,-149,106,-270,90r0,-139xm268,-1227v-63,0,-112,-46,-112,-108v0,-61,49,-115,112,-115v62,0,119,54,119,115v0,62,-57,108,-119,108","w":546},"k":{"d":"416,-461r-94,0r0,461r-164,0r0,-1434r164,0r0,873r84,-29r317,-434r190,0r-313,412r-84,67r102,82r343,463r-203,0","w":980},"l":{"d":"387,25v-136,-3,-211,-77,-211,-230r0,-1229r164,0r0,1182v0,84,22,133,94,133v50,0,84,-6,127,-22r19,129v-37,20,-137,38,-193,37","w":598},"m":{"d":"1163,-905v-150,4,-210,91,-241,221r0,684r-164,0r0,-580v-1,-178,-14,-325,-193,-325v-132,0,-214,95,-243,200r0,705r-164,0r0,-1024r114,0r31,125r8,0v75,-85,157,-152,318,-150v146,2,215,54,258,170v56,-98,169,-168,317,-170v182,-2,270,70,300,222v12,56,18,127,18,213r0,614r-164,0r0,-616v2,-169,-24,-293,-195,-289","w":1662},"n":{"d":"311,-899v65,-86,177,-152,330,-150v116,1,200,23,253,89v64,78,85,190,85,342r0,618r-164,0r0,-584v0,-107,-15,-186,-46,-240v-31,-54,-87,-81,-169,-81v-148,0,-242,93,-278,205r0,700r-164,0r0,-1024r114,0r31,125r8,0","w":1120},"o":{"d":"549,25v-321,0,-445,-216,-449,-537v-4,-324,142,-537,449,-537v320,0,445,215,448,537v3,324,-141,537,-448,537xm270,-512v0,165,45,298,150,360v36,22,80,33,132,33v184,0,276,-131,275,-393v-1,-166,-43,-300,-149,-362v-36,-21,-80,-31,-132,-31v-184,0,-276,131,-276,393","w":1097},"p":{"d":"537,25v-104,0,-142,-11,-215,-41r0,426r-164,0r0,-1434r112,0r31,123r8,0v57,-89,154,-147,293,-148v137,0,239,40,306,121v67,81,100,213,100,396v0,258,-100,436,-278,518v-58,26,-122,39,-193,39xm838,-535v0,-210,-59,-370,-267,-370v-154,0,-219,84,-249,219r0,508v55,41,109,59,208,59v94,0,168,-35,224,-105v56,-70,84,-174,84,-311","w":1107},"q":{"d":"598,-1042v121,-1,270,29,344,63r0,1389r-164,0r0,-512r-8,0v-57,81,-130,128,-268,127v-137,0,-238,-44,-304,-131v-66,-87,-98,-221,-98,-402v-2,-342,164,-531,498,-534xm530,-119v154,-3,218,-81,248,-217r0,-524v-51,-26,-120,-39,-209,-39v-94,0,-167,32,-220,95v-53,63,-79,161,-79,294v0,165,35,301,139,362v33,19,73,29,121,29","w":1099},"r":{"d":"311,-899v49,-84,107,-144,232,-145v39,0,84,7,133,20r-35,158v-41,-13,-80,-20,-117,-21v-116,-2,-202,71,-202,170r0,717r-164,0r0,-1024r114,0r31,125r8,0","w":696},"s":{"d":"406,-119v116,-2,204,-39,202,-160v-1,-90,-64,-125,-128,-155v-74,-35,-171,-55,-238,-100v-71,-47,-127,-109,-127,-230v0,-198,121,-283,317,-285v136,-1,229,26,316,66r-39,135v-63,-30,-160,-58,-256,-57v-113,2,-174,28,-174,137v0,82,66,107,127,136v75,36,173,57,238,106v70,51,130,117,128,241v-2,156,-81,242,-200,286v-93,34,-262,27,-355,1v-55,-15,-100,-32,-137,-53r49,-139v61,35,178,73,277,71","w":862},"t":{"d":"672,-35v-71,34,-159,60,-262,60v-83,0,-142,-24,-176,-71v-34,-47,-52,-126,-52,-237r0,-598r-159,0r0,-143r159,0r0,-203r164,-47r0,250r279,0r0,143r-279,0r0,568v0,71,8,121,26,150v18,29,48,44,91,44v78,0,113,-18,172,-41","w":694},"u":{"d":"805,-162v-63,102,-163,187,-330,187v-182,0,-277,-73,-313,-221v-14,-56,-21,-125,-21,-210r0,-618r164,0r0,584v2,177,24,322,201,321v120,-1,185,-63,234,-136v17,-27,31,-55,42,-85r0,-684r164,0r0,733v0,95,5,214,23,291r-113,0r-41,-162r-10,0","w":1103},"v":{"d":"453,-424r57,195r2,0r51,-199r230,-596r176,0r-437,1047r-69,0r-445,-1047r189,0","w":987},"w":{"d":"821,-1024r236,598r51,197r4,0r39,-201r182,-594r156,0r-344,1047r-80,0r-268,-676r-39,-168r-6,0r-41,170r-258,674r-80,0r-357,-1047r179,0r202,596r35,199r2,0r49,-203r219,-592r119,0","w":1505},"x":{"d":"426,-524r-344,-500r201,0r194,283r58,116r59,-116r199,-283r184,0r-346,492r366,532r-194,0r-217,-311r-62,-123r-63,123r-221,311r-183,0","w":1054},"y":{"d":"459,-360r57,196r10,0r45,-198r199,-662r166,0r-303,920r-69,194v-42,112,-89,219,-166,286v-34,29,-74,44,-119,44v-49,0,-90,-7,-121,-21r28,-141v71,24,112,5,162,-50v36,-40,65,-110,88,-208r-411,-1024r188,0","w":954},"z":{"d":"86,-143r473,-652r86,-86r-559,0r0,-143r729,0r0,143r-477,658r-84,80r561,0r0,143r-729,0r0,-143","w":915},"{":{"d":"475,471v-127,0,-194,-81,-194,-213r0,-487v1,-129,-48,-177,-164,-181r0,-143v109,-1,164,-57,164,-172r0,-496v0,-127,64,-215,194,-215r174,0r0,144r-102,0v-79,2,-107,37,-107,121r0,485v4,110,-60,177,-143,194r0,13v79,13,143,101,143,203r0,483v1,83,26,120,109,121r100,0r0,143r-174,0","w":708},"|":{"d":"174,-1434r139,0r0,1700r-139,0r0,-1700","w":487},"}":{"d":"289,-1436v125,0,192,82,192,213r0,488v-1,129,48,176,164,180r0,143v-109,1,-164,57,-164,172r0,496v0,127,-64,215,-194,215r-174,0r0,-143r102,0v78,-1,107,-38,107,-121r0,-486v-4,-110,58,-177,141,-194r0,-12v-79,-13,-141,-101,-141,-203r0,-483v-1,-82,-27,-120,-107,-121r-102,0r0,-144r176,0","w":708},"~":{"d":"352,-713v-97,0,-149,41,-219,97r-70,-123v59,-45,112,-77,160,-95v84,-31,156,-35,237,-8v64,21,123,54,183,77v29,11,59,17,90,17v75,0,117,-29,168,-73r70,125v-83,55,-147,96,-254,96v-117,0,-187,-63,-274,-96v-28,-11,-58,-17,-91,-17","w":1034},"\u00a1":{"d":"360,410r-170,0r0,-711r35,-361r101,0r34,361r0,711xm268,-809v-70,0,-116,-50,-116,-119v0,-71,45,-119,116,-119v72,0,121,47,121,119v0,71,-49,119,-121,119","w":622},"\u00a2":{"d":"684,-119v84,-4,158,-37,207,-74r53,125v-64,46,-149,75,-246,86r0,187r-145,0r0,-185v-274,-28,-373,-231,-375,-532v-2,-296,123,-498,375,-530r0,-187r145,0r0,182v93,5,165,26,228,58r-47,139v-52,-25,-123,-48,-195,-53r0,784xm348,-512v0,198,63,346,225,385r0,-772v-150,29,-225,158,-225,387"},"\u00a3":{"d":"318,-318v35,-110,3,-239,-33,-323r-199,0r0,-143r135,0v-34,-75,-57,-155,-57,-267v0,-267,165,-407,428,-407v148,0,274,23,369,65r-54,146v-79,-36,-188,-60,-317,-60v-158,0,-256,93,-256,246v0,117,33,196,69,277r330,0r0,143r-268,0v33,93,53,226,19,337v-13,43,-28,81,-56,105r-80,68r0,8r127,-29r524,0r0,152r-913,0r0,-147v130,-2,200,-72,232,-171"},"\u00a5":{"d":"227,-672r193,0r-416,-762r199,0r336,627r34,125r2,0r37,-129r322,-623r182,0r-416,762r193,0r0,123r-248,0r0,129r248,0r0,123r-248,0r0,297r-170,0r0,-297r-248,0r0,-123r248,0r0,-129r-248,0r0,-123"},"\u00a7":{"d":"481,-119v103,-2,181,-23,181,-121v0,-84,-74,-109,-142,-136v-85,-34,-187,-57,-262,-104v-78,-48,-143,-117,-141,-243v2,-100,57,-178,116,-231r84,-29v-68,-45,-126,-102,-124,-217v2,-167,138,-258,321,-258v135,0,233,25,320,63r-39,138v-89,-46,-295,-90,-395,-25v-57,37,-59,132,-4,171v97,70,258,89,364,155v78,48,143,119,141,245v-2,101,-54,177,-115,230r-92,28v70,45,133,105,131,220v-3,139,-86,208,-197,241v-88,27,-236,18,-314,-2v-49,-13,-93,-30,-132,-49r41,-133v65,31,159,58,258,57xm430,-926v-71,34,-150,95,-149,199v1,75,45,111,95,141v59,34,137,49,206,76v61,-27,114,-73,142,-134v21,-47,15,-111,-14,-146v-61,-74,-181,-97,-280,-136","w":1017},"\u00a8":{"d":"223,-1237v-58,0,-100,-43,-100,-100v0,-61,40,-105,100,-105v60,0,101,44,101,105v0,57,-43,100,-101,100xm616,-1237v-58,0,-100,-43,-100,-100v0,-61,40,-105,100,-105v62,0,103,43,103,105v0,58,-42,100,-103,100","w":841},"\u00a9":{"d":"156,-290v-68,-174,-68,-439,6,-608v76,-173,207,-301,385,-368v172,-65,385,-65,557,0v178,67,310,194,385,368v74,172,74,436,0,608v-75,174,-208,300,-385,368v-172,66,-406,63,-576,0v-178,-66,-303,-191,-372,-368xm293,-844v-59,140,-58,361,0,501v59,143,163,242,307,296v138,52,315,52,452,0v212,-81,351,-257,351,-547v0,-289,-139,-465,-351,-547v-137,-52,-316,-52,-453,0v-143,54,-247,155,-306,297xm645,-594v-1,151,67,250,211,250v64,0,119,-12,164,-37r43,121v-65,37,-139,55,-242,55v-227,0,-340,-159,-340,-389v0,-253,148,-417,407,-385v64,8,161,51,161,51r-54,125v-87,-48,-226,-58,-295,15v-35,37,-55,100,-55,194","w":1650},"\u00aa":{"d":"426,-1335v-97,-1,-197,20,-256,51r-31,-102v76,-39,199,-64,322,-64v160,0,218,61,221,207v3,157,-21,328,10,465r-112,0r-27,-94r-8,0v-44,52,-106,102,-213,102v-132,0,-235,-68,-234,-195v0,-91,51,-142,114,-175v81,-42,207,-57,331,-50v3,-15,2,-45,2,-45v-2,-82,-31,-99,-119,-100xm242,-975v1,59,48,90,112,90v101,0,157,-46,189,-112r0,-86v-101,-4,-165,-8,-237,18v-38,13,-64,40,-64,90","w":790},"\u00ab":{"d":"455,-530r323,-467r109,86r-199,295r-98,84r98,73r211,289r-106,88xm80,-530r328,-471r110,88r-201,297r-98,84r98,73r213,291r-110,90","w":978},"\u00ac":{"d":"84,-803r868,0r0,393r-147,0r0,-245r-721,0r0,-148","w":1034},"\u00ae":{"d":"216,-692v-54,-130,-56,-336,1,-464v82,-185,244,-310,500,-310v256,0,422,123,501,310v55,129,54,335,-1,464v-56,131,-157,225,-291,275v-129,49,-295,47,-422,0v-133,-50,-233,-144,-288,-275xm334,-1109v-40,101,-40,271,2,371v61,144,185,236,381,236v198,0,322,-89,381,-234v40,-100,43,-273,0,-373v-62,-144,-185,-237,-381,-237v-199,0,-324,90,-383,237xm920,-1051v0,88,-66,135,-146,140r57,28r152,224r-125,0r-147,-213r-99,-31r0,244r-106,0r0,-531v46,-14,142,-20,205,-20v112,2,209,41,209,159xm682,-965v71,-1,124,-14,125,-82v0,-47,-40,-71,-119,-71v-28,1,-57,-1,-76,8r0,145r70,0","w":1433},"\u00af":{"d":"123,-1317r606,0r0,127r-606,0r0,-127","w":851},"\u00b0":{"d":"196,-1048v-29,-68,-31,-169,0,-238v43,-100,130,-172,267,-172v136,0,224,69,267,168v29,68,29,174,0,242v-43,99,-131,167,-267,167v-136,0,-225,-68,-267,-167xm463,-1335v-87,0,-160,70,-160,166v0,97,71,165,160,165v87,0,160,-70,160,-165v0,-96,-72,-166,-160,-166","w":870},"\u00b1":{"d":"82,-1012r360,0r0,-368r148,0r0,368r360,0r0,148r-360,0r0,248r-148,0r0,-248r-360,0r0,-148xm82,-512r868,0r0,147r-868,0r0,-147","w":1034},"\u00b4":{"d":"244,-1475r182,0r0,43r-207,263r-96,0","w":548},"\u00b5":{"d":"510,25v-126,0,-184,-40,-240,-103r-10,0r43,215r0,273r-164,0r0,-1434r164,0r0,580v0,108,17,190,50,244v33,54,92,81,175,81v161,1,264,-110,299,-241r0,-664r164,0r0,690v1,120,3,235,31,334r-113,0r-57,-152r-8,0v-56,96,-175,177,-334,177","w":1130},"\u03bc":{"d":"510,25v-126,0,-184,-40,-240,-103r-10,0r43,215r0,273r-164,0r0,-1434r164,0r0,580v0,108,17,190,50,244v33,54,92,81,175,81v161,1,264,-110,299,-241r0,-664r164,0r0,690v1,120,3,235,31,334r-113,0r-57,-152r-8,0v-56,96,-175,177,-334,177","w":1130},"\u00b6":{"d":"698,-1434r140,0r0,1700r-140,0r0,-1700xm379,-635v-102,-2,-169,-59,-216,-123v-72,-97,-115,-278,-63,-426v33,-96,92,-172,178,-216v44,-23,93,-34,148,-34r92,0r0,1700r-139,0r0,-901","w":1011},"\u00b7":{"d":"155,-418v0,37,11,66,32,87v21,21,50,32,85,32v37,0,66,-11,88,-32v22,-21,33,-50,33,-87v0,-35,-11,-64,-33,-86v-22,-22,-51,-33,-88,-33v-35,0,-64,11,-85,33v-21,22,-32,51,-32,86","w":546},"\u00b8":{"d":"137,317v60,9,176,22,176,-57v0,-39,-57,-65,-176,-76r99,-184r116,0r-49,88v99,20,162,51,162,154v0,153,-175,208,-342,176","w":587},"\u00ba":{"d":"408,-762v-217,0,-318,-126,-318,-348v0,-219,103,-348,318,-348v217,0,317,126,317,348v0,222,-100,348,-317,348xm573,-1110v0,-137,-33,-229,-165,-229v-52,0,-93,16,-122,48v-29,32,-44,92,-44,181v0,82,15,141,44,176v29,35,70,53,122,53v132,0,165,-92,165,-229","w":815},"\u00bb":{"d":"526,-549r-327,467r-107,-86r197,-295r100,-84r-100,-74r-209,-288r106,-88xm899,-549r-328,471r-110,-88r201,-297r98,-84r-98,-74r-213,-290r108,-90","w":978},"\u00bf":{"d":"817,332v-108,62,-205,103,-377,102v-177,-1,-292,-75,-342,-202v-33,-85,-25,-212,6,-292v72,-185,243,-273,319,-452v19,-42,28,-92,28,-150r135,0v25,316,-213,405,-314,616v-17,36,-26,77,-26,124v0,139,79,213,235,213v104,0,216,-44,281,-86xm508,-811v-70,0,-117,-50,-117,-119v0,-71,47,-119,117,-119v72,0,121,47,121,119v0,70,-50,119,-121,119","w":892},"\u00c1":{"d":"678,-1782r233,0r0,43r-334,199r-141,0xm856,397r-528,0r-144,-397r-168,0r543,1456r78,0r545,-1456r-178,0xm383,545r422,0r-160,436r-51,217r-2,0r-51,-221","w":1198},"\u00c9":{"d":"676,-1782r233,0r0,43r-334,199r-141,0xm174,1434r780,0r0,-152r-610,0r0,-469r559,0r0,-151r-559,0r0,-510r621,0r0,-152r-791,0r0,1434","w":1097},"\u00cd":{"d":"369,-1782r233,0r0,43r-334,199r-141,0xm213,1434r170,0r0,-1434r-170,0r0,1434","w":595},"\u00d3":{"d":"850,-1782r233,0r0,43r-334,199r-141,0xm115,717v0,239,51,422,152,550v101,127,244,191,431,191v101,0,189,-18,263,-53v73,-35,134,-86,183,-151v49,-65,85,-142,108,-233v23,-91,34,-192,34,-304v0,-239,-51,-422,-153,-550v-101,-128,-246,-192,-435,-192v-100,0,-186,18,-259,54v-73,35,-133,85,-182,150v-49,65,-85,143,-108,234v-23,91,-34,192,-34,304xm295,717v0,-79,8,-155,24,-226v15,-71,39,-133,72,-187v33,-54,75,-97,126,-129v51,-32,112,-48,181,-48v127,0,226,48,299,145v73,96,109,244,109,445v0,78,-8,153,-24,225v-15,71,-40,134,-74,188v-33,53,-76,96,-127,129v-51,32,-112,48,-183,48v-125,0,-224,-48,-296,-145v-71,-96,-107,-244,-107,-445","w":1400},"\u00da":{"d":"799,-1782r233,0r0,43r-334,199r-141,0xm997,1434r164,0r0,-957v0,-86,-11,-160,-34,-223v-22,-63,-54,-114,-96,-155v-41,-40,-91,-70,-150,-89v-59,-19,-124,-28,-195,-28v-169,0,-297,38,-383,115v-86,76,-129,192,-129,347r0,990r170,0r0,-910v0,-73,7,-134,22,-184v14,-49,35,-89,64,-120v29,-31,65,-53,108,-67v43,-13,93,-20,150,-20v111,0,190,30,238,91v47,61,71,161,71,300r0,910","w":1335},"\u00dd":{"d":"727,-1782r233,0r0,43r-334,199r-141,0xm489,569r-473,865r199,0r336,-627r35,-125r2,0r37,129r321,623r182,0r-469,-863r0,-571r-170,0r0,569","w":1142},"\u00e1":{"d":"141,948v52,31,113,55,182,70v69,15,141,22,216,22v71,0,128,-10,171,-29v43,-19,75,-43,98,-74v23,-31,38,-65,45,-102v7,-37,11,-73,11,-110v0,-82,-2,-162,-6,-240v-4,-77,-6,-151,-6,-221v0,-51,2,-99,6,-144v4,-45,12,-86,23,-124r-121,0r-43,143r-10,0v-12,-19,-27,-38,-46,-57v-19,-18,-41,-34,-67,-49v-26,-14,-56,-26,-90,-35v-34,-9,-73,-14,-117,-14v-44,0,-85,7,-122,21v-37,13,-70,33,-97,58v-27,25,-49,55,-65,91v-15,35,-23,75,-23,120v0,60,12,110,37,151v25,40,59,72,104,96v44,24,97,41,159,52v62,10,131,15,206,15r56,0v19,0,37,-1,56,-4v4,41,6,77,7,110v0,75,-15,128,-46,158v-30,30,-84,45,-163,45v-23,0,-48,-2,-75,-5v-27,-3,-54,-8,-82,-15v-28,-6,-55,-13,-80,-22v-25,-9,-47,-19,-66,-30xm432,127v38,0,72,5,103,16v30,10,56,23,78,39v21,15,39,33,54,52v14,19,24,37,31,55r0,170v-19,1,-39,2,-59,3v-19,1,-38,1,-57,1v-42,0,-83,-2,-124,-7v-41,-5,-76,-14,-107,-27v-31,-13,-55,-30,-74,-53v-18,-23,-27,-51,-27,-85v0,-48,17,-87,51,-118v34,-31,78,-46,131,-46xm488,1475r182,0r0,-43r-207,-263r-96,0","w":1015},"\u00e9":{"d":"905,82v-41,-33,-92,-59,-155,-78v-62,-19,-128,-29,-197,-29v-78,0,-146,13,-203,38v-57,25,-104,62,-141,109v-37,47,-64,104,-82,169v-18,65,-27,139,-27,221v0,175,39,308,117,400v78,91,189,137,334,137v47,0,93,-5,140,-16v46,-10,87,-29,124,-58v37,-29,67,-69,90,-122v23,-53,35,-122,35,-208v0,-45,-4,-95,-12,-149r-658,0v0,-60,6,-113,19,-160v12,-47,31,-86,57,-118v26,-32,60,-57,102,-74v41,-17,92,-25,152,-25v47,0,93,8,140,25v46,16,81,35,104,57xm553,905v-81,0,-145,-21,-194,-64v-48,-42,-77,-114,-87,-216r508,0v0,104,-20,177,-59,218v-39,41,-95,62,-168,62xm596,1475r182,0r0,-43r-207,-263r-96,0","w":1040},"\u00ed":{"d":"193,-1024r163,0r0,1024r-163,0r0,-1024xm316,1475r182,0r0,-43r-207,-263r-96,0","w":548},"\u00f3":{"d":"100,512v0,173,39,306,116,399v77,92,188,138,333,138v77,0,143,-13,200,-38v57,-25,103,-62,140,-109v37,-47,64,-104,82,-170v17,-66,26,-139,26,-220v0,-173,-39,-306,-116,-399v-77,-92,-187,-138,-332,-138v-77,0,-143,13,-200,38v-57,25,-103,62,-140,109v-37,47,-64,104,-82,170v-18,66,-27,139,-27,220xm270,512v0,-52,5,-102,16,-150v10,-47,26,-89,48,-125v22,-35,51,-64,86,-86v35,-21,78,-32,129,-32r3,0v184,0,276,131,275,393v0,53,-5,104,-15,152v-10,47,-26,89,-48,125v-22,35,-51,64,-86,85v-35,21,-78,31,-129,31r-3,0v-184,0,-276,-131,-276,-393xm586,1475r182,0r0,-43r-207,-263r-96,0","w":1097},"\u00f7":{"d":"82,-766r868,0r0,148r-868,0r0,-148xm514,-956v-70,0,-117,-50,-117,-119v0,-71,47,-119,117,-119v72,0,121,47,121,119v0,70,-50,119,-121,119xm514,-188v-70,0,-117,-50,-117,-119v0,-71,47,-119,117,-119v72,0,121,47,121,119v0,70,-50,119,-121,119","w":1034},"\u00fa":{"d":"305,1024r0,-584v0,-53,3,-100,10,-140v6,-40,17,-73,32,-100v15,-27,35,-47,61,-61v25,-13,58,-20,98,-20v37,0,69,6,98,18v29,11,54,27,77,48v23,20,43,43,60,70v17,27,30,55,41,85r0,684r164,0r0,-733v0,-49,2,-100,5,-153v3,-53,9,-99,18,-138r-113,0r-41,162r-10,0v-31,-53,-74,-98,-127,-134v-53,-35,-121,-53,-203,-53v-55,0,-103,7,-145,20v-41,13,-76,36,-104,69v-28,33,-49,77,-64,132v-14,55,-21,125,-21,210r0,618r164,0xm584,1475r182,0r0,-43r-207,-263r-96,0","w":1103},"\u00fd":{"d":"459,360r57,-196r10,0r45,198r199,662r166,0r-303,-920r-69,-194v-23,-63,-48,-119,-75,-168v-27,-49,-57,-89,-92,-118v-34,-29,-73,-44,-118,-44v-49,0,-90,7,-121,21r28,141v18,-7,35,-10,52,-10v38,0,75,20,110,61v35,40,65,109,88,207r-411,1024r188,0xm568,1475r182,0r0,-43r-207,-263r-96,0","w":954},"\u010c":{"d":"783,-1528r-119,0r-260,-211r0,-43r168,0r121,103r34,69r39,-67r129,-105r160,0r0,45xm1092,59v-41,-31,-93,-53,-156,-66v-63,-12,-130,-18,-201,-18v-86,0,-167,15,-242,44v-75,29,-140,74,-196,135v-56,60,-100,137,-133,230v-33,93,-49,204,-49,333v0,134,18,248,54,341v36,93,84,170,143,229v59,59,126,103,200,130v74,27,149,41,225,41v82,0,149,-4,201,-13v52,-9,96,-21,133,-36r-41,-149v-65,31,-159,47,-280,47v-56,0,-111,-10,-166,-31v-55,-21,-104,-54,-147,-101v-43,-46,-77,-107,-103,-182v-26,-75,-39,-167,-39,-276v0,-98,12,-184,37,-258v25,-74,59,-136,102,-185v43,-49,93,-85,151,-110v58,-25,121,-37,189,-37v61,0,115,6,161,19v46,12,85,28,116,47","w":1169},"\u010d":{"d":"856,68v-41,-30,-89,-53,-145,-69v-56,-16,-115,-24,-176,-24v-79,0,-146,13,-201,38v-55,25,-100,62,-135,109v-35,47,-60,104,-76,170v-15,66,-23,139,-23,220v0,173,38,306,115,399v77,92,187,138,330,138v65,0,121,-5,167,-16v45,-10,87,-25,124,-44r-48,-141v-31,18,-66,32,-104,42v-38,10,-79,15,-123,15v-194,0,-291,-131,-291,-393v0,-52,5,-102,16,-149v10,-47,27,-88,51,-125v24,-36,55,-65,94,-87v39,-21,87,-32,144,-32v49,0,94,8,133,23v39,15,70,32,95,51xm553,1126r-76,0r-235,373r160,0r79,-135r44,-119r45,119r92,135r143,0","w":923},"\u010e":{"d":"627,-1528r-119,0r-260,-211r0,-43r168,0r121,103r34,69r39,-67r129,-105r160,0r0,45xm174,1434v26,4,55,7,87,9v32,2,65,3,100,4r103,2v33,1,64,1,93,1v115,0,214,-18,298,-54v84,-35,153,-85,208,-148v55,-63,95,-139,122,-228v27,-89,40,-186,40,-293v0,-97,-13,-190,-38,-280v-25,-89,-65,-169,-120,-238v-55,-69,-126,-124,-213,-165v-87,-41,-193,-62,-317,-62v-22,0,-51,0,-86,1v-35,1,-70,2,-107,4v-37,2,-71,4,-102,5v-31,1,-54,3,-68,6r0,1436xm561,1298r-58,0v-21,0,-42,-1,-63,-2v-20,-1,-39,-3,-56,-4v-17,-1,-31,-3,-40,-4r0,-1147v7,-1,20,-2,39,-3r59,-2r60,-2v19,-1,32,-1,39,-1v95,0,176,16,241,49v65,33,116,77,155,132v39,55,66,119,83,191v16,71,24,145,24,222v0,67,-8,134,-23,202v-15,67,-40,128,-77,183v-37,55,-86,99,-149,134v-62,35,-140,52,-234,52","w":1339},"\u010f":{"d":"1022,-1079v44,-92,71,-223,71,-355r164,0v-12,130,-69,245,-123,332v-18,27,-32,47,-45,60xm944,352v0,-69,1,-132,2,-189v1,-57,8,-112,19,-167r-111,0r-41,145r-8,0v-27,-48,-67,-88,-119,-119v-52,-31,-113,-47,-182,-47v-137,0,-238,43,-305,129v-66,86,-99,221,-99,404v0,175,41,307,124,398v83,91,196,136,341,136v51,0,91,-3,120,-8v29,-5,61,-14,95,-26r0,426r164,0r0,-1082xm530,119v69,0,125,18,166,54v41,36,69,91,84,165r0,508v-25,19,-53,33,-84,41v-31,8,-73,12,-125,12v-94,0,-168,-31,-221,-93v-53,-62,-80,-161,-80,-298v0,-56,5,-108,14,-156v9,-47,23,-88,44,-123v20,-34,47,-61,80,-81v33,-19,74,-29,122,-29","w":1206},"\u011a":{"d":"602,-1528r-119,0r-260,-211r0,-43r168,0r121,103r34,69r39,-67r129,-105r160,0r0,45xm174,1434r780,0r0,-152r-610,0r0,-469r559,0r0,-151r-559,0r0,-510r621,0r0,-152r-791,0r0,1434","w":1097},"\u011b":{"d":"905,82v-41,-33,-92,-59,-155,-78v-62,-19,-128,-29,-197,-29v-78,0,-146,13,-203,38v-57,25,-104,62,-141,109v-37,47,-64,104,-82,169v-18,65,-27,139,-27,221v0,175,39,308,117,400v78,91,189,137,334,137v47,0,93,-5,140,-16v46,-10,87,-29,124,-58v37,-29,67,-69,90,-122v23,-53,35,-122,35,-208v0,-45,-4,-95,-12,-149r-658,0v0,-60,6,-113,19,-160v12,-47,31,-86,57,-118v26,-32,60,-57,102,-74v41,-17,92,-25,152,-25v47,0,93,8,140,25v46,16,81,35,104,57xm553,905v-81,0,-145,-21,-194,-64v-48,-42,-77,-114,-87,-216r508,0v0,104,-20,177,-59,218v-39,41,-95,62,-168,62xm571,1126r-76,0r-235,373r160,0r79,-135r44,-119r45,119r92,135r143,0","w":1040},"\u0147":{"d":"746,-1528r-119,0r-260,-211r0,-43r168,0r121,103r34,69r39,-67r129,-105r160,0r0,45xm432,938r-110,207r-9,0r21,-207r0,-938r-160,0r0,1456r90,0r686,-956r107,-197r10,0r-23,197r0,934r160,0r0,-1457r-90,0","w":1378},"\u0148":{"d":"815,0r0,584v0,107,-15,187,-46,241v-31,53,-87,80,-169,80v-73,0,-133,-20,-180,-59v-47,-39,-79,-87,-98,-146r0,-700r-164,0r0,1024r114,0r31,-125r8,0v33,44,77,80,132,108v55,28,121,42,198,42v56,0,105,-7,148,-20v42,-13,77,-36,105,-69v28,-33,49,-77,64,-132v14,-55,21,-125,21,-210r0,-618r-164,0xm592,1126r-76,0r-235,373r160,0r79,-135r44,-119r45,119r92,135r143,0","w":1120},"\u0158":{"d":"568,-1528r-119,0r-260,-211r0,-43r168,0r121,103r34,69r39,-67r129,-105r160,0r0,45xm174,1419v52,9,112,17,180,23v67,5,129,8,185,8v63,0,122,-7,179,-21v57,-13,107,-36,150,-67v43,-31,77,-72,103,-123v26,-51,39,-112,39,-184v0,-112,-31,-203,-93,-273v-61,-69,-139,-116,-233,-139r98,-76r357,-567r-199,0r-395,618r-201,31r0,-649r-170,0r0,1419xm543,1303r-56,0v-19,0,-38,-1,-55,-3v-17,-1,-34,-3,-50,-4v-16,-1,-29,-3,-38,-6r0,-528r160,0v94,0,172,23,233,70v61,46,92,118,92,217v0,74,-25,135,-76,183v-50,47,-120,71,-210,71","w":1218},"\u0159":{"d":"641,866v-41,13,-80,20,-117,21v-59,0,-105,-16,-139,-48v-34,-32,-55,-73,-63,-122r0,-717r-164,0r0,1024r114,0r31,-125r8,0v26,47,57,83,94,108v36,25,82,37,138,37v39,0,84,-7,133,-20xm422,1126r-76,0r-235,373r160,0r79,-135r44,-119r45,119r92,135r143,0","w":696},"\u0160":{"d":"660,-1528r-119,0r-260,-211r0,-43r168,0r121,103r34,69r39,-67r129,-105r160,0r0,45xm821,365v0,57,-17,104,-51,140v-34,36,-77,68,-128,96v-51,28,-107,54,-167,79v-60,25,-116,54,-167,89v-51,35,-94,78,-128,129v-34,51,-51,117,-51,196v0,112,39,201,117,266v77,65,188,98,332,98v83,0,159,-6,227,-19v68,-12,121,-27,160,-46r-52,-150v-31,15,-77,30,-138,44v-61,13,-129,20,-206,20v-90,0,-158,-20,-203,-61v-45,-40,-67,-87,-67,-142v0,-53,17,-98,51,-133v34,-35,77,-67,128,-95v51,-28,107,-56,167,-83v60,-27,116,-59,167,-96v51,-36,94,-79,128,-130v34,-50,51,-113,51,-188v0,-61,-11,-117,-33,-166v-21,-49,-53,-92,-96,-127v-42,-35,-93,-63,-154,-82v-60,-19,-128,-29,-204,-29v-103,0,-187,8,-254,24v-67,16,-119,33,-156,52r58,154v31,-18,78,-36,139,-53v61,-17,130,-25,207,-25v45,0,88,5,127,14v39,9,73,23,102,43v29,19,52,44,69,75v17,30,25,65,25,106","w":1087},"\u0161":{"d":"608,279v0,41,-12,73,-37,96v-24,23,-54,43,-91,59v-36,15,-76,30,-119,45v-43,14,-82,32,-119,55v-36,22,-66,51,-91,87v-24,35,-36,83,-36,143v0,98,28,170,84,216v56,46,134,69,233,69v74,0,136,-7,186,-20v49,-13,93,-28,130,-46r-39,-135v-31,15,-69,29,-114,40v-45,11,-92,17,-142,17v-60,0,-104,-10,-132,-31v-28,-20,-42,-55,-42,-106v0,-35,12,-63,37,-83v24,-20,54,-38,91,-54v36,-15,76,-31,119,-46v43,-15,82,-34,118,-59v36,-25,66,-56,91,-93v25,-37,37,-87,37,-148v0,-44,-7,-85,-22,-124v-14,-38,-36,-71,-66,-98v-30,-27,-67,-48,-112,-64v-44,-16,-96,-24,-156,-24v-78,0,-144,8,-199,23v-55,15,-100,32,-137,53r49,139v31,-18,72,-34,123,-49v51,-15,102,-22,154,-22v59,0,107,12,145,35v38,23,57,65,57,125xm461,1126r-76,0r-235,373r160,0r79,-135r44,-119r45,119r92,135r143,0","w":862},"\u0164":{"d":"623,-1528r-119,0r-260,-211r0,-43r168,0r121,103r34,69r39,-67r129,-105r160,0r0,45xm1100,1282r-447,0r0,-1282r-170,0r0,1282r-446,0r0,152r1063,0r0,-152","w":1136},"\u0165":{"d":"404,-1108v44,-92,71,-223,71,-355r164,0v-12,130,-69,245,-123,332v-18,27,-32,47,-45,60xm23,1024r159,0r0,203r164,47r0,-250r279,0r0,-143r-279,0r0,-568v0,-71,9,-121,27,-150v17,-29,47,-44,90,-44v35,0,65,4,90,11v25,7,52,17,82,30r37,-125v-37,-18,-77,-33,-121,-44v-44,-11,-91,-16,-141,-16v-83,0,-142,24,-177,71v-34,47,-51,126,-51,237r0,598r-159,0r0,143","w":694},"\u016e":{"d":"676,-1403v-125,0,-215,-56,-215,-170v0,-116,81,-174,215,-174v127,0,217,52,217,174v0,112,-90,170,-217,170xm676,-1659v-57,0,-90,32,-90,86v0,51,33,82,90,82v56,0,92,-30,92,-82v0,-55,-33,-86,-92,-86xm997,1434r164,0r0,-957v0,-86,-11,-160,-34,-223v-22,-63,-54,-114,-96,-155v-41,-40,-91,-70,-150,-89v-59,-19,-124,-28,-195,-28v-169,0,-297,38,-383,115v-86,76,-129,192,-129,347r0,990r170,0r0,-910v0,-73,7,-134,22,-184v14,-49,35,-89,64,-120v29,-31,65,-53,108,-67v43,-13,93,-20,150,-20v111,0,190,30,238,91v47,61,71,161,71,300r0,910","w":1335},"\u016f":{"d":"305,1024r0,-584v0,-53,3,-100,10,-140v6,-40,17,-73,32,-100v15,-27,35,-47,61,-61v25,-13,58,-20,98,-20v37,0,69,6,98,18v29,11,54,27,77,48v23,20,43,43,60,70v17,27,30,55,41,85r0,684r164,0r0,-733v0,-49,2,-100,5,-153v3,-53,9,-99,18,-138r-113,0r-41,162r-10,0v-31,-53,-74,-98,-127,-134v-53,-35,-121,-53,-203,-53v-55,0,-103,7,-145,20v-41,13,-76,36,-104,69v-28,33,-49,77,-64,132v-14,55,-21,125,-21,210r0,618r164,0xm352,1317v0,57,18,103,54,136v36,33,84,50,145,50v57,0,105,-15,143,-45v38,-30,57,-77,57,-141v0,-53,-19,-97,-57,-132v-38,-35,-86,-52,-143,-52v-57,0,-105,16,-143,48v-37,32,-56,77,-56,136xm462,1317v0,-27,9,-49,27,-64v18,-15,39,-22,62,-22v26,0,48,7,65,21v17,13,25,35,25,65v0,30,-9,52,-28,67v-19,14,-39,21,-62,21v-23,0,-44,-7,-62,-21v-18,-13,-27,-36,-27,-67","w":1103},"\u017d":{"d":"586,-1528r-119,0r-260,-211r0,-43r168,0r121,103r34,69r39,-67r129,-105r160,0r0,45xm78,154r723,1046r86,82r-809,0r0,152r962,0r0,-154r-727,-1053r-86,-75r813,0r0,-152r-962,0r0,154"},"\u017e":{"d":"86,143r473,652r86,86r-559,0r0,143r729,0r0,-143r-477,-658r-84,-80r561,0r0,-143r-729,0r0,143xm481,1126r-76,0r-235,373r160,0r79,-135r44,-119r45,119r92,135r143,0","w":915},"\u0192":{"d":"-27,242v58,24,105,41,181,41v52,0,92,-23,118,-69v26,-46,49,-123,66,-230r139,-865r-174,0r0,-143r197,0r22,-137v17,-101,47,-177,90,-225v43,-48,113,-72,211,-72v93,0,183,22,248,51r-47,133v-65,-27,-128,-41,-188,-41v-123,-1,-133,100,-152,207r-14,84r245,0r0,143r-268,0r-162,951v-24,148,-75,270,-188,328v-105,54,-276,16,-367,-21"},"\u02c6":{"d":"375,-1499r65,0r228,373r-148,0r-80,-136r-43,-118r-45,118r-92,136r-137,0","w":790},"\u02c7":{"d":"434,-1126r-76,0r-235,-373r160,0r79,135r44,119r45,-119r92,-135r143,0","w":808},"\u02d8":{"d":"444,-1317v111,0,179,-72,218,-158r86,37v-19,117,-94,200,-191,242v-66,28,-153,30,-223,5v-106,-38,-181,-120,-211,-236r92,-48v40,83,119,158,229,158","w":870},"\u02d9":{"d":"236,-1227v-63,0,-113,-46,-113,-108v0,-62,49,-115,113,-115v62,0,118,54,118,115v0,62,-56,108,-118,108","w":477},"\u02da":{"d":"322,-1133v-113,0,-199,-68,-199,-184v0,-115,82,-188,199,-186v117,1,200,62,200,186v0,107,-91,184,-200,184xm322,-1405v-51,0,-89,30,-89,88v0,52,41,86,89,86v54,-1,90,-28,90,-86v0,-55,-41,-88,-90,-88","w":645},"\u02db":{"d":"326,399v-117,2,-204,-68,-203,-182v0,-56,19,-103,57,-143v38,-40,89,-71,154,-94r112,0v-81,38,-153,94,-153,198v0,57,41,105,104,105v26,0,53,-7,82,-21r23,88v-34,31,-115,48,-176,49","w":624},"\u02dc":{"d":"287,-1321v-56,0,-79,28,-117,64r-47,-86v39,-45,76,-76,109,-93v54,-28,99,-35,154,-13v38,16,74,41,110,57v61,27,100,10,149,-38r49,89v-35,39,-68,67,-97,81v-49,24,-93,28,-143,8v-38,-16,-74,-39,-111,-56v-19,-9,-37,-13,-56,-13","w":817},"\u02dd":{"d":"195,-1434r159,0r0,33r-145,232r-86,0xm494,-1434r176,0r0,33r-234,232r-92,0","w":792},"\u2206":{"d":"29,0r0,-76r520,-1380r69,0r525,1380r0,76r-1114,0xm217,-147r727,0r-317,-826r-49,-215r-3,0r-57,219","w":1163},"\u0394":{"d":"29,0r0,-76r520,-1380r69,0r525,1380r0,76r-1114,0xm217,-147r727,0r-317,-826r-49,-215r-3,0r-57,219","w":1163},"\u03a9":{"d":"817,-1307v-323,2,-481,202,-481,541v0,169,56,287,135,372v65,72,163,120,270,138r0,256r-585,0r0,-143r237,0r193,20r0,-53r-111,-21v-146,-72,-245,-203,-293,-375v-43,-151,-30,-351,21,-485v92,-243,289,-401,616,-401v335,0,534,165,624,415v49,138,61,336,15,482v-51,163,-155,287,-289,362r-116,23r0,53r196,-20r238,0r0,143r-588,0r0,-256v171,-38,301,-138,367,-292v48,-113,53,-287,13,-418v-41,-133,-120,-235,-239,-294v-62,-32,-137,-47,-223,-47","w":1642},"\u2126":{"d":"817,-1307v-323,2,-481,202,-481,541v0,169,56,287,135,372v65,72,163,120,270,138r0,256r-585,0r0,-143r237,0r193,20r0,-53r-111,-21v-146,-72,-245,-203,-293,-375v-43,-151,-30,-351,21,-485v92,-243,289,-401,616,-401v335,0,534,165,624,415v49,138,61,336,15,482v-51,163,-155,287,-289,362r-116,23r0,53r196,-20r238,0r0,143r-588,0r0,-256v171,-38,301,-138,367,-292v48,-113,53,-287,13,-418v-41,-133,-120,-235,-239,-294v-62,-32,-137,-47,-223,-47","w":1642},"\u03c0":{"d":"74,-854v54,-100,109,-171,262,-170r887,0r0,143r-170,0r0,643v-1,63,16,100,65,103v26,2,68,-7,90,-12r39,110v-49,19,-116,45,-190,45v-142,0,-168,-87,-168,-225r0,-664r-389,0r0,881r-164,0r0,-881r-29,0v-72,3,-89,43,-125,93","w":1359},"\u2013":{"d":"242,-666r868,0r0,152r-868,0r0,-152","w":1351},"\u2014":{"d":"242,-666r1196,0r0,152r-1196,0r0,-152","w":1679},"\u2018":{"d":"209,-1366v67,-14,108,36,108,96v0,62,-47,104,-108,103v-79,-1,-127,-58,-127,-146v0,-124,54,-199,124,-251v19,-14,37,-24,52,-29r51,71v-55,29,-100,75,-100,156","w":397},"\u2019":{"d":"188,-1251v-67,13,-106,-36,-106,-99v0,-62,45,-101,106,-100v81,1,129,55,129,143v0,125,-54,204,-125,255v-20,14,-38,23,-53,28r-51,-70v58,-32,100,-71,100,-157","w":397},"\u201a":{"d":"82,2597v0,31,10,56,30,74v19,17,45,26,76,26v38,0,69,-12,93,-36v24,-24,36,-60,36,-107v0,-45,-6,-84,-19,-117v-13,-33,-28,-60,-47,-83v-19,-23,-38,-41,-59,-55v-20,-13,-38,-23,-53,-28r-51,70v31,17,56,37,74,62v17,24,26,56,26,95v-5,-1,-13,-2,-22,-2v-26,0,-47,9,-62,28v-15,19,-22,43,-22,73","w":397},"\u201c":{"d":"616,1270v0,-31,-10,-56,-31,-75v-20,-19,-46,-28,-77,-28v-37,0,-67,12,-91,37v-24,25,-36,61,-36,109v0,45,7,84,20,116v13,32,28,59,47,82v18,22,37,40,57,54v20,13,37,23,52,28r51,-71v-30,-15,-54,-36,-73,-61v-18,-25,-27,-57,-27,-95v5,1,13,2,22,2v27,0,49,-10,64,-29v15,-19,22,-42,22,-69xm317,1270v0,-31,-10,-56,-31,-75v-20,-19,-46,-28,-77,-28v-37,0,-67,12,-91,37v-24,25,-36,61,-36,109v0,45,7,84,20,116v13,32,28,59,47,82v18,22,37,40,57,54v20,13,37,23,52,28r51,-71v-30,-15,-54,-36,-73,-61v-18,-25,-27,-57,-27,-95v5,1,13,2,22,2v27,0,49,-10,64,-29v15,-19,22,-42,22,-69","w":696},"\u201d":{"d":"381,1350v0,31,10,56,30,74v19,17,45,26,76,26v38,0,69,-12,93,-36v24,-24,36,-60,36,-107v0,-45,-6,-84,-19,-117v-13,-33,-28,-60,-47,-83v-19,-23,-38,-41,-59,-55v-20,-13,-38,-23,-53,-28r-51,70v31,17,56,37,74,62v17,24,26,56,26,95v-5,-1,-13,-2,-22,-2v-26,0,-47,9,-62,28v-15,19,-22,43,-22,73xm82,1350v0,31,10,56,30,74v19,17,45,26,76,26v38,0,69,-12,93,-36v24,-24,36,-60,36,-107v0,-45,-6,-84,-19,-117v-13,-33,-28,-60,-47,-83v-19,-23,-38,-41,-59,-55v-20,-13,-38,-23,-53,-28r-51,70v31,17,56,37,74,62v17,24,26,56,26,95v-5,-1,-13,-2,-22,-2v-26,0,-47,9,-62,28v-15,19,-22,43,-22,73","w":696},"\u201e":{"d":"381,2597v0,31,10,56,30,74v19,17,45,26,76,26v38,0,69,-12,93,-36v24,-24,36,-60,36,-107v0,-45,-6,-84,-19,-117v-13,-33,-28,-60,-47,-83v-19,-23,-38,-41,-59,-55v-20,-13,-38,-23,-53,-28r-51,70v31,17,56,37,74,62v17,24,26,56,26,95v-5,-1,-13,-2,-22,-2v-26,0,-47,9,-62,28v-15,19,-22,43,-22,73xm82,2597v0,31,10,56,30,74v19,17,45,26,76,26v38,0,69,-12,93,-36v24,-24,36,-60,36,-107v0,-45,-6,-84,-19,-117v-13,-33,-28,-60,-47,-83v-19,-23,-38,-41,-59,-55v-20,-13,-38,-23,-53,-28r-51,70v31,17,56,37,74,62v17,24,26,56,26,95v-5,-1,-13,-2,-22,-2v-26,0,-47,9,-62,28v-15,19,-22,43,-22,73","w":696},"\u2020":{"d":"82,-1028r268,0r88,22r-22,-96r0,-332r164,0r0,332r-23,96r88,-22r268,0r0,147r-272,0r-84,-22r23,86r0,817r-31,410r-103,0r-30,-412r0,-815r22,-86r-88,22r-268,0r0,-147","w":995},"\u2021":{"d":"416,-819r22,-84r-88,22r-268,0r0,-147r268,0r88,22r-22,-94r0,-334r164,0r0,334r-23,94r88,-22r268,0r0,147r-272,0r-84,-22r23,84r0,254r-23,84r84,-23r272,0r0,148r-268,0r-88,-23r23,94r0,285r-33,410r-98,0r-33,-412r0,-283r22,-94r-88,23r-268,0r0,-148r268,0r88,23r-22,-84r0,-254","w":995},"\u2022":{"d":"200,-517v-29,-66,-30,-167,0,-235v44,-98,127,-170,263,-170v135,0,219,68,262,165v30,66,30,174,0,240v-44,97,-127,165,-262,165v-135,0,-221,-68,-263,-165","w":925},"\u2026":{"d":"1303,25v-70,0,-117,-50,-117,-119v0,-72,45,-119,117,-119v73,0,120,46,120,119v0,70,-49,119,-120,119xm782,25v-70,0,-116,-50,-116,-119v0,-71,45,-119,116,-119v73,0,121,46,121,119v0,71,-49,119,-121,119xm262,25v-70,0,-117,-50,-117,-119v0,-71,47,-119,117,-119v73,0,121,46,121,119v0,70,-50,119,-121,119","w":1554},"\u2030":{"d":"1305,-1460r100,78r-1051,1407r-102,-80xm143,1110v0,61,8,114,25,158v16,43,38,79,66,108v28,29,62,50,101,63v39,13,81,19,126,19v45,0,87,-6,126,-19v39,-12,72,-32,100,-59v28,-27,50,-63,67,-108v16,-44,24,-98,24,-162v0,-64,-8,-118,-25,-163v-16,-44,-38,-80,-66,-107v-28,-27,-62,-47,-101,-60v-39,-12,-80,-18,-125,-18v-45,0,-88,6,-127,19v-39,12,-72,32,-100,59v-28,27,-50,63,-67,108v-16,44,-24,98,-24,162xm295,1110v0,-82,15,-141,44,-176v29,-35,70,-53,122,-53v26,0,49,4,70,11v20,7,37,20,52,37v14,17,25,40,32,69v7,29,11,67,11,112v0,45,-4,83,-11,112v-7,29,-18,53,-33,70v-14,17,-31,29,-52,36v-21,7,-44,11,-69,11v-52,0,-93,-16,-122,-48v-29,-32,-44,-92,-44,-181xm872,1870v0,61,8,114,25,158v16,43,38,79,66,108v28,29,62,50,101,63v39,13,81,19,126,19v45,0,87,-6,126,-19v39,-12,72,-32,100,-59v28,-27,50,-63,67,-108v16,-44,24,-98,24,-162v0,-64,-8,-118,-25,-163v-16,-44,-38,-80,-66,-107v-28,-27,-62,-47,-101,-60v-39,-12,-80,-18,-125,-18v-45,0,-88,6,-127,19v-39,12,-72,32,-100,59v-28,27,-50,63,-67,108v-16,44,-24,98,-24,162xm1024,1870v0,-82,15,-141,44,-176v29,-35,70,-53,122,-53v26,0,49,4,70,11v20,7,37,20,52,37v14,17,25,40,32,69v7,29,11,67,11,112v0,45,-4,83,-11,112v-7,29,-18,53,-33,70v-14,17,-31,29,-52,36v-21,7,-44,11,-69,11v-52,0,-93,-16,-122,-48v-29,-32,-44,-92,-44,-181xm1603,1870v0,61,8,114,25,158v16,43,38,79,66,108v28,29,62,50,101,63v39,13,81,19,126,19v45,0,87,-6,126,-19v39,-12,72,-32,100,-59v28,-27,50,-63,67,-108v16,-44,24,-98,24,-162v0,-64,-8,-118,-25,-163v-16,-44,-38,-80,-66,-107v-28,-27,-62,-47,-101,-60v-39,-12,-80,-18,-125,-18v-45,0,-88,6,-127,19v-39,12,-72,32,-100,59v-28,27,-50,63,-67,108v-16,44,-24,98,-24,162xm1755,1870v0,-82,15,-141,44,-176v29,-35,70,-53,122,-53v26,0,49,4,70,11v20,7,37,20,52,37v14,17,25,40,32,69v7,29,11,67,11,112v0,45,-4,83,-11,112v-7,29,-18,53,-33,70v-14,17,-31,29,-52,36v-21,7,-44,11,-69,11v-52,0,-93,-16,-122,-48v-29,-32,-44,-92,-44,-181","w":2349},"\u2039":{"d":"80,-530r328,-471r108,88r-199,297r-98,84r98,73r211,291r-108,90","w":608},"\u203a":{"d":"528,-549r-327,471r-109,-88r199,-297r98,-84r-98,-74r-211,-290r108,-90","w":608},"\u2044":{"d":"635,-1460r106,71r-997,1414r-106,-74","w":376},"\u20ac":{"d":"1085,-59v-73,61,-207,84,-335,84v-157,0,-284,-44,-382,-131v-98,-87,-161,-223,-188,-408r-160,0r37,-135r111,0v0,0,-2,-99,2,-146r-150,0r37,-135r127,0v28,-178,98,-311,204,-404v90,-79,209,-122,366,-124v126,0,227,15,311,49r-45,145v-94,-46,-275,-67,-398,-26v-153,51,-228,183,-264,360r578,0r-35,135r-557,0v-4,90,-3,102,0,146r516,0r-35,135r-467,0v23,133,70,231,142,295v72,64,167,96,284,96v104,0,196,-28,260,-65"},"\u2122":{"d":"795,-1294r-279,0r0,598r-160,0r0,-598r-278,0r0,-140r717,0r0,140xm1577,-1038r20,-211r-8,0r-80,174r-178,287r-67,0r-183,-285r-73,-176r-9,0r27,209r0,344r-149,0r0,-738r159,0r215,344r58,119r2,0r61,-123r199,-340r162,0r0,738r-156,0r0,-342","w":1812},"\u2202":{"d":"434,25v-260,4,-393,-142,-393,-398v0,-287,119,-503,309,-612v68,-39,148,-59,238,-59v108,0,146,15,203,59r10,0v-13,-183,-126,-279,-277,-321v-47,-13,-94,-19,-141,-19v0,0,-30,-1,-43,2r31,-135v190,1,340,36,440,131v110,105,160,262,160,487v0,273,-50,496,-151,654v-81,124,-202,208,-386,211xm801,-807v-53,-58,-112,-96,-226,-94v-120,2,-200,71,-257,151v-66,93,-109,231,-107,388v2,154,79,242,238,243v68,0,124,-21,169,-63v137,-124,181,-368,183,-625","w":1034},"\u220f":{"d":"1047,-1282r-703,0r0,1692r-170,0r0,-1844r1043,0r0,1844r-170,0r0,-1692","w":1388},"\u2211":{"d":"256,184r-82,74r782,0r0,152r-927,0r0,-152r458,-709r70,-61r-72,-66r-456,-704r0,-152r927,0r0,152r-774,0r88,74r441,684","w":1034},"\u221a":{"d":"342,-913r188,464r48,234r4,0r39,-238r303,-981r153,0r-463,1457r-63,0r-322,-789r-247,0r0,-147r360,0","w":1034},"\u221e":{"d":"475,-1104v200,-2,334,105,412,230v59,-82,125,-140,197,-176v109,-53,243,-77,359,-28v123,52,197,172,197,347v0,190,-84,312,-218,369v-80,35,-194,36,-280,8v-126,-41,-212,-129,-276,-230v-49,79,-109,140,-180,184v-106,66,-237,90,-360,40v-128,-52,-213,-170,-213,-349v0,-188,82,-309,215,-367v44,-18,94,-28,147,-28xm1481,-727v-5,-134,-69,-225,-205,-225v-56,0,-113,16,-171,47v-58,31,-111,80,-159,145v49,108,122,204,230,252v33,15,67,23,104,23v121,-1,206,-109,201,-242xm288,-808v-57,164,40,330,208,323v116,-5,187,-68,248,-131v23,-25,44,-51,63,-80v-37,-77,-83,-139,-139,-186v-56,-47,-121,-70,-195,-70v-99,0,-158,66,-185,144","w":1753},"\u222b":{"d":"760,-1278v-58,-22,-114,-37,-189,-37v-52,0,-87,16,-105,47v-18,31,-28,87,-28,168r0,1219v-1,207,-78,305,-280,307v-94,1,-182,-23,-248,-49r45,-131v56,21,114,37,186,37v52,0,87,-16,105,-49v18,-33,28,-90,28,-171r0,-1214v1,-208,80,-305,283,-307v92,-1,182,22,246,49","w":716},"\u2248":{"d":"63,569v59,45,112,77,160,95v48,17,92,26,131,26v38,0,74,-6,107,-18v33,-11,64,-24,94,-39v30,-14,59,-27,88,-38v29,-11,59,-17,90,-17v26,0,53,5,80,16v27,11,57,30,88,57r70,-125v-52,-35,-99,-60,-141,-75v-41,-14,-79,-21,-113,-21v-37,0,-71,6,-102,18v-31,11,-60,24,-88,39v-28,14,-56,27,-84,39v-28,11,-58,17,-91,17v-31,0,-65,-7,-100,-22v-35,-14,-75,-39,-119,-75xm63,909v59,45,112,77,160,95v48,17,92,26,131,26v38,0,74,-6,107,-18v33,-11,64,-24,94,-39v30,-14,59,-27,88,-38v29,-11,59,-17,90,-17v26,0,53,5,80,16v27,11,57,30,88,57r70,-125v-52,-35,-99,-60,-141,-75v-41,-14,-79,-21,-113,-21v-37,0,-71,6,-102,18v-31,11,-60,24,-88,39v-28,14,-56,27,-84,39v-28,11,-58,17,-91,17v-31,0,-65,-7,-100,-22v-35,-14,-75,-39,-119,-75","w":1034},"\u2260":{"d":"82,-936r467,0r125,-281r147,0r-125,281r254,0r0,148r-317,0r-86,192r403,0r0,147r-467,0r-137,314r-147,0r137,-314r-254,0r0,-147r317,0r86,-192r-403,0r0,-148","w":1034},"\u2264":{"d":"940,-168r-72,129r-753,-430r71,-131xm74,-872r0,-60r774,-473r78,127r-486,297r-186,78r184,65r498,295r-78,123","w":1034},"\u2265":{"d":"936,-479r-750,440r-77,-127r751,-440xm938,-952r0,59r-774,473r-78,-127r485,-297r187,-78r-185,-65r-497,-295r78,-123","w":1034},"\u25ca":{"d":"547,23r-68,0r-409,-723r409,-756r68,0r416,745xm584,-330r209,-360r-224,-397r-57,-181r-4,0r-57,185r-209,360r223,397r59,181r2,0","w":1034},"\ufb01":{"d":"887,-1237v-71,-46,-177,-67,-293,-68v-135,-2,-202,46,-218,160v-5,35,-7,76,-7,121r577,0r0,1024r-164,0r0,-881r-413,0r0,881r-164,0r0,-881r-160,0r0,-143r160,0r0,-57v-1,-256,125,-365,375,-367v143,-2,280,31,362,80","w":1105},"\ufb02":{"d":"983,25v-136,0,-213,-77,-213,-230r0,-1093v-83,-12,-237,-32,-310,2v-84,40,-92,147,-91,272r211,0r0,143r-211,0r0,881r-164,0r0,-881r-160,0r0,-143r160,0r0,-57v3,-259,99,-377,360,-377v126,0,265,12,369,37r0,1169v-1,83,24,133,94,133v52,0,85,-6,129,-22r17,129v-50,24,-122,37,-191,37","w":1193},"\ufb03":{"d":"1500,1024r163,0r0,-1024r-163,0r0,1024xm1465,1335v0,31,11,58,32,81v21,23,47,34,80,34v33,0,61,-11,84,-34v23,-23,35,-50,35,-81v0,-31,-12,-57,-35,-78v-23,-20,-51,-30,-84,-30v-33,0,-60,10,-81,31v-21,20,-31,46,-31,77xm698,1024r160,0r0,57v0,63,5,117,16,164v10,47,27,85,50,114v23,29,53,51,90,66v37,14,82,21,137,21v44,0,83,-3,116,-8v33,-5,68,-16,105,-31r-37,-137v-31,13,-61,22,-89,27v-28,4,-54,6,-79,6v-35,0,-63,-6,-83,-17v-20,-11,-34,-27,-43,-48v-9,-21,-14,-47,-16,-78v-2,-31,-3,-66,-3,-107r0,-29r272,0r0,-143r-272,0r0,-881r-164,0r0,881r-160,0r0,143xm45,1024r160,0r0,57v0,63,5,117,16,164v10,47,27,85,50,114v23,29,53,51,90,66v37,14,82,21,137,21v44,0,83,-3,116,-8v33,-5,68,-16,105,-31r-37,-137v-31,13,-61,22,-89,27v-28,4,-54,6,-79,6v-35,0,-63,-6,-83,-17v-20,-11,-34,-27,-43,-48v-9,-21,-14,-47,-16,-78v-2,-31,-3,-66,-3,-107r0,-29r272,0r0,-143r-272,0r0,-881r-164,0r0,881r-160,0r0,143","w":1855},"\ufb04":{"d":"1647,252v0,-48,8,-82,25,-103v16,-20,39,-30,69,-30v18,0,37,1,58,4v20,3,43,9,69,18r19,-129v-22,-11,-53,-20,-92,-27v-39,-7,-72,-10,-101,-10v-61,0,-112,18,-152,53v-39,35,-59,94,-59,177r0,1229r164,0r0,-1182xm698,1024r160,0r0,57v0,63,5,117,16,164v10,47,27,85,50,114v23,29,53,51,90,66v37,14,82,21,137,21v44,0,83,-3,116,-8v33,-5,68,-16,105,-31r-37,-137v-31,13,-61,22,-89,27v-28,4,-54,6,-79,6v-35,0,-63,-6,-83,-17v-20,-11,-34,-27,-43,-48v-9,-21,-14,-47,-16,-78v-2,-31,-3,-66,-3,-107r0,-29r272,0r0,-143r-272,0r0,-881r-164,0r0,881r-160,0r0,143xm45,1024r160,0r0,57v0,63,5,117,16,164v10,47,27,85,50,114v23,29,53,51,90,66v37,14,82,21,137,21v44,0,83,-3,116,-8v33,-5,68,-16,105,-31r-37,-137v-31,13,-61,22,-89,27v-28,4,-54,6,-79,6v-35,0,-63,-6,-83,-17v-20,-11,-34,-27,-43,-48v-9,-21,-14,-47,-16,-78v-2,-31,-3,-66,-3,-107r0,-29r272,0r0,-143r-272,0r0,-881r-164,0r0,881r-160,0r0,143","w":1904},"\u00a0":{"w":546}}});
