/*!
 * The following copyright notice may not be removed under any circumstances.
 * 
 * Copyright:
 * Copyright © 2009 ParaType Ltd. All rights reserved.
 * 
 * Description:
 * This is a protected webfont and is intended for CSS @font-face use ONLY.
 * Reverse engineering this font is strictly prohibited.
 */
Cufon.registerFont({"w":1161,"face":{"font-family":"","font-weight":700,"font-stretch":"normal","units-per-em":"2048","panose-1":"2 11 7 3 2 2 3 2 2 4","ascent":"1536","descent":"-512","x-height":"29","bbox":"-338 -1782 2439 2644","underline-thickness":"102","underline-position":"-102","unicode-range":"U+0020-FB04"},"glyphs":{" ":{"w":518},"!":{"d":"205,-1434r274,0r0,674r-53,334r-168,0r-53,-334r0,-674xm340,23v-96,0,-164,-63,-164,-158v0,-96,68,-156,164,-156v100,0,168,58,168,156v0,97,-68,158,-168,158","w":602},"\"":{"d":"184,1434r234,0r-74,-443r-160,0r0,443xm487,1434r234,0r-74,-443r-160,0r0,443","w":823},"#":{"d":"592,-420r-182,0r-74,316r-219,0r73,-316r-151,0r45,-198r154,0r51,-218r-148,0r45,-198r150,0r72,-295r217,0r-70,295r182,0r72,-295r217,0r-70,295r148,0r-51,198r-144,0r-51,218r141,0r-49,198r-139,0r-74,316r-219,0xm457,-618r182,0r51,-218r-182,0"},"$":{"d":"1057,-416v2,255,-142,390,-357,430r0,191r-213,0r0,-178v-134,-3,-259,-30,-342,-72r80,-231v63,37,158,63,262,71r0,-420v-175,-81,-344,-173,-346,-428v-1,-241,142,-360,346,-399r0,-186r213,0r0,178v114,7,200,33,283,67r-74,228v-56,-25,-130,-49,-209,-58r0,383v132,61,264,132,325,266v20,45,32,97,32,158xm612,-205v109,-11,177,-68,179,-180v0,-44,-18,-80,-53,-108v-35,-28,-77,-53,-126,-76r0,364xm575,-1229v-114,2,-167,54,-167,154v0,41,16,75,48,102v32,27,72,53,119,76r0,-332"},"%":{"d":"1386,-1462r150,135r-1180,1356r-149,-142xm105,1110v0,61,9,114,27,158v17,43,42,79,73,108v31,29,69,50,114,63v44,13,92,19,144,19v52,0,100,-6,144,-19v43,-12,81,-32,113,-59v32,-27,57,-63,75,-108v17,-44,27,-98,28,-162v-1,-64,-11,-118,-29,-163v-17,-44,-42,-80,-74,-107v-32,-27,-70,-47,-114,-60v-43,-12,-91,-18,-143,-18v-52,0,-100,6,-145,19v-44,12,-82,32,-113,59v-31,27,-56,63,-74,108v-17,44,-26,98,-26,162xm342,1110v0,-117,40,-176,121,-176v42,0,72,13,91,38v19,25,29,71,30,138v-1,65,-11,111,-30,137v-18,26,-48,39,-91,39v-42,0,-73,-13,-92,-39v-19,-26,-29,-72,-29,-137xm936,1870v0,61,9,114,27,158v17,43,42,79,73,108v31,29,69,50,114,63v44,13,92,19,144,19v52,0,100,-6,144,-19v43,-12,81,-32,113,-59v32,-27,57,-63,75,-108v17,-44,27,-98,28,-162v-1,-64,-11,-118,-29,-163v-17,-44,-42,-80,-74,-107v-32,-27,-70,-47,-114,-60v-43,-12,-91,-18,-143,-18v-52,0,-100,6,-145,19v-44,12,-82,32,-113,59v-31,27,-56,63,-74,108v-17,44,-26,98,-26,162xm1173,1870v0,-117,40,-176,121,-176v42,0,72,13,91,38v19,25,29,71,30,138v-1,65,-11,111,-30,137v-18,26,-48,39,-91,39v-42,0,-73,-13,-92,-39v-19,-26,-29,-72,-29,-137","w":1720},"&":{"d":"1155,-143v-106,92,-249,176,-457,172v-228,-4,-391,-93,-470,-247v-48,-91,-53,-224,-14,-328v58,-155,181,-262,318,-341v-72,-96,-155,-233,-96,-387v46,-121,161,-188,334,-188v165,0,283,53,328,166v40,101,16,180,-42,271v-39,61,-107,119,-202,175v97,148,183,262,303,385v65,-69,115,-185,152,-285r192,103v-43,118,-113,232,-182,323v78,70,130,107,215,156r-141,197v-87,-42,-168,-104,-238,-172xm455,-420v-1,146,125,223,278,223v105,0,214,-55,262,-108v-125,-130,-243,-276,-340,-420v-65,51,-115,100,-149,147v-34,47,-51,99,-51,158xm791,-1264v-70,0,-108,40,-109,105v0,57,25,119,74,184v53,-34,92,-66,116,-96v24,-30,35,-59,35,-86v-1,-70,-40,-107,-116,-107","w":1667},"'":{"d":"184,-1434r234,0r-74,443r-160,0r0,-443","w":520},"(":{"d":"389,-498v0,349,99,631,258,834r-182,115v-209,-222,-342,-535,-342,-949v0,-418,141,-731,348,-960r172,110v-159,213,-254,491,-254,850","w":669},")":{"d":"25,338v161,-214,254,-484,254,-848v0,-345,-103,-626,-256,-831r180,-117v169,176,279,416,323,707v58,382,-26,727,-166,976v-44,81,-99,156,-163,226","w":667},"*":{"d":"295,-1497r57,94r31,121r31,-113r57,-100r131,72r-61,106r-99,88r133,-33r117,0r0,150r-112,0r-125,-33r102,96r51,86r-131,76r-55,-94r-41,-131r-27,119r-59,100r-131,-76r59,-100r92,-76r-112,33r-121,0r0,-152r123,0r121,35r-105,-90r-57,-102","w":774},"+":{"d":"88,-807r332,0r0,-346r239,0r0,346r334,0r0,229r-334,0r0,351r-239,0r0,-351r-332,0r0,-229","w":1079},",":{"d":"246,-283v117,0,186,90,184,209v-2,212,-118,324,-276,377r-78,-110v65,-25,136,-101,141,-183v-31,4,-61,-5,-89,-28v-28,-23,-42,-61,-42,-113v0,-91,71,-152,160,-152","w":466},"-":{"d":"111,-707r514,0r0,236r-514,0r0,-236","w":737},".":{"d":"250,23v-96,0,-164,-63,-164,-158v0,-96,68,-156,164,-156v100,0,168,58,168,156v0,97,-68,158,-168,158","w":503},"\/":{"d":"682,-1458r201,90r-731,1655r-201,-94","w":835},"0":{"d":"82,-719v0,-251,43,-438,129,-560v86,-122,210,-183,371,-183v172,0,298,60,378,181v80,121,121,308,121,562v0,253,-43,440,-130,563v-87,123,-210,185,-371,185v-171,0,-296,-65,-377,-194v-81,-129,-121,-314,-121,-554xm348,-719v0,167,18,295,54,386v36,91,97,136,180,136v81,0,140,-42,177,-125v37,-83,56,-215,56,-397v0,-165,-18,-293,-53,-383v-35,-90,-96,-135,-182,-135v-82,0,-142,42,-178,127v-36,85,-54,215,-54,391"},"1":{"d":"207,-225r285,0r0,-809r30,-140r-98,121r-182,125r-113,-153r467,-377r149,0r0,1233r279,0r0,225r-817,0r0,-225"},"2":{"d":"150,-1317v106,-84,230,-147,419,-145v189,2,315,78,373,214v48,113,36,255,-7,376v-80,224,-225,415,-364,581r-108,84r0,10r147,-28r394,0r0,225r-863,0r0,-137r111,-120r124,-145v114,-144,235,-300,303,-485v19,-52,28,-101,28,-147v-2,-119,-71,-195,-201,-193v-97,2,-197,49,-250,99"},"3":{"d":"231,-256v71,35,156,59,263,59v154,0,260,-92,260,-231v0,-171,-106,-226,-289,-227r-148,0r0,-142r248,-338r117,-92r-162,19r-344,0r0,-226r782,0r0,146r-288,387r-90,55r0,10r86,-12v165,16,274,100,326,234v42,108,34,281,-12,379v-78,167,-240,262,-478,264v-115,1,-268,-23,-342,-64"},"4":{"d":"1133,-399r-226,0r0,399r-248,0r0,-399r-620,0r0,-152r649,-893r219,0r0,832r226,0r0,213xm659,-926r19,-172r-8,0r-70,148r-213,276r-102,78r131,-16r243,0r0,-314"},"5":{"d":"211,-250v69,28,138,43,240,43v169,0,278,-85,278,-246v0,-179,-134,-236,-323,-237r-162,6r0,-750r704,0r0,250r-475,0r0,277r84,-8v210,10,347,107,407,269v44,117,39,290,-10,398v-80,176,-249,274,-499,277v-117,1,-238,-21,-316,-58"},"6":{"d":"375,-762v57,-68,141,-126,270,-123v205,3,332,99,389,253v40,109,41,266,-3,374v-47,115,-130,201,-244,250v-113,49,-271,48,-387,3v-188,-74,-293,-246,-294,-509v-1,-279,89,-495,216,-652v119,-149,295,-259,512,-296r59,211v-214,38,-361,163,-454,322v-31,54,-52,110,-64,167xm590,-197v128,0,217,-103,217,-233v0,-153,-75,-229,-225,-229v-103,0,-186,55,-217,122v-17,110,5,190,51,255v34,49,91,85,174,85"},"7":{"d":"213,0r469,-1104r90,-100r-123,20r-526,0r0,-250r924,0r0,78r-574,1356r-260,0"},"8":{"d":"1004,-1116v0,187,-92,273,-213,358v82,48,142,102,185,158v69,91,82,271,28,388v-69,149,-217,241,-431,241v-206,0,-350,-81,-417,-223v-21,-46,-31,-99,-31,-156v1,-208,118,-302,250,-381v-118,-79,-215,-169,-215,-352v0,-188,107,-299,252,-351v98,-37,246,-38,348,-4v140,47,244,144,244,322xm580,-197v120,0,208,-59,204,-180v-4,-114,-83,-171,-160,-215r-89,-51v-64,37,-108,76,-132,119v-24,43,-36,86,-36,129v0,115,88,198,213,198xm588,-1237v-141,-7,-212,125,-156,244v38,80,125,119,205,159v82,-69,123,-146,123,-229v0,-108,-73,-169,-172,-174"},"9":{"d":"776,-639v-67,70,-124,94,-256,94v-197,0,-324,-102,-390,-245v-49,-105,-49,-274,-6,-388v65,-173,206,-284,439,-284v320,0,496,205,496,540v0,308,-85,538,-223,700v-119,140,-293,228,-514,251r-58,-209v220,-28,370,-134,456,-294v27,-51,45,-106,56,-165xm561,-1243v-139,0,-211,100,-211,244v0,148,93,233,230,235v105,1,176,-37,219,-92v22,-161,-22,-305,-128,-362v-31,-17,-67,-25,-110,-25"},":":{"d":"190,-606v0,48,15,86,45,114v30,28,70,42,119,42v52,0,93,-14,123,-42v30,-28,45,-66,45,-114v0,-48,-15,-86,-45,-115v-30,-29,-71,-43,-123,-43v-49,0,-89,14,-119,43v-30,29,-45,67,-45,115xm190,135v0,48,15,86,45,114v30,28,70,42,119,42v52,0,93,-14,123,-42v30,-28,45,-66,45,-114v0,-48,-15,-86,-45,-115v-30,-29,-71,-43,-123,-43v-49,0,-89,14,-119,43v-30,29,-45,67,-45,115","w":550},";":{"d":"168,131v0,47,15,84,46,111v31,27,69,41,114,41v57,0,102,-19,135,-58v33,-38,49,-88,49,-151v0,-61,-10,-114,-29,-159v-19,-45,-42,-82,-70,-111v-28,-29,-58,-53,-90,-70v-32,-17,-61,-29,-87,-37r-78,110v37,15,69,40,96,74v27,34,42,70,45,109v-31,-4,-61,6,-89,29v-28,23,-42,60,-42,112xm168,-606v0,48,15,86,45,114v30,28,70,42,119,42v52,0,93,-14,123,-42v30,-28,45,-66,45,-114v0,-48,-15,-86,-45,-115v-30,-29,-71,-43,-123,-43v-49,0,-89,14,-119,43v-30,29,-45,67,-45,115","w":593},"<":{"d":"82,-584r0,-143r790,-473r117,184r-459,285r-186,72r184,63r471,281r-116,184","w":1079},"=":{"d":"88,-612r905,0r0,229r-905,0r0,-229xm88,-1004r905,0r0,229r-905,0r0,-229","w":1079},">":{"d":"997,-748r0,144r-790,473r-117,-186r459,-283r186,-74r-184,-61r-471,-283r117,-182","w":1079},"?":{"d":"471,-1462v238,0,409,120,410,344v1,191,-82,291,-187,374v-64,50,-122,101,-160,176v-19,37,-28,85,-28,142r-227,0v-19,-196,49,-315,148,-404r86,-77v46,-46,93,-88,93,-172v0,-109,-58,-160,-182,-158v-115,3,-202,48,-274,94r-103,-196v110,-71,237,-123,424,-123xm401,23v-96,0,-163,-63,-163,-158v0,-95,68,-156,163,-156v100,0,168,58,168,156v0,97,-68,158,-168,158","w":929},"@":{"d":"1116,-1004v99,-1,156,33,211,78r64,-65r143,0r-98,555v-11,64,-11,110,-1,139v22,64,118,47,173,19v121,-63,184,-201,184,-390v1,-209,-78,-345,-192,-441v-164,-138,-528,-181,-767,-79v-182,78,-319,213,-397,396v-72,170,-75,414,-9,587v99,257,327,402,681,402v92,0,206,-24,272,-58r64,197v-187,101,-522,92,-738,16v-336,-119,-554,-384,-556,-835v-2,-315,126,-553,294,-711v161,-153,396,-264,691,-264v406,0,685,175,817,458v76,162,93,401,21,578v-61,151,-171,266,-315,332v-72,33,-149,49,-231,49v-149,2,-236,-67,-221,-225r-8,0v-82,109,-168,225,-352,225v-122,0,-191,-79,-224,-176v-40,-117,-17,-255,21,-370v52,-155,148,-284,275,-361v62,-38,129,-56,198,-56xm872,-542v-35,116,-39,298,103,288v88,-6,137,-73,184,-129v20,-24,36,-51,51,-78r52,-282v-36,-29,-65,-48,-127,-48v-95,0,-161,63,-204,125v-25,37,-45,78,-59,124","w":2168},"A":{"d":"829,-317r-440,0r-108,317r-281,0r516,-1444r207,0r516,1444r-295,0xm461,-543r307,0r-106,-319r-44,-225r-10,0r-43,227","w":1239},"B":{"d":"123,-1423v245,-35,606,-62,799,39v95,51,166,139,165,284v-3,189,-99,294,-256,332r0,12v183,32,300,139,302,353v1,157,-76,259,-173,323v-96,64,-234,99,-387,100r-89,0v-123,-1,-258,-7,-361,-30r0,-1413xm527,-212v136,9,242,-29,293,-114v31,-52,26,-153,-5,-198v-50,-72,-151,-94,-272,-94r-150,0r0,395v35,10,134,11,134,11xm561,-1223v-58,0,-124,1,-168,9r0,383v0,0,182,3,219,-9v91,-29,192,-86,191,-202v-1,-137,-105,-181,-242,-181","w":1210},"C":{"d":"770,-223v116,1,197,-25,266,-66r58,230v-82,62,-233,88,-375,88v-316,0,-499,-157,-589,-401v-67,-181,-67,-525,6,-698v73,-172,191,-294,360,-354v175,-63,431,-41,577,17r-55,238v-72,-34,-155,-43,-268,-43v-113,0,-205,40,-274,120v-69,80,-103,206,-103,375v1,224,72,385,224,458v50,24,108,36,173,36","w":1144},"D":{"d":"541,-1454v476,0,706,256,706,725v0,215,-54,396,-159,521v-132,157,-353,251,-661,228v0,0,-213,-8,-304,-18r0,-1436v124,-17,279,-20,418,-20xm563,-1204v-48,0,-122,2,-160,8r0,960v140,16,248,15,341,-33v148,-75,208,-243,208,-460v0,-125,-21,-242,-76,-321v-62,-89,-158,-156,-313,-154","w":1325},"E":{"d":"123,-1434r850,0r0,250r-570,0r0,334r519,0r0,250r-519,0r0,350r580,0r0,250r-860,0r0,-1434","w":1069},"F":{"d":"123,-1434r850,0r0,250r-570,0r0,355r525,0r0,249r-525,0r0,580r-280,0r0,-1434","w":1040},"G":{"d":"601,-250v102,46,261,34,337,-24r0,-271r-309,-33r0,-170r534,0r0,639v-147,131,-469,182,-697,95v-257,-98,-386,-341,-388,-703v-2,-262,83,-451,212,-576v108,-105,263,-165,455,-169v139,-3,272,25,365,57r-57,236v-107,-44,-311,-65,-439,-17v-168,64,-242,231,-241,471v0,232,71,394,228,465","w":1247},"H":{"d":"928,-600r-525,0r0,600r-280,0r0,-1434r280,0r0,584r525,0r0,-584r280,0r0,1434r-280,0r0,-600","w":1333},"I":{"d":"152,-1434r280,0r0,1434r-280,0r0,-1434","w":583},"J":{"d":"268,-1434r281,0r0,1049v0,182,-65,311,-187,376v-109,58,-308,31,-409,-14r61,-229v35,18,76,27,121,27v57,0,93,-21,109,-63v16,-42,24,-99,24,-169r0,-977","w":684},"K":{"d":"477,-612r-74,0r0,612r-280,0r0,-1434r280,0r0,635r66,-28r395,-607r320,0r-418,603r-111,77r115,80r477,674r-346,0","w":1269},"L":{"d":"1030,0r-907,0r0,-1434r280,0r0,1184r627,0r0,250","w":1052},"M":{"d":"1235,-743r31,-285r-13,0r-88,229r-305,535r-90,0r-321,-537r-91,-227r-10,0r41,283r0,745r-266,0r0,-1434r256,0r383,656r67,164r9,0r61,-168r363,-652r254,0r0,1434r-281,0r0,-743","w":1638},"N":{"d":"479,-748r-112,-225r-11,0r33,225r0,748r-266,0r0,-1444r205,0r542,764r109,219r10,0r-33,-219r0,-754r267,0r0,1444r-205,0","w":1345},"O":{"d":"78,-717v0,-239,53,-422,158,-551v105,-129,255,-194,450,-194v328,0,500,179,572,440v25,91,36,193,36,305v0,239,-52,423,-158,552v-106,129,-256,194,-450,194v-330,0,-498,-179,-571,-441v-25,-92,-37,-193,-37,-305xm373,-717v0,208,44,379,171,459v40,25,87,37,142,37v100,0,178,-39,232,-117v54,-78,81,-204,81,-379v0,-204,-43,-377,-167,-457v-40,-25,-89,-38,-146,-38v-100,0,-178,40,-232,120v-54,80,-81,204,-81,375","w":1372},"P":{"d":"532,-485v-43,0,-93,-3,-129,-9r0,494r-280,0r0,-1419v250,-43,617,-67,803,52v115,74,194,193,194,388v0,182,-70,302,-172,381v-94,73,-226,112,-383,113r-33,0xm825,-983v-2,-168,-117,-227,-284,-229v-46,0,-101,4,-138,10r0,465v234,30,425,-15,422,-246","w":1171},"Q":{"d":"1055,172v119,27,268,28,383,-2r0,244v-198,60,-427,2,-592,-41r-178,-46v-90,-22,-169,-32,-256,-10r0,-241v165,-38,328,17,462,52v59,16,120,30,181,44xm78,-717v0,-239,53,-422,158,-551v105,-129,255,-194,450,-194v328,0,500,179,572,440v25,91,36,193,36,305v0,239,-52,423,-158,552v-106,129,-256,194,-450,194v-330,0,-498,-179,-571,-441v-25,-92,-37,-193,-37,-305xm373,-717v0,208,44,379,171,459v40,25,87,37,142,37v100,0,178,-39,232,-117v54,-78,81,-204,81,-379v0,-204,-43,-377,-167,-457v-40,-25,-89,-38,-146,-38v-100,0,-178,40,-232,120v-54,80,-81,204,-81,375","w":1372},"R":{"d":"1073,-1051v3,236,-123,385,-301,441r100,63r328,547r-323,0r-326,-561r-148,-27r0,588r-280,0r0,-1419v123,-22,266,-35,409,-35v303,0,538,96,541,403xm778,-1008v-2,-130,-87,-198,-225,-196v-48,0,-114,1,-150,10r0,416r119,0v157,-2,258,-67,256,-230","w":1232},"S":{"d":"145,-297v90,44,203,81,338,82v83,0,147,-14,191,-42v44,-28,67,-71,67,-128v0,-44,-16,-80,-48,-107v-117,-98,-310,-137,-436,-232v-93,-71,-171,-164,-169,-329v2,-218,115,-337,287,-385v195,-54,481,-17,614,60r-88,235v-69,-43,-209,-76,-330,-76v-114,0,-202,43,-202,144v0,41,16,75,48,102v117,99,310,142,436,237v91,69,171,162,169,320v-5,314,-210,438,-524,445v-169,4,-342,-40,-443,-86","w":1085},"T":{"d":"1141,-1184r-418,0r0,1184r-281,0r0,-1184r-419,0r0,-250r1118,0r0,250","w":1163},"U":{"d":"657,-225v187,-3,244,-105,244,-303r0,-906r266,0r0,926v-2,343,-167,533,-505,533v-363,0,-545,-166,-545,-498r0,-961r280,0r0,906v-3,195,67,307,260,303","w":1284},"V":{"d":"594,-592r37,244r10,0r41,-246r274,-840r295,0r-532,1444r-201,0r-536,-1444r325,0","w":1232},"W":{"d":"496,-633r26,254r8,0r29,-258r250,-797r184,0r246,801r29,254r8,0r31,-258r174,-797r284,0r-395,1444r-188,0r-256,-796r-35,-220r-10,0r-35,222r-254,794r-199,0r-393,-1444r305,0","w":1765},"X":{"d":"461,-729r-400,-705r338,0r222,414r49,146r47,-146r231,-414r305,0r-413,691r434,743r-334,0r-252,-442r-55,-152r-53,152r-254,442r-306,0","w":1296},"Y":{"d":"467,-532r-471,-902r334,0r262,539r29,152r10,0r31,-156r253,-535r302,0r-469,899r0,535r-281,0r0,-532","w":1212},"Z":{"d":"55,-250r607,-848r106,-86r-713,0r0,-250r994,0r0,250r-611,856r-104,78r715,0r0,250r-994,0r0,-250","w":1103},"[":{"d":"123,-1434r481,0r0,226r-227,0r0,1454r227,0r0,225r-481,0r0,-1905","w":663},"\\":{"d":"897,195r-203,92r-743,-1655r209,-88","w":868},"]":{"d":"541,471r-482,0r0,-225r228,0r0,-1454r-228,0r0,-226r482,0r0,1905","w":663},"^":{"d":"442,-1444r142,0r379,598r-269,0r-145,-250r-43,-143r-51,145r-160,248r-254,0","w":1024},"_":{"d":"0,240r909,0r0,219r-909,0r0,-219","w":909},"`":{"d":"524,-1159r-147,0r-254,-254r0,-62r278,0","w":647},"a":{"d":"489,-825v-104,-1,-245,24,-315,59r-63,-199v109,-49,270,-79,430,-79v249,0,370,112,368,358v-2,228,-41,496,23,688r-217,0r-43,-141r-10,0v-58,84,-153,158,-302,155v-151,-3,-244,-69,-290,-176v-36,-85,-27,-213,19,-282v94,-141,311,-180,554,-168v3,-24,5,-46,5,-67v-1,-112,-40,-146,-159,-148xm322,-324v-1,76,50,121,127,121v100,0,162,-54,196,-112r0,-134v-115,-10,-240,-1,-297,57v-18,18,-26,41,-26,68","w":1015},"b":{"d":"520,25v-147,1,-312,-28,-403,-70r0,-1389r266,0r0,492r8,0v54,-62,147,-107,260,-107v123,0,216,42,281,126v65,84,98,212,98,384v0,348,-179,561,-510,564xm383,-229v42,21,92,28,152,28v73,0,128,-27,165,-79v37,-52,56,-135,56,-250v-1,-195,-62,-293,-183,-293v-110,0,-159,60,-190,147r0,447","w":1097},"c":{"d":"582,-207v89,1,145,-27,198,-59r62,203v-74,57,-200,92,-328,92v-327,-1,-445,-213,-446,-541v-1,-326,143,-540,456,-541v140,-1,219,23,305,66r-63,217v-61,-29,-113,-47,-199,-47v-74,0,-130,25,-168,73v-38,48,-57,125,-57,232v0,135,42,235,132,282v31,16,67,23,108,23","w":886},"d":{"d":"535,-1049v83,0,127,9,186,31r0,-416r266,0r0,1074v1,135,-1,237,21,362r-191,0r-37,-133r-8,0v-52,92,-156,160,-299,160v-129,0,-228,-42,-299,-127v-71,-85,-106,-217,-106,-398v-2,-330,147,-553,467,-553xm721,-778v-41,-32,-80,-45,-154,-45v-75,0,-132,25,-169,75v-37,50,-56,138,-56,261v0,87,15,158,46,211v31,53,80,79,147,79v111,0,161,-57,186,-147r0,-434","w":1103},"e":{"d":"596,-184v100,0,199,-41,252,-78r88,174v-81,65,-240,117,-391,117v-335,0,-474,-211,-477,-541v-3,-342,166,-541,491,-541v264,0,409,140,410,414v0,68,-10,132,-21,195r-614,0v10,172,80,260,262,260xm721,-610v11,-136,-40,-230,-166,-230v-145,0,-201,97,-215,230r381,0","w":1040},"f":{"d":"705,-1198v-56,-19,-93,-25,-158,-27v-114,-4,-117,90,-117,201r225,0r0,225r-225,0r0,799r-266,0r0,-799r-141,0r0,-225r141,0r0,-57v-2,-243,94,-369,319,-369v109,0,200,13,273,39","w":657},"g":{"d":"580,-1049v153,-1,300,24,403,62r0,987v3,296,-169,431,-459,434v-159,1,-269,-22,-360,-63r55,-211v74,27,153,55,264,55v175,0,235,-71,240,-229r0,-66r-8,0v-48,64,-133,96,-254,96v-133,0,-231,-40,-296,-122v-65,-82,-97,-211,-97,-386v0,-353,169,-555,512,-557xm532,-197v113,-1,154,-52,185,-139r0,-461v-42,-18,-95,-26,-158,-26v-68,0,-121,26,-159,77v-38,51,-58,132,-58,244v0,100,16,176,49,228v33,52,80,77,141,77","w":1097},"h":{"d":"391,-909v66,-85,152,-144,303,-144v172,0,264,72,296,216v13,54,20,121,20,200r0,637r-267,0r0,-582v-4,-151,-22,-235,-161,-235v-98,0,-181,79,-199,164r0,653r-266,0r0,-1434r266,0r0,525r8,0","w":1116},"i":{"d":"139,-1024r267,0r0,1024r-267,0r0,-1024xm100,1313v0,39,15,73,44,101v29,28,70,42,122,42v52,0,94,-14,126,-42v32,-28,48,-62,48,-101v0,-39,-16,-72,-48,-99v-32,-27,-74,-40,-126,-40v-52,0,-93,13,-122,40v-29,27,-44,60,-44,99","w":550},"j":{"d":"-6,190v132,0,147,-92,147,-223r0,-991r267,0r0,1067v-1,235,-82,382,-310,383v-41,0,-84,-5,-131,-14r0,-224v10,0,18,2,27,2xm105,1313v0,39,15,73,44,101v29,28,70,42,122,42v52,0,94,-14,126,-42v32,-28,48,-62,48,-101v0,-39,-16,-72,-48,-99v-32,-27,-74,-40,-126,-40v-52,0,-93,13,-122,40v-29,27,-44,60,-44,99","w":548},"k":{"d":"455,-424r-72,0r0,424r-266,0r0,-1434r266,0r0,846r61,-28r234,-408r293,0r-246,389r-104,78r112,80r277,477r-305,0","w":1005},"l":{"d":"365,29v-159,-3,-241,-69,-240,-234r0,-1229r266,0r0,1090v2,80,10,137,78,137v46,0,67,-6,106,-22r29,209v-50,23,-159,51,-239,49","w":602},"m":{"d":"1141,-817v-104,0,-150,63,-176,145r0,672r-267,0r0,-557v0,-94,-8,-161,-26,-201v-18,-40,-55,-59,-111,-59v-99,-1,-148,63,-178,135r0,682r-266,0r0,-1024r207,0r30,135r8,0v65,-85,154,-168,308,-164v146,3,215,59,258,174v59,-98,148,-174,299,-174v116,0,196,23,245,91v59,82,74,196,74,348r0,614r-266,0r0,-575v0,-81,-9,-141,-26,-181v-17,-40,-54,-61,-113,-61","w":1648},"n":{"d":"367,-889v66,-88,164,-166,325,-164v171,2,264,73,298,216v14,54,20,121,20,200r0,637r-267,0r0,-582v0,-83,-11,-143,-35,-180v-24,-37,-65,-55,-122,-55v-106,-1,-175,73,-203,153r0,664r-266,0r0,-1024r211,0r30,135r9,0","w":1116},"o":{"d":"1032,-512v5,329,-164,541,-481,541v-332,0,-478,-208,-483,-541v-4,-329,166,-541,483,-541v332,0,476,209,481,541xm342,-512v0,132,32,241,114,292v27,16,58,23,95,23v69,0,121,-25,155,-75v34,-50,52,-131,52,-240v0,-94,-16,-170,-47,-228v-31,-58,-85,-87,-160,-87v-65,0,-116,24,-153,73v-37,49,-56,130,-56,242","w":1099},"p":{"d":"769,-10v-104,48,-290,55,-386,0r0,420r-266,0r0,-1434r194,0r31,123r8,0v66,-96,150,-152,303,-152v129,0,225,41,289,122v64,81,96,212,96,392v-1,262,-90,446,-269,529xm383,-246v42,31,77,49,152,49v77,0,134,-27,172,-81v38,-54,57,-142,57,-267v0,-90,-16,-160,-46,-209v-30,-49,-78,-73,-145,-73v-117,0,-158,61,-190,155r0,426","w":1105},"q":{"d":"602,-1049v143,1,274,26,381,62r0,1397r-266,0r0,-498r-8,0v-49,71,-124,117,-248,117v-127,0,-223,-43,-291,-129v-68,-86,-102,-217,-102,-392v0,-357,184,-557,534,-557xm717,-797v-42,-22,-94,-25,-158,-26v-73,0,-127,27,-163,82v-36,55,-54,134,-54,239v0,100,16,176,49,228v33,52,80,77,141,77v113,-1,154,-52,185,-139r0,-461","w":1097},"r":{"d":"362,-889v41,-90,113,-156,234,-158v35,0,76,8,121,23r-35,250v-42,-15,-80,-23,-115,-23v-97,-2,-164,59,-184,135r0,662r-266,0r0,-1024r207,0r30,135r8,0","w":718},"s":{"d":"410,-184v74,-2,133,-25,131,-99v-2,-67,-67,-87,-121,-111v-72,-32,-165,-52,-226,-100v-67,-53,-121,-124,-120,-247v1,-210,133,-312,350,-312v138,0,277,34,358,80r-59,193v-63,-23,-173,-60,-264,-60v-79,0,-119,31,-119,92v0,25,12,45,35,60v52,35,198,84,198,84v124,51,234,123,234,299v0,225,-154,334,-397,334v-137,0,-277,-44,-359,-92r74,-199v63,35,183,80,285,78","w":864},"t":{"d":"426,29v-201,-3,-273,-101,-274,-312r0,-516r-142,0r0,-225r142,0r0,-193r266,-75r0,268r250,0r0,225r-250,0r0,393v0,71,8,121,22,152v14,31,41,47,80,47v62,0,91,-12,137,-33r48,205v-69,34,-176,65,-279,64","w":714},"u":{"d":"762,-152v-60,98,-173,181,-330,181v-174,0,-268,-72,-304,-215v-14,-54,-22,-120,-22,-201r0,-637r267,0r0,582v0,83,9,143,29,180v20,37,59,55,116,55v108,1,170,-76,201,-155r0,-662r266,0r0,713v0,110,10,224,33,311r-201,0r-47,-152r-8,0","w":1101},"v":{"d":"471,-487r35,157r10,0r29,-162r174,-532r287,0r-428,1034r-162,0r-445,-1034r310,0","w":976},"w":{"d":"858,-1024r186,524r37,170r9,0r28,-172r131,-522r244,0r-315,1034r-197,0r-207,-573r-26,-129r-11,0r-24,131r-197,571r-203,0r-329,-1034r288,0r150,514r24,182r11,0r35,-184r170,-512r196,0","w":1476},"x":{"d":"348,-524r-307,-500r317,0r134,219r57,143r61,-143r140,-219r288,0r-309,492r330,532r-309,0r-158,-246r-62,-151r-65,151r-158,246r-291,0","w":1075},"y":{"d":"489,-449r37,160r13,0r26,-162r156,-573r274,0r-311,924v-48,137,-87,268,-154,374v-50,79,-104,146,-219,146v-71,0,-127,-12,-170,-35r49,-213v61,22,107,14,153,-28v29,-27,52,-75,67,-144r-428,-1024r319,0","w":978},"z":{"d":"63,-225r404,-486r104,-88r-508,0r0,-225r803,0r0,225r-399,494r-102,80r501,0r0,225r-803,0r0,-225","w":937},"{":{"d":"471,471v-147,0,-219,-97,-219,-248r0,-420v1,-129,-48,-178,-164,-182r0,-205v109,-1,164,-59,164,-174r0,-428v1,-147,66,-250,219,-250r246,0r0,226r-103,0v-79,1,-106,40,-106,123r0,399v4,110,-60,175,-143,192r0,21v79,13,143,98,143,201r0,397v1,85,25,123,108,123r101,0r0,225r-246,0","w":759},"|":{"d":"123,-1434r219,0r0,1700r-219,0r0,-1700","w":464},"}":{"d":"315,-1436v150,0,221,95,220,248r0,420v-1,128,48,178,163,182r0,205v-109,1,-163,59,-163,174r0,428v-1,147,-72,250,-224,250r-239,0r0,-225r102,0v79,-2,107,-38,107,-123r0,-399v-4,-110,60,-176,143,-193r0,-20v-79,-13,-143,-98,-143,-201r0,-397v-1,-82,-28,-122,-109,-123r-100,0r0,-226r243,0","w":759},"~":{"d":"377,-670v-102,0,-158,41,-230,101r-90,-205v64,-52,122,-88,173,-108v87,-34,167,-40,254,-12v68,21,191,74,191,74v93,34,191,14,251,-42r96,211v-79,58,-143,100,-250,100v-124,0,-200,-67,-295,-101v-32,-11,-65,-18,-100,-18","w":1079},"\u00a1":{"d":"391,410r-274,0r0,-674r53,-332r168,0r53,332r0,674xm254,-733v-96,0,-164,-63,-164,-158v0,-96,68,-156,164,-156v100,0,168,58,168,156v0,97,-68,158,-168,158","w":600},"\u00a2":{"d":"788,-213v59,-7,111,-29,152,-51r61,201v-48,37,-124,62,-198,75r0,193r-248,0r0,-182v-269,-37,-383,-229,-383,-535v0,-298,131,-492,383,-532r0,-185r248,0r0,185v72,10,131,26,184,53r-61,217v-40,-18,-87,-29,-138,-35r0,596xm604,-807v-123,35,-171,130,-170,295v1,145,52,258,170,291r0,-586"},"\u00a3":{"d":"459,-1028v0,101,46,154,82,221r288,0r0,219r-200,0v20,118,-7,258,-78,309r-88,64r0,10r137,-31r471,0r0,236r-967,0r0,-236r5,0v124,-5,203,-62,239,-155v23,-59,20,-135,4,-197r-248,0r0,-219r140,0v-37,-70,-68,-147,-66,-258v6,-274,182,-392,457,-397v157,-3,300,34,403,82r-86,237v-67,-35,-168,-69,-284,-69v-126,0,-209,59,-209,184"},"\u00a5":{"d":"172,-690r186,0r-387,-744r334,0r262,539r29,152r10,0r31,-156r254,-535r301,0r-389,744r184,0r0,164r-264,0r0,116r264,0r0,164r-264,0r0,246r-281,0r0,-246r-270,0r0,-164r270,0r0,-116r-270,0r0,-164"},"\u00a7":{"d":"227,-264v70,32,162,67,273,67v51,0,88,-6,110,-19v22,-13,33,-34,33,-63v0,-26,-13,-48,-40,-60v-169,-76,-250,-64,-363,-133v-79,-48,-142,-121,-140,-251v2,-100,56,-178,115,-231r84,-29v-68,-45,-123,-102,-123,-217v0,-77,30,-139,89,-188v59,-49,149,-74,270,-74v139,0,297,28,385,67r-66,215v-59,-30,-184,-58,-274,-57v-51,0,-86,8,-107,23v-43,30,-42,91,9,114v27,12,61,26,101,37r131,37v98,29,180,77,231,156v45,71,56,198,11,282v-21,39,-48,76,-84,107r-92,28v70,45,129,105,129,220v0,86,-33,151,-100,195v-67,44,-155,67,-266,67v-163,0,-288,-39,-385,-88xm612,-553v50,-28,107,-82,107,-154v0,-92,-75,-117,-148,-141r-106,-35v-48,30,-98,82,-98,156v0,48,21,84,65,107v44,23,104,45,180,67","w":1085},"\u00a8":{"d":"268,-1194v-84,0,-145,-57,-145,-139v0,-86,59,-144,145,-144v87,0,142,57,142,144v0,82,-57,139,-142,139xm713,-1194v-85,0,-142,-57,-142,-139v0,-87,55,-144,142,-144v87,0,145,57,145,144v0,81,-62,139,-145,139","w":980},"\u00a9":{"d":"164,-288v-67,-177,-68,-440,6,-612v76,-178,210,-310,391,-381v175,-68,406,-69,581,0v180,71,317,203,392,381v74,175,74,437,0,612v-75,178,-212,310,-392,381v-176,70,-423,67,-597,0v-181,-69,-312,-200,-381,-381xm353,-824v-52,132,-52,328,0,460v53,134,152,229,284,281v127,51,303,51,431,0v196,-77,325,-242,325,-511v0,-268,-129,-434,-325,-511v-128,-51,-304,-51,-431,0v-132,52,-231,147,-284,281xm918,-418v57,0,92,-10,131,-31r59,181v-60,39,-160,63,-260,63v-227,0,-340,-159,-340,-389v0,-231,123,-388,340,-389v107,0,175,27,246,65r-66,179v-42,-20,-73,-31,-125,-31v-95,0,-129,63,-129,176v0,117,48,176,144,176","w":1705},"\u00aa":{"d":"426,-1298v-97,-2,-193,24,-256,49r-45,-131v84,-44,230,-71,369,-70v193,1,264,55,270,229v4,152,-24,316,10,443r-207,0r-26,-94r-9,0v-44,52,-105,102,-213,102v-131,0,-234,-78,-233,-203v1,-100,60,-150,132,-184v80,-37,194,-46,312,-41v3,-82,-15,-99,-104,-100xm322,-999v-1,44,32,69,75,69v78,0,107,-31,133,-71r0,-72v-59,-7,-108,-5,-148,4v-40,9,-60,33,-60,70","w":860},"\u00ab":{"d":"457,-535r315,-442r146,115r-166,250r-95,80r95,71r178,248r-146,115xm59,-530r328,-471r162,127r-178,258r-99,84r99,73r190,254r-162,127","w":999},"\u00ac":{"d":"92,-844r905,0r0,463r-245,0r0,-233r-660,0r0,-230","w":1079},"\u00ae":{"d":"172,-677v-58,-138,-59,-353,1,-491v61,-139,168,-241,311,-294v138,-52,312,-52,449,0v209,80,351,253,351,538v0,287,-145,460,-356,540v-138,52,-310,50,-448,0v-143,-52,-249,-153,-308,-293xm347,-1088v-38,96,-36,245,4,337v59,134,173,223,356,223v186,0,300,-83,355,-220v38,-94,39,-254,-1,-348v-57,-134,-172,-221,-354,-221v-189,0,-306,91,-360,229xm909,-1051v0,88,-66,135,-145,140r57,28r133,224r-125,0r-129,-213r-98,-31r0,244r-106,0r0,-531v45,-14,142,-20,204,-20v112,2,209,41,209,159xm672,-965v71,-1,124,-14,125,-82v0,-47,-40,-71,-119,-71v-27,1,-58,-1,-76,8r0,145r70,0","w":1413},"\u00af":{"d":"123,-1348r661,0r0,189r-661,0r0,-189","w":907},"\u00b0":{"d":"150,-980v-35,-79,-36,-200,0,-280v51,-116,149,-202,309,-202v161,0,265,79,315,196v35,80,36,206,0,286v-51,115,-156,194,-315,194v-159,0,-259,-80,-309,-194xm461,-1268v-76,0,-133,65,-133,146v0,82,57,141,133,141v75,0,137,-60,137,-141v0,-82,-61,-146,-137,-146","w":894},"\u00b1":{"d":"88,-1059r332,0r0,-338r239,0r0,338r334,0r0,228r-334,0r0,219r-239,0r0,-219r-332,0r0,-228xm88,-518r905,0r0,229r-905,0r0,-229","w":1079},"\u00b4":{"d":"231,-1475r271,0r0,62r-228,254r-151,0","w":624},"\u00b5":{"d":"543,25v-111,0,-151,-45,-203,-103r-10,0r43,215r0,273r-267,0r0,-1434r267,0r0,559v3,160,35,263,188,264v133,1,202,-73,234,-178r0,-645r266,0r0,690v1,120,3,235,31,334r-197,0r-66,-152r-8,0v-48,93,-134,177,-278,177","w":1165},"\u03bc":{"d":"543,25v-111,0,-151,-45,-203,-103r-10,0r43,215r0,273r-267,0r0,-1434r267,0r0,559v3,160,35,263,188,264v133,1,202,-73,234,-178r0,-645r266,0r0,690v1,120,3,235,31,334r-197,0r-66,-152r-8,0v-48,93,-134,177,-278,177","w":1165},"\u00b6":{"d":"741,-1434r220,0r0,1700r-220,0r0,-1700xm365,-602v-105,-2,-175,-60,-225,-126v-76,-100,-115,-297,-60,-448v36,-99,102,-180,194,-224v46,-23,99,-34,156,-34r152,0r0,1700r-217,0r0,-868","w":1083},"\u00b7":{"d":"92,-377v0,48,15,86,45,114v30,28,70,42,119,42v52,0,93,-14,123,-42v30,-28,45,-66,45,-114v0,-48,-15,-86,-45,-115v-30,-29,-71,-43,-123,-43v-49,0,-89,14,-119,43v-30,29,-45,67,-45,115","w":518},"\u00b8":{"d":"377,88v102,11,180,46,180,154v0,89,-65,135,-135,162v-83,31,-196,35,-299,14r16,-117v61,9,106,11,133,4v27,-7,41,-22,41,-45v0,-38,-59,-60,-176,-65r117,-195r172,0","w":679},"\u00ba":{"d":"428,-762v-233,0,-359,-112,-358,-348v1,-232,127,-348,358,-348v233,0,360,114,360,348v0,234,-127,348,-360,348xm428,-1286v-100,0,-121,61,-121,176v0,117,40,176,121,176v102,0,121,-60,121,-176v0,-114,-19,-176,-121,-176","w":858},"\u00bb":{"d":"541,-545r-314,443r-147,-115r168,-250r92,-80r-92,-71r-178,-248r143,-115xm940,-549r-328,471r-161,-127r178,-258r98,-84r-98,-74r-191,-253r162,-127","w":999},"\u00bf":{"d":"459,434v-238,0,-411,-118,-412,-344v-1,-192,83,-288,187,-372v94,-76,189,-147,188,-318r227,0v21,197,-48,314,-147,403r-85,76v-45,46,-95,88,-95,172v0,109,59,163,184,160v114,-3,204,-47,274,-96r101,196v-110,71,-235,123,-422,123xm528,-733v-96,0,-163,-63,-163,-158v0,-95,68,-156,163,-156v100,0,168,58,168,156v0,97,-68,158,-168,158","w":929},"\u00c1":{"d":"633,-1782r326,0r0,62r-328,180r-211,0xm829,317r-440,0r-108,-317r-281,0r516,1444r207,0r516,-1444r-295,0xm461,543r307,0r-106,319r-44,225r-10,0r-43,-227","w":1239},"\u00c9":{"d":"600,-1782r326,0r0,62r-328,180r-211,0xm123,1434r850,0r0,-250r-570,0r0,-334r519,0r0,-250r-519,0r0,-350r580,0r0,-250r-860,0r0,1434","w":1069},"\u00cd":{"d":"313,-1782r326,0r0,62r-328,180r-211,0xm152,1434r280,0r0,-1434r-280,0r0,1434","w":583},"\u00d3":{"d":"754,-1782r326,0r0,62r-328,180r-211,0xm78,717v0,239,53,423,158,552v105,129,255,193,450,193v103,0,192,-18,269,-53v76,-35,139,-86,190,-152v51,-65,88,-144,113,-235v24,-91,36,-193,36,-305v0,-239,-53,-423,-159,-552v-105,-129,-255,-194,-449,-194v-104,0,-194,18,-271,54v-76,35,-139,86,-189,151v-49,65,-86,144,-111,236v-25,91,-37,193,-37,305xm373,717v0,-73,6,-139,19,-200v12,-61,31,-113,56,-157v25,-43,57,-77,97,-102v39,-25,86,-37,141,-37v100,0,177,39,232,117v54,78,81,204,81,379v0,69,-6,134,-17,194v-11,60,-29,113,-54,158v-25,45,-57,81,-97,106v-39,25,-88,37,-145,37v-100,0,-177,-40,-232,-120v-54,-79,-81,-204,-81,-375","w":1372},"\u00da":{"d":"748,-1782r326,0r0,62r-328,180r-211,0xm901,1434r266,0r0,-926v0,-93,-12,-173,-37,-240v-24,-67,-58,-122,-102,-166v-43,-43,-97,-75,-160,-96v-63,-21,-131,-31,-206,-31v-363,0,-545,166,-545,498r0,961r280,0r0,-906v0,-56,5,-103,16,-142v10,-39,26,-70,48,-94v22,-24,49,-41,82,-52v33,-10,71,-15,114,-15v86,0,148,24,187,72v38,48,57,125,57,231r0,906","w":1284},"\u00dd":{"d":"668,-1782r326,0r0,62r-328,180r-211,0xm467,532r-471,902r334,0r262,-539r29,-152r10,0r31,156r253,535r302,0r-469,-899r0,-535r-281,0r0,532","w":1212},"\u00e1":{"d":"111,965v55,25,120,44,195,58v75,14,153,21,235,21v71,0,130,-9,178,-26v48,-17,86,-41,114,-72v27,-31,47,-69,59,-113v11,-43,17,-92,17,-147v0,-60,-2,-120,-6,-181v-4,-61,-6,-120,-7,-179r0,-25v0,-50,2,-99,5,-146v4,-55,14,-108,31,-157r-217,0r-43,141r-10,0v-27,-42,-65,-78,-114,-109v-49,-31,-111,-46,-188,-46v-48,0,-91,7,-129,22v-38,14,-71,34,-98,61v-27,26,-49,57,-64,94v-15,36,-22,77,-22,122v0,63,14,116,42,159v28,43,68,77,121,104v53,27,115,45,188,55v52,7,109,11,170,11v25,0,50,-1,75,-2v3,24,5,46,5,67v0,43,-7,75,-21,98v-21,33,-67,50,-138,50v-53,0,-110,-5,-169,-16v-59,-11,-108,-25,-146,-43xm449,203v53,0,96,12,127,36v31,23,54,49,69,76r0,134v-25,3,-50,4,-74,3v-16,0,-32,-0,-48,-1v-39,-3,-73,-9,-103,-19v-30,-9,-54,-23,-72,-41v-17,-17,-26,-40,-26,-67v0,-38,11,-68,34,-89v23,-21,54,-32,93,-32xm485,1475r271,0r0,-62r-228,-254r-151,0","w":1015},"\u00e9":{"d":"936,88v-41,-33,-96,-60,-167,-83v-70,-23,-145,-34,-224,-34v-165,0,-286,48,-363,145v-76,96,-114,228,-114,396v0,180,43,315,129,406v86,90,207,135,362,135v52,0,103,-7,152,-21v49,-13,92,-36,131,-67v38,-31,69,-74,92,-127v23,-53,35,-120,35,-199v0,-29,-2,-59,-6,-92v-3,-33,-8,-67,-15,-103r-614,0v4,-86,26,-151,67,-195v40,-43,105,-65,195,-65v56,0,106,9,151,26v44,17,78,35,101,52xm555,840v-69,0,-121,-21,-155,-63v-33,-41,-53,-97,-60,-167r381,0v1,12,1,24,1,35v0,57,-12,102,-35,135v-28,40,-72,60,-132,60xm561,1475r271,0r0,-62r-228,-254r-151,0","w":1040},"\u00ed":{"d":"143,-1024r267,0r0,1024r-267,0r0,-1024xm254,1475r271,0r0,-62r-228,-254r-151,0","w":550},"\u00f3":{"d":"68,512v0,173,42,307,127,401v85,93,203,140,356,140v82,0,153,-13,213,-39v60,-26,110,-63,150,-110v39,-47,69,-104,89,-171v19,-67,29,-140,29,-221v0,-173,-42,-307,-126,-401v-84,-93,-202,-140,-355,-140v-82,0,-153,13,-213,39v-60,26,-110,63,-151,110v-40,47,-70,104,-90,171v-19,67,-29,140,-29,221xm342,512v0,-45,4,-87,13,-125v8,-38,20,-71,37,-100v16,-29,37,-51,64,-67v27,-15,58,-23,95,-23v69,0,121,25,156,76v34,50,51,130,51,239v0,94,-16,170,-47,228v-31,58,-85,87,-160,87v-65,0,-117,-25,-154,-74v-37,-49,-55,-129,-55,-241xm563,1475r271,0r0,-62r-228,-254r-151,0","w":1099},"\u00f7":{"d":"88,-807r905,0r0,229r-905,0r0,-229xm541,-932v-96,0,-164,-63,-164,-158v0,-96,68,-155,164,-155v99,0,168,58,168,155v0,97,-69,158,-168,158xm541,-139v-96,0,-164,-63,-164,-158v0,-96,68,-156,164,-156v100,0,168,58,168,156v0,97,-69,158,-168,158","w":1079},"\u00fa":{"d":"373,1024r0,-582v0,-83,10,-143,30,-180v19,-37,58,-55,115,-55v51,0,93,15,126,45v33,30,58,67,75,110r0,662r266,0r0,-713v0,-56,3,-111,8,-165v5,-53,14,-102,25,-146r-201,0r-47,152r-8,0v-31,-52,-75,-95,-131,-130v-56,-34,-122,-51,-199,-51v-52,0,-99,7,-140,21v-41,13,-75,36,-102,67v-27,31,-47,74,-62,127v-15,53,-22,120,-22,201r0,637r267,0xm534,1475r271,0r0,-62r-228,-254r-151,0","w":1101},"\u00fd":{"d":"489,449r37,-160r13,0r26,162r156,573r274,0r-311,-924v-26,-77,-51,-147,-75,-210v-24,-63,-50,-118,-79,-165v-29,-46,-60,-82,-95,-107v-35,-25,-76,-38,-124,-38v-71,0,-127,12,-170,35r49,213v21,-8,41,-12,62,-12v31,0,62,13,91,40v29,27,52,75,67,144r-428,1024r319,0xm520,1475r271,0r0,-62r-228,-254r-151,0","w":978},"\u010c":{"d":"790,-1509r-192,0r-260,-193r0,-80r215,0r108,92r39,62r43,-60r115,-94r205,0r0,82xm1094,59v-44,-31,-100,-54,-168,-68v-67,-13,-136,-20,-207,-20v-86,0,-168,13,-245,40v-77,27,-145,70,-204,129v-59,59,-105,137,-140,232v-35,95,-52,210,-52,345v0,141,20,258,59,353v39,95,89,171,151,229v62,58,131,100,208,125v76,25,152,38,229,38v82,0,151,-5,208,-16v57,-11,103,-24,140,-39r-55,-238v-31,15,-69,26,-112,33v-43,7,-95,10,-156,10v-113,0,-205,-40,-274,-121v-69,-80,-103,-205,-103,-374v0,-74,8,-141,25,-202v16,-61,41,-113,74,-156v33,-43,75,-76,125,-100v50,-24,108,-36,173,-36v61,0,113,6,156,19v42,12,79,28,110,47","w":1144},"\u010d":{"d":"842,63v-41,-30,-90,-53,-149,-69v-58,-15,-118,-23,-179,-23v-82,0,-151,13,-208,39v-57,26,-103,63,-138,110v-35,47,-61,104,-77,171v-15,67,-23,140,-23,221v0,173,39,307,117,401v77,93,190,140,339,140v75,0,136,-6,182,-19v45,-12,86,-28,123,-47r-63,-217v-31,15,-62,27,-93,35v-31,8,-66,12,-106,12v-74,0,-130,-24,-168,-73v-38,-48,-57,-125,-57,-232v0,-44,5,-84,15,-121v9,-37,24,-69,43,-96v19,-27,43,-49,74,-65v31,-15,67,-23,108,-23v45,0,84,6,115,18v31,11,58,25,83,41xm586,1126r-187,0r-235,373r225,0r80,-135r33,-100r37,100r92,135r207,0","w":886},"\u010e":{"d":"671,-1509r-192,0r-260,-193r0,-80r215,0r108,92r39,62r43,-60r115,-94r205,0r0,82xm123,1434v29,4,61,7,97,10v36,3,73,5,112,6v38,1,75,2,112,3v36,1,68,1,97,1v127,0,235,-18,325,-53v90,-35,163,-85,219,-150v56,-64,97,-140,123,-229v26,-89,39,-186,39,-293v0,-97,-12,-190,-37,-281v-24,-90,-65,-170,-123,-240v-57,-69,-133,-125,-226,-168v-93,-42,-209,-63,-347,-63v-22,0,-51,1,-87,3r-113,5r-111,6v-35,2,-62,4,-80,7r0,1436xm563,1204v-30,0,-60,-1,-91,-2v-31,-1,-54,-3,-69,-6r0,-960v5,-1,15,-3,28,-4v13,-1,27,-1,42,-2r43,-2v13,-1,24,-1,31,-1v79,0,145,14,198,42v52,28,93,65,124,112v31,47,52,100,65,161v12,61,18,123,18,187v0,56,-5,112,-16,169v-11,57,-31,108,-61,153v-29,45,-69,81,-120,110v-50,29,-114,43,-192,43","w":1325},"\u010f":{"d":"1036,-1079v44,-92,71,-223,71,-355r234,0v-14,137,-72,259,-131,352v-21,31,-39,53,-55,66xm987,360v0,-57,1,-115,2,-172v1,-57,8,-121,19,-190r-191,0r-37,133r-8,0v-27,-48,-67,-87,-118,-116v-51,-29,-111,-44,-181,-44v-129,0,-228,42,-299,127v-71,85,-106,217,-106,398v0,175,40,311,119,408v79,97,195,145,348,145v42,0,77,-3,104,-8v27,-5,55,-12,82,-23r0,416r266,0r0,-1074xm535,197v52,0,93,13,123,38v29,25,50,61,63,109r0,434v-19,15,-41,27,-64,34v-23,7,-53,11,-90,11v-75,0,-132,-25,-169,-76v-37,-50,-56,-137,-56,-260v0,-87,16,-158,47,-211v31,-53,79,-79,146,-79","w":1308},"\u011a":{"d":"630,-1509r-192,0r-260,-193r0,-80r215,0r108,92r39,62r43,-60r115,-94r205,0r0,82xm123,1434r850,0r0,-250r-570,0r0,-334r519,0r0,-250r-519,0r0,-350r580,0r0,-250r-860,0r0,1434","w":1069},"\u011b":{"d":"936,88v-41,-33,-96,-60,-167,-83v-70,-23,-145,-34,-224,-34v-165,0,-286,48,-363,145v-76,96,-114,228,-114,396v0,180,43,315,129,406v86,90,207,135,362,135v52,0,103,-7,152,-21v49,-13,92,-36,131,-67v38,-31,69,-74,92,-127v23,-53,35,-120,35,-199v0,-29,-2,-59,-6,-92v-3,-33,-8,-67,-15,-103r-614,0v4,-86,26,-151,67,-195v40,-43,105,-65,195,-65v56,0,106,9,151,26v44,17,78,35,101,52xm555,840v-69,0,-121,-21,-155,-63v-33,-41,-53,-97,-60,-167r381,0v1,12,1,24,1,35v0,57,-12,102,-35,135v-28,40,-72,60,-132,60xm623,1126r-187,0r-235,373r225,0r80,-135r33,-100r37,100r92,135r207,0","w":1040},"\u0147":{"d":"772,-1509r-192,0r-260,-193r0,-80r215,0r108,92r39,62r43,-60r115,-94r205,0r0,82xm479,748r-112,225r-11,0r33,-225r0,-748r-266,0r0,1444r205,0r542,-764r109,-219r10,0r-33,219r0,754r267,0r0,-1444r-205,0","w":1345},"\u0148":{"d":"743,0r0,582v0,83,-12,143,-36,180v-23,37,-64,55,-121,55v-51,0,-93,-15,-128,-44v-35,-29,-60,-66,-75,-109r0,-664r-266,0r0,1024r211,0r30,-135r9,0v31,44,73,82,125,115v51,33,118,49,200,49v51,0,96,-7,136,-21v39,-13,73,-36,100,-67v27,-31,48,-74,62,-128v13,-54,20,-121,20,-200r0,-637r-267,0xm651,1126r-187,0r-235,373r225,0r80,-135r33,-100r37,100r92,135r207,0","w":1116},"\u0158":{"d":"620,-1509r-192,0r-260,-193r0,-80r215,0r108,92r39,62r43,-60r115,-94r205,0r0,82xm123,1419v31,5,65,11,102,16v36,5,72,8,108,11v36,3,71,5,105,6v34,1,65,2,94,2v67,0,133,-6,198,-19v65,-12,123,-33,174,-63v51,-30,92,-71,123,-124v31,-53,46,-118,46,-197v0,-117,-27,-213,-82,-287v-55,-74,-128,-125,-219,-154r100,-63r328,-547r-323,0r-326,561r-148,27r0,-588r-280,0r0,1419xm553,1204v-29,0,-57,-1,-85,-2v-28,-1,-50,-4,-65,-8r0,-416r119,0v78,0,140,18,187,54v46,35,69,94,69,176v0,61,-19,109,-57,144v-38,35,-94,52,-168,52","w":1232},"\u0159":{"d":"682,774v-42,15,-80,23,-115,23v-48,0,-88,-13,-120,-38v-32,-25,-53,-58,-64,-97r0,-662r-266,0r0,1024r207,0r30,-135r8,0v23,51,55,90,95,117v39,27,86,41,139,41v35,0,76,-8,121,-23xm490,1126r-187,0r-235,373r225,0r80,-135r33,-100r37,100r92,135r207,0","w":718},"\u0160":{"d":"671,-1509r-192,0r-260,-193r0,-80r215,0r108,92r39,62r43,-60r115,-94r205,0r0,82xm741,385v0,44,-16,80,-48,107v-32,27,-72,51,-121,74v-48,23,-100,46,-157,70v-57,24,-109,53,-158,88v-49,35,-89,78,-121,130v-32,52,-48,118,-48,199v0,69,12,130,35,181v23,51,57,94,100,128v43,34,93,59,152,76v59,16,124,24,196,24v83,0,162,-7,236,-22v74,-14,135,-35,182,-62r-88,-235v-30,19,-75,37,-135,53v-60,15,-125,23,-195,23v-65,0,-115,-13,-150,-39v-35,-26,-52,-61,-52,-105v0,-41,16,-75,48,-102v32,-27,72,-53,121,-76v48,-23,100,-47,157,-72v57,-25,109,-54,158,-89v49,-35,89,-78,121,-129v32,-51,48,-115,48,-191v0,-77,-13,-143,-38,-198v-25,-55,-61,-101,-107,-138v-45,-37,-101,-64,-166,-82v-65,-18,-136,-27,-213,-27v-103,0,-193,10,-271,29v-77,19,-135,38,-172,57r90,240v15,-8,35,-17,59,-27v24,-9,51,-18,81,-27v30,-8,62,-15,95,-20v33,-5,68,-8,103,-8v83,0,147,14,192,42v44,28,66,71,66,128","w":1085},"\u0161":{"d":"541,283v0,27,-12,49,-35,66v-23,16,-52,31,-86,45v-34,13,-72,27,-113,42v-41,14,-78,34,-113,59v-34,25,-63,57,-86,96v-23,39,-34,89,-34,150v0,101,30,179,90,232v60,53,147,80,260,80v78,0,148,-8,211,-25v63,-16,112,-34,147,-55r-59,-193v-31,12,-71,25,-119,39v-48,14,-96,21,-145,21v-79,0,-119,-31,-119,-92v0,-25,12,-45,35,-60v23,-15,52,-29,86,-42r112,-42v41,-15,78,-35,113,-59v34,-23,63,-54,86,-93v23,-38,35,-87,35,-147v0,-104,-33,-186,-100,-245v-66,-59,-165,-89,-297,-89v-73,0,-141,9,-204,28v-63,19,-115,40,-155,64r74,199v31,-18,73,-36,125,-53v52,-17,105,-25,160,-25v39,0,71,8,95,23v24,15,36,41,36,76xm518,1126r-187,0r-235,373r225,0r80,-135r33,-100r37,100r92,135r207,0","w":864},"\u0164":{"d":"669,-1509r-192,0r-260,-193r0,-80r215,0r108,92r39,62r43,-60r115,-94r205,0r0,82xm1141,1184r-418,0r0,-1184r-281,0r0,1184r-419,0r0,250r1118,0r0,-250","w":1163},"\u0165":{"d":"463,-1126v44,-92,71,-223,71,-355r234,0v-14,137,-72,259,-131,352v-21,31,-39,53,-55,66xm10,1024r142,0r0,193r266,75r0,-268r250,0r0,-225r-250,0r0,-393v0,-71,7,-122,22,-153v14,-31,41,-46,80,-46v27,0,51,3,71,8v20,5,42,14,66,25r48,-205v-37,-18,-80,-33,-129,-46v-49,-12,-99,-18,-150,-18v-94,0,-163,24,-208,73v-44,49,-66,128,-66,239r0,516r-142,0r0,225","w":737},"\u016e":{"d":"393,-1581v0,-144,109,-184,262,-184v95,0,163,17,203,49v55,43,78,129,46,204v-34,81,-128,108,-249,109v-97,0,-164,-17,-203,-50v-39,-33,-59,-76,-59,-128xm747,-1581v0,-53,-33,-68,-92,-68v-60,0,-90,23,-90,68v0,42,30,63,90,63v59,0,92,-13,92,-63xm901,1434r266,0r0,-926v0,-93,-12,-173,-37,-240v-24,-67,-58,-122,-102,-166v-43,-43,-97,-75,-160,-96v-63,-21,-131,-31,-206,-31v-363,0,-545,166,-545,498r0,961r280,0r0,-906v0,-56,5,-103,16,-142v10,-39,26,-70,48,-94v22,-24,49,-41,82,-52v33,-10,71,-15,114,-15v86,0,148,24,187,72v38,48,57,125,57,231r0,906","w":1284},"\u016f":{"d":"373,1024r0,-582v0,-83,10,-143,30,-180v19,-37,58,-55,115,-55v51,0,93,15,126,45v33,30,58,67,75,110r0,662r266,0r0,-713v0,-56,3,-111,8,-165v5,-53,14,-102,25,-146r-201,0r-47,152r-8,0v-31,-52,-75,-95,-131,-130v-56,-34,-122,-51,-199,-51v-52,0,-99,7,-140,21v-41,13,-75,36,-102,67v-27,31,-47,74,-62,127v-15,53,-22,120,-22,201r0,637r267,0xm318,1325v0,57,20,105,59,142v39,37,95,55,168,55v69,0,125,-17,166,-51v41,-33,62,-82,62,-146v0,-53,-20,-99,-61,-136v-40,-37,-96,-56,-167,-56v-73,0,-129,17,-168,52v-39,35,-59,81,-59,140xm465,1325v0,-22,8,-39,25,-51v16,-11,34,-17,55,-17v23,0,43,6,58,17v15,11,22,28,22,51v0,23,-8,41,-24,53v-15,11,-34,17,-56,17v-21,0,-39,-6,-56,-17v-16,-11,-24,-28,-24,-53","w":1101},"\u017d":{"d":"632,-1509r-192,0r-260,-193r0,-80r215,0r108,92r39,62r43,-60r115,-94r205,0r0,82xm55,250r607,848r106,86r-713,0r0,250r994,0r0,-250r-611,-856r-104,-78r715,0r0,-250r-994,0r0,250","w":1103},"\u017e":{"d":"63,225r404,486r104,88r-508,0r0,225r803,0r0,-225r-399,-494r-102,-80r501,0r0,-225r-803,0r0,225xm551,1126r-187,0r-235,373r225,0r80,-135r33,-100r37,100r92,135r207,0","w":937},"\u0192":{"d":"-63,162v61,25,107,39,190,39v49,0,88,-17,115,-51v27,-34,47,-89,59,-166r125,-783r-160,0r0,-225r197,0v0,0,27,-196,56,-270v45,-116,139,-171,304,-168v118,2,229,30,316,65r-66,199v-67,-26,-131,-39,-194,-39v-103,0,-110,47,-129,145r-11,68r244,0r0,225r-283,0r-145,869v-33,205,-121,356,-358,356v-107,0,-223,-19,-303,-49"},"\u02c6":{"d":"375,-1499r176,0r227,373r-211,0r-80,-136r-34,-100r-35,100r-92,136r-203,0","w":901},"\u02c7":{"d":"545,-1126r-187,0r-235,-373r225,0r80,135r33,100r37,-100r92,-135r207,0","w":919},"\u02d8":{"d":"481,-1354v101,0,183,-48,217,-121r123,56v-20,123,-104,202,-211,241v-123,45,-271,21,-362,-46v-63,-46,-106,-107,-125,-185r129,-66v39,73,126,121,229,121","w":944},"\u02d9":{"d":"289,-1174v-94,0,-166,-54,-166,-139v0,-85,72,-143,166,-143v93,0,174,58,174,143v0,85,-81,139,-174,139","w":585},"\u02da":{"d":"350,-1133v-134,0,-227,-67,-227,-192v0,-123,93,-197,227,-197v133,0,229,66,228,197v-1,116,-100,192,-228,192xm350,-1395v-42,1,-80,23,-80,70v0,43,40,68,80,68v46,0,80,-21,80,-68v0,-46,-36,-70,-80,-70","w":700},"\u02db":{"d":"358,403v-138,0,-235,-62,-235,-186v0,-56,19,-103,57,-143v38,-40,89,-71,154,-94r205,0v-104,30,-156,84,-156,161v0,50,34,90,86,88v25,0,53,-8,86,-24r39,127v-44,35,-151,71,-236,71","w":716},"\u02dc":{"d":"293,-1274v-59,0,-93,25,-131,60r-39,-134v42,-51,81,-85,117,-104v61,-32,117,-37,183,-14v50,19,146,61,146,61v23,9,47,14,72,14v55,0,85,-22,121,-55r41,143v-39,44,-75,75,-109,91v-58,29,-114,30,-178,11v-74,-22,-133,-73,-223,-73","w":925},"\u02dd":{"d":"195,-1434r243,0r0,33r-155,232r-160,0xm559,-1434r258,0r0,33r-242,232r-165,0","w":940},"\u2206":{"d":"25,0r0,-145r493,-1299r162,0r498,1299r0,145r-1153,0xm324,-238r553,0r-230,-610r-47,-205r-10,0r-49,207","w":1198},"\u0394":{"d":"25,0r0,-145r493,-1299r162,0r498,1299r0,145r-1153,0xm324,-238r553,0r-230,-610r-47,-205r-10,0r-49,207","w":1198},"\u03a9":{"d":"795,-1212v-253,1,-383,151,-379,415v3,224,124,346,315,381r0,416r-612,0r0,-225r215,0r174,26r0,-57r-94,-18v-183,-90,-293,-267,-293,-539v0,-322,160,-512,399,-603v162,-62,403,-60,562,2v165,64,280,178,344,341v51,129,63,316,22,459v-44,157,-136,270,-264,338r-101,20r0,57r174,-26r218,0r0,225r-615,0r0,-416v137,-25,238,-104,288,-222v36,-85,39,-215,10,-314v-47,-156,-158,-261,-363,-260","w":1593},"\u2126":{"d":"795,-1212v-253,1,-383,151,-379,415v3,224,124,346,315,381r0,416r-612,0r0,-225r215,0r174,26r0,-57r-94,-18v-183,-90,-293,-267,-293,-539v0,-322,160,-512,399,-603v162,-62,403,-60,562,2v165,64,280,178,344,341v51,129,63,316,22,459v-44,157,-136,270,-264,338r-101,20r0,57r174,-26r218,0r0,225r-615,0r0,-416v137,-25,238,-104,288,-222v36,-85,39,-215,10,-314v-47,-156,-158,-261,-363,-260","w":1593},"\u03c0":{"d":"39,-807v47,-125,140,-217,301,-217r989,0r0,225r-170,0r0,480v0,63,16,99,66,102v27,2,67,-7,90,-12r41,184v-67,28,-155,57,-262,57v-152,0,-201,-85,-201,-229r0,-582r-287,0r0,799r-266,0r0,-799r-29,0v-66,4,-88,37,-116,90","w":1425},"\u2013":{"d":"223,-709r905,0r0,238r-905,0r0,-238","w":1351},"\u2014":{"d":"223,-709r1233,0r0,238r-1233,0r0,-238","w":1679},"\u2018":{"d":"270,-1397v60,1,109,62,109,131v0,77,-63,131,-139,131v-102,0,-163,-73,-162,-176v1,-181,101,-274,229,-325r66,110v-49,18,-97,71,-103,129","w":456},"\u2019":{"d":"190,-1188v-64,0,-112,-55,-112,-131v0,-78,63,-133,141,-133v100,0,161,76,160,178v-2,181,-101,275,-229,326r-68,-113v50,-23,103,-61,108,-127","w":456},"\u201a":{"d":"78,2511v0,39,13,71,40,96v27,25,60,37,101,37v49,0,88,-16,117,-49v29,-33,43,-76,43,-129v0,-55,-9,-101,-26,-140v-17,-38,-37,-70,-61,-95v-24,-25,-49,-45,-76,-60v-27,-14,-49,-24,-66,-31r-68,113v27,12,52,28,73,49v21,21,32,47,35,78v-27,-1,-53,9,-77,32v-23,22,-35,55,-35,99","w":456},"\u201c":{"d":"733,1266v0,-39,-13,-71,-40,-95v-27,-24,-60,-36,-99,-36v-51,0,-90,16,-119,48v-29,32,-43,75,-43,128v0,55,9,101,26,139v17,38,37,70,61,95v24,25,49,45,75,60v26,14,48,24,67,31r66,-110v-27,-11,-51,-28,-70,-52v-19,-24,-30,-50,-33,-77v27,0,52,-12,75,-36v23,-24,34,-56,34,-95xm379,1266v0,-39,-13,-71,-40,-95v-27,-24,-60,-36,-99,-36v-51,0,-90,16,-119,48v-29,32,-43,75,-43,128v0,55,9,101,26,139v17,38,37,70,61,95v24,25,49,45,75,60v26,14,48,24,67,31r66,-110v-27,-11,-51,-28,-70,-52v-19,-24,-30,-50,-33,-77v27,0,52,-12,75,-36v23,-24,34,-56,34,-95","w":811},"\u201d":{"d":"432,1319v0,39,13,71,40,96v27,25,60,37,101,37v49,0,88,-16,117,-49v29,-33,43,-76,43,-129v0,-55,-9,-101,-26,-140v-17,-38,-37,-70,-61,-95v-24,-25,-49,-45,-76,-60v-27,-14,-49,-24,-66,-31r-68,113v27,12,52,28,73,49v21,21,32,47,35,78v-27,-1,-53,9,-77,32v-23,22,-35,55,-35,99xm78,1319v0,39,13,71,40,96v27,25,60,37,101,37v49,0,88,-16,117,-49v29,-33,43,-76,43,-129v0,-55,-9,-101,-26,-140v-17,-38,-37,-70,-61,-95v-24,-25,-49,-45,-76,-60v-27,-14,-49,-24,-66,-31r-68,113v27,12,52,28,73,49v21,21,32,47,35,78v-27,-1,-53,9,-77,32v-23,22,-35,55,-35,99","w":811},"\u201e":{"d":"432,2511v0,39,13,71,40,96v27,25,60,37,101,37v49,0,88,-16,117,-49v29,-33,43,-76,43,-129v0,-55,-9,-101,-26,-140v-17,-38,-37,-70,-61,-95v-24,-25,-49,-45,-76,-60v-27,-14,-49,-24,-66,-31r-68,113v27,12,52,28,73,49v21,21,32,47,35,78v-27,-1,-53,9,-77,32v-23,22,-35,55,-35,99xm78,2511v0,39,13,71,40,96v27,25,60,37,101,37v49,0,88,-16,117,-49v29,-33,43,-76,43,-129v0,-55,-9,-101,-26,-140v-17,-38,-37,-70,-61,-95v-24,-25,-49,-45,-76,-60v-27,-14,-49,-24,-66,-31r-68,113v27,12,52,28,73,49v21,21,32,47,35,78v-27,-1,-53,9,-77,32v-23,22,-35,55,-35,99","w":811},"\u2020":{"d":"82,-1051r237,0r107,33r-33,-110r0,-306r254,0r0,306r-31,110r105,-33r240,0r0,230r-244,0r-101,-33r31,102r0,752r-33,410r-188,0r-33,-412r0,-750r33,-102r-107,33r-237,0r0,-230","w":1042},"\u2021":{"d":"393,-760r33,-92r-107,31r-237,0r0,-230r237,0r107,31r-33,-102r0,-312r254,0r0,312r-31,102r105,-31r240,0r0,230r-244,0r-101,-31r31,92r0,172r-31,92r101,-30r244,0r0,229r-240,0r-105,-31r31,103r0,225r-35,410r-184,0r-35,-412r0,-223r33,-103r-107,31r-237,0r0,-229r237,0r107,30r-33,-92r0,-172","w":1042},"\u2022":{"d":"174,-506v-31,-73,-32,-184,0,-258v33,-75,92,-130,167,-162v73,-31,169,-31,243,-2v113,44,190,137,190,291v0,154,-77,245,-190,289v-74,29,-168,29,-242,0v-76,-29,-136,-84,-168,-158","w":925},"\u2026":{"d":"109,135v0,48,15,86,45,114v30,28,70,42,119,42v52,0,93,-14,123,-42v30,-28,45,-66,45,-114v0,-48,-15,-86,-45,-115v-30,-29,-71,-43,-123,-43v-49,0,-89,14,-119,43v-30,29,-45,67,-45,115xm666,135v0,48,15,86,45,114v30,28,70,42,119,42v52,0,93,-14,123,-42v30,-28,45,-66,45,-114v0,-48,-15,-86,-45,-115v-30,-29,-71,-43,-123,-43v-49,0,-89,14,-119,43v-30,29,-45,67,-45,115xm1223,135v0,48,15,86,45,114v30,28,70,42,119,42v52,0,93,-14,123,-42v30,-28,45,-66,45,-114v0,-48,-15,-86,-45,-115v-30,-29,-71,-43,-123,-43v-49,0,-89,14,-119,43v-30,29,-45,67,-45,115","w":1656},"\u2030":{"d":"1386,-1462r150,135r-1180,1356r-149,-142xm105,1110v0,61,9,114,27,158v17,43,42,79,73,108v31,29,69,50,114,63v44,13,92,19,144,19v52,0,100,-6,144,-19v43,-12,81,-32,113,-59v32,-27,57,-63,75,-108v17,-44,27,-98,28,-162v-1,-64,-11,-118,-29,-163v-17,-44,-42,-80,-74,-107v-32,-27,-70,-47,-114,-60v-43,-12,-91,-18,-143,-18v-52,0,-100,6,-145,19v-44,12,-82,32,-113,59v-31,27,-56,63,-74,108v-17,44,-26,98,-26,162xm342,1110v0,-117,40,-176,121,-176v42,0,72,13,91,38v19,25,29,71,30,138v-1,65,-11,111,-30,137v-18,26,-48,39,-91,39v-42,0,-73,-13,-92,-39v-19,-26,-29,-72,-29,-137xm926,1870v0,61,9,114,27,158v17,43,42,79,73,108v31,29,69,50,114,63v44,13,92,19,144,19v52,0,100,-6,144,-19v43,-12,81,-32,113,-59v32,-27,57,-63,75,-108v17,-44,27,-98,28,-162v-1,-64,-11,-118,-29,-163v-17,-44,-42,-80,-74,-107v-32,-27,-70,-47,-114,-60v-43,-12,-91,-18,-143,-18v-52,0,-100,6,-145,19v-44,12,-82,32,-113,59v-31,27,-56,63,-74,108v-17,44,-26,98,-26,162xm1163,1870v0,-117,40,-176,121,-176v42,0,72,13,91,38v19,25,29,71,30,138v-1,65,-11,111,-30,137v-18,26,-48,39,-91,39v-42,0,-73,-13,-92,-39v-19,-26,-29,-72,-29,-137xm1721,1870v0,61,9,114,27,158v17,43,42,79,73,108v31,29,69,50,114,63v44,13,92,19,144,19v52,0,100,-6,144,-19v43,-12,81,-32,113,-59v32,-27,57,-63,75,-108v17,-44,27,-98,28,-162v-1,-64,-11,-118,-29,-163v-17,-44,-42,-80,-74,-107v-32,-27,-70,-47,-114,-60v-43,-12,-91,-18,-143,-18v-52,0,-100,6,-145,19v-44,12,-82,32,-113,59v-31,27,-56,63,-74,108v-17,44,-26,98,-26,162xm1958,1870v0,-117,40,-176,121,-176v42,0,72,13,91,38v19,25,29,71,30,138v-1,65,-11,111,-30,137v-18,26,-48,39,-91,39v-42,0,-73,-13,-92,-39v-19,-26,-29,-72,-29,-137","w":2523},"\u2039":{"d":"59,-530r328,-471r154,127r-170,258r-99,84r99,73r186,250r-158,131","w":628},"\u203a":{"d":"569,-549r-327,471r-156,-125r172,-260r98,-84r-98,-74r-188,-251r159,-129","w":628},"\u2044":{"d":"545,-1464r174,102r-881,1391r-176,-109","w":376},"\u20ac":{"d":"1135,-59v-85,60,-214,88,-355,88v-150,0,-277,-40,-380,-120v-103,-80,-172,-207,-207,-382r-189,0r66,-191r100,0v0,0,-2,-81,2,-118r-168,0r66,-191r127,0v37,-169,113,-291,225,-377v92,-71,213,-110,364,-112v127,-1,244,21,328,55r-72,211v-67,-26,-144,-37,-243,-37v-82,0,-152,20,-211,61v-59,41,-103,108,-133,199r530,0r-53,191r-510,0v-4,57,-2,118,-2,118r471,0r-53,191r-385,0v52,168,155,271,366,272v111,1,191,-27,260,-65"},"\u2122":{"d":"809,-1208r-242,0r0,512r-266,0r0,-512r-242,0r0,-226r750,0r0,226xm1638,-991r35,-211r-12,0r-74,174r-139,240r-160,0r-139,-234r-80,-180r-10,0r47,209r0,297r-227,0r0,-738r266,0r186,308r49,129r2,0r52,-133r172,-304r264,0r0,738r-232,0r0,-295","w":1941},"\u2202":{"d":"467,29v-263,4,-434,-158,-430,-416v4,-275,110,-482,293,-587v112,-65,336,-80,438,-5r10,0v-12,-108,-74,-175,-150,-219v-70,-41,-164,-58,-268,-59v0,0,-38,-1,-57,2r45,-207v455,-24,705,175,705,622v0,284,-53,506,-166,662v-90,125,-224,203,-420,207xm778,-731v-51,-46,-100,-74,-196,-74v-78,0,-143,37,-194,109v-51,72,-77,172,-77,299v0,112,60,202,178,200v124,-2,187,-80,229,-169v44,-93,59,-232,60,-365","w":1101},"\u220f":{"d":"946,-1184r-543,0r0,1594r-280,0r0,-1844r1091,0r0,1844r-268,0r0,-1594","w":1339},"\u2211":{"d":"375,78r-86,82r737,0r0,250r-985,0r0,-250r381,-598r86,-70r-94,-76r-373,-600r0,-250r985,0r0,250r-713,0r95,84r352,576","w":1079},"\u221a":{"d":"383,-973r162,381r45,236r8,0r37,-240r246,-838r256,0r-471,1444r-138,0r-309,-755r-229,0r0,-228r393,0","w":1079},"\u221e":{"d":"1272,-309v-213,-3,-322,-112,-418,-234v-85,139,-210,234,-410,234v-178,0,-286,-103,-342,-235v-42,-97,-40,-247,0,-345v57,-143,171,-239,363,-241v213,-3,332,97,432,212v61,-77,127,-132,197,-164v107,-49,254,-69,370,-20v135,57,219,182,219,373v0,207,-96,334,-247,392v-50,19,-105,28,-164,28xm1434,-723v-6,-106,-58,-180,-168,-180v-42,0,-86,13,-131,38v-45,25,-88,64,-127,115v44,81,101,157,185,196v127,58,248,-38,241,-169xm319,-715v0,101,80,181,179,178v109,-3,196,-88,250,-159v-31,-61,-69,-112,-112,-150v-43,-38,-94,-57,-151,-57v-95,0,-166,89,-166,188","w":1755},"\u222b":{"d":"813,-1202v-62,-20,-103,-35,-182,-35v-48,0,-81,14,-99,42v-18,28,-26,79,-26,153r0,1112v0,249,-89,351,-320,356v-110,2,-240,-20,-313,-49r59,-209v60,23,117,35,172,35v121,0,136,-76,136,-209r0,-1096v2,-251,77,-360,315,-360v112,0,219,21,303,51","w":753},"\u2248":{"d":"61,579v64,52,122,88,173,108v51,19,99,29,143,29v39,0,76,-6,111,-17v34,-11,67,-24,98,-37r93,-37v31,-11,62,-17,93,-17v25,0,50,4,76,12v26,8,53,24,82,47r96,-211v-49,-37,-95,-63,-136,-78v-41,-15,-79,-22,-114,-22v-38,0,-74,6,-107,19v-33,12,-64,26,-95,41v-31,15,-62,28,-93,41v-31,12,-65,18,-100,18v-33,0,-68,-7,-106,-22v-37,-14,-79,-40,-124,-79xm61,975v64,52,122,88,173,108v51,19,99,29,143,29v39,0,76,-6,111,-17v34,-11,67,-24,98,-37r93,-37v31,-11,62,-17,93,-17v25,0,50,4,76,12v26,8,53,24,82,47r96,-211v-49,-37,-95,-63,-136,-78v-41,-15,-79,-22,-114,-22v-38,0,-74,6,-107,19v-33,12,-64,26,-95,41v-31,15,-62,28,-93,41v-31,12,-65,18,-100,18v-33,0,-68,-7,-106,-22v-37,-14,-79,-40,-124,-79","w":1079},"\u2260":{"d":"88,-1004r475,0r103,-231r231,0r-102,231r198,0r0,230r-301,0r-74,164r375,0r0,229r-475,0r-117,264r-229,0r117,-264r-201,0r0,-229r301,0r74,-164r-375,0r0,-230","w":1079},"\u2264":{"d":"989,-164r-115,197r-782,-441r115,-196xm70,-846r0,-143r790,-473r117,184r-459,285r-186,71r184,64r471,280r-117,185","w":1079},"\u2265":{"d":"999,-420r-780,453r-115,-195r779,-454xm999,-1010r0,144r-790,473r-117,-185r459,-284r186,-72r-184,-63r-471,-281r117,-184","w":1079},"\u25ca":{"d":"612,10r-153,0r-404,-710r404,-744r153,0r412,733xm610,-412r164,-272r-186,-322r-56,-172r-10,0r-57,177r-160,274r184,319r58,172r8,0","w":1079},"\ufb01":{"d":"915,-1165v-74,-40,-179,-65,-297,-64v-103,0,-165,31,-180,117v-4,26,-6,55,-6,88r576,0r0,1024r-267,0r0,-799r-309,0r0,799r-266,0r0,-799r-141,0r0,-225r141,0r0,-57v-1,-259,136,-371,391,-373v169,-1,326,25,428,82","w":1132},"\ufb02":{"d":"975,29v-159,-3,-239,-69,-238,-234r0,-1016v-63,-10,-180,-26,-237,1v-61,28,-69,105,-68,196r154,0r0,225r-154,0r0,799r-266,0r0,-799r-141,0r0,-225r141,0r0,-57v5,-275,123,-379,414,-379v142,0,302,15,424,37r0,1079v0,48,6,82,18,104v12,22,31,33,57,33v46,-1,67,-6,107,-22r31,209v-50,23,-161,51,-242,49","w":1214},"\ufb03":{"d":"1454,1024r267,0r0,-1024r-267,0r0,1024xm1415,1313v0,39,15,73,44,101v29,28,70,42,122,42v52,0,94,-14,126,-42v32,-28,48,-62,48,-101v0,-39,-16,-72,-48,-99v-32,-27,-74,-40,-126,-40v-52,0,-93,13,-122,40v-29,27,-44,60,-44,99xm680,1024r141,0r0,57v0,130,27,224,82,282v55,58,134,87,237,87v109,0,200,-13,273,-39r-51,-213v-31,11,-59,18,-83,22v-24,3,-49,5,-75,5v-27,0,-49,-4,-65,-13v-15,-8,-27,-21,-35,-38v-7,-17,-12,-38,-14,-63v-2,-25,-3,-54,-3,-87r225,0r0,-225r-225,0r0,-799r-266,0r0,799r-141,0r0,225xm23,1024r141,0r0,57v0,130,27,224,82,282v55,58,134,87,237,87v109,0,200,-13,273,-39r-51,-213v-31,11,-59,18,-83,22v-24,3,-49,5,-75,5v-27,0,-49,-4,-65,-13v-15,-8,-27,-21,-35,-38v-7,-17,-12,-38,-14,-63v-2,-25,-3,-54,-3,-87r225,0r0,-225r-225,0r0,-799r-266,0r0,799r-141,0r0,225","w":1865},"\ufb04":{"d":"1706,344v0,-48,6,-83,19,-105v12,-21,32,-32,59,-32v17,0,33,1,49,4v15,3,34,9,57,18r29,-209v-22,-11,-56,-22,-101,-33v-45,-11,-91,-16,-138,-16v-78,0,-138,18,-179,55v-41,36,-61,96,-61,179r0,1229r266,0r0,-1090xm680,1024r141,0r0,57v0,130,27,224,82,282v55,58,134,87,237,87v109,0,200,-13,273,-39r-51,-213v-31,11,-59,18,-83,22v-24,3,-49,5,-75,5v-27,0,-49,-4,-65,-13v-15,-8,-27,-21,-35,-38v-7,-17,-12,-38,-14,-63v-2,-25,-3,-54,-3,-87r225,0r0,-225r-225,0r0,-799r-266,0r0,799r-141,0r0,225xm23,1024r141,0r0,57v0,130,27,224,82,282v55,58,134,87,237,87v109,0,200,-13,273,-39r-51,-213v-31,11,-59,18,-83,22v-24,3,-49,5,-75,5v-27,0,-49,-4,-65,-13v-15,-8,-27,-21,-35,-38v-7,-17,-12,-38,-14,-63v-2,-25,-3,-54,-3,-87r225,0r0,-225r-225,0r0,-799r-266,0r0,799r-141,0r0,225","w":1916},"\u00a0":{"w":518}}});
