/*!
 * The following copyright notice may not be removed under any circumstances.
 * 
 * Copyright:
 * Copyright © 2009 ParaType Ltd. All rights reserved.
 * 
 * Description:
 * This is a protected webfont and is intended for CSS @font-face use ONLY.
 * Reverse engineering this font is strictly prohibited.
 */
Cufon.registerFont({"w":1116,"face":{"font-family":"","font-weight":700,"font-style":"italic","font-stretch":"normal","units-per-em":"2048","panose-1":"2 11 7 3 2 2 3 9 2 4","ascent":"1536","descent":"-512","x-height":"29","bbox":"-283 -2489.91 2255 2644","underline-thickness":"102","underline-position":"-102","slope":"-12","unicode-range":"U+0020-FB04"},"glyphs":{" ":{"w":518},"!":{"d":"444,-1434r263,0r-144,674r-121,334r-159,0r18,-334xm315,23v-96,0,-163,-63,-163,-158v0,-95,68,-156,163,-156v98,0,166,59,166,156v0,96,-68,158,-166,158","w":579},"\"":{"d":"238,1434r221,0r-162,-443r-154,0xm525,1434r221,0r-162,-443r-154,0","w":724},"#":{"d":"651,-420r-182,0r-74,316r-219,0r74,-316r-152,0r45,-198r154,0r51,-218r-147,0r45,-198r149,0r72,-295r219,0r-72,295r183,0r71,-295r219,0r-71,295r147,0r-51,198r-143,0r-51,218r141,0r-49,198r-140,0r-73,316r-219,0xm516,-618r182,0r52,-218r-183,0"},"$":{"d":"774,-817v128,89,260,186,260,401v0,281,-185,405,-440,439r-37,182r-203,0r39,-185v-118,-12,-207,-58,-272,-108r96,-199v52,34,138,76,223,88r97,-452v-127,-86,-252,-179,-252,-389v0,-205,111,-319,260,-378v50,-20,105,-31,162,-38r41,-182r202,0r-39,184v95,11,174,38,240,72r-102,208v-47,-25,-119,-49,-187,-59xm557,-193v127,-5,211,-76,211,-192v0,-102,-68,-146,-129,-197xm745,-1241v-116,2,-194,62,-194,168v0,96,62,134,121,184"},"%":{"d":"1343,-1462r150,135r-1180,1356r-149,-142xm113,1022v0,74,13,138,38,193v25,54,59,99,100,136v41,36,86,63,136,81v49,17,99,26,148,26v90,0,159,-21,206,-63v47,-41,70,-102,70,-183v0,-78,-12,-145,-35,-202v-23,-56,-54,-103,-94,-140v-39,-37,-85,-64,-136,-82v-51,-17,-104,-26,-159,-26v-85,0,-152,24,-201,71v-49,47,-73,110,-73,189xm338,1034v-1,-30,6,-54,21,-73v15,-18,36,-27,65,-27v45,0,84,24,115,71v31,47,47,107,47,181v0,67,-29,100,-88,100v-23,0,-45,-7,-64,-21v-19,-13,-36,-31,-51,-54v-15,-22,-26,-49,-35,-80v-8,-31,-11,-63,-10,-97xm860,1782v0,74,13,138,38,193v25,54,59,99,100,136v41,36,86,63,136,81v49,17,99,26,148,26v90,0,159,-21,206,-63v47,-41,70,-102,70,-183v0,-78,-12,-145,-35,-202v-23,-56,-54,-103,-94,-140v-39,-37,-85,-64,-136,-82v-51,-17,-104,-26,-159,-26v-85,0,-152,24,-201,71v-49,47,-73,110,-73,189xm1085,1794v-1,-30,6,-54,21,-73v15,-18,36,-27,65,-27v45,0,84,24,115,71v31,47,47,107,47,181v0,67,-29,100,-88,100v-23,0,-45,-7,-64,-21v-19,-13,-36,-31,-51,-54v-15,-22,-26,-49,-35,-80v-8,-31,-11,-63,-10,-97","w":1646},"&":{"d":"1026,-143v-118,86,-266,176,-473,172v-190,-3,-317,-83,-375,-217v-43,-99,-34,-226,10,-322v79,-175,235,-292,404,-377v-41,-77,-53,-134,-53,-233v0,-169,90,-264,219,-314v79,-30,231,-40,314,-8v86,33,136,100,136,213v0,69,-28,135,-83,199v-55,64,-134,124,-236,180v62,150,117,263,207,385v75,-72,149,-188,204,-285r162,103v-30,56,-115,170,-115,170v-41,56,-83,103,-128,153v59,69,138,152,223,189r-178,196v-97,-45,-175,-125,-238,-204xm416,-381v2,124,85,184,219,184v105,0,217,-58,272,-108v-91,-129,-173,-274,-233,-420v-81,55,-144,110,-190,165v-46,55,-68,115,-68,179xm915,-1264v-79,0,-129,58,-129,131v0,75,11,98,37,158v57,-34,101,-67,133,-100v32,-33,48,-68,48,-105v0,-58,-24,-84,-89,-84","w":1603},"'":{"d":"281,-1434r221,0r-162,443r-154,0","w":446},"(":{"d":"377,-193v0,217,25,358,102,529r-157,110v-119,-160,-195,-355,-195,-624v0,-285,77,-529,173,-732v99,-210,245,-404,402,-548r132,110v-194,216,-347,497,-421,831v-24,107,-36,215,-36,324","w":634},")":{"d":"264,-496v66,-282,46,-642,-67,-845r178,-115v117,155,176,355,176,618v0,445,-162,775,-353,1042v-68,95,-142,177,-218,247r-138,-113v191,-215,346,-505,422,-834","w":634},"*":{"d":"373,-1497r57,94r31,121r31,-113r57,-100r129,72r-62,106r-96,88r131,-33r117,0r0,150r-111,0r-125,-33r103,96r51,86r-131,76r-55,-94r-41,-131r-27,119r-59,100r-133,-76r61,-100r92,-76r-112,33r-121,0r0,-152r121,0r120,35r-102,-90r-57,-102","w":729},"+":{"d":"119,-807r332,0r0,-346r239,0r0,346r334,0r0,229r-334,0r0,351r-239,0r0,-351r-332,0r0,-229","w":1034},",":{"d":"203,-283v91,0,142,72,141,156v-2,135,-65,233,-134,302v-55,56,-137,103,-210,128r-53,-110v74,-27,153,-107,176,-183v-51,-4,-96,-58,-96,-121v0,-104,79,-172,176,-172","w":442},"-":{"d":"166,-696r489,0r-51,213r-489,0","w":702},".":{"d":"231,23v-96,0,-163,-63,-163,-158v0,-95,68,-156,163,-156v98,0,166,59,166,156v0,96,-68,158,-166,158","w":514},"\/":{"d":"885,-1458r176,94r-1045,1655r-174,-98","w":794},"0":{"d":"136,-274v-47,-186,-20,-416,25,-589v58,-226,170,-415,337,-523v115,-76,265,-103,408,-52v169,60,241,232,239,473v-4,405,-134,738,-374,910v-120,86,-303,115,-443,45v-100,-51,-162,-143,-192,-264xm891,-961v0,-150,-23,-275,-170,-276v-45,0,-89,20,-131,63v-143,148,-220,411,-223,703v-1,98,14,169,51,221v27,38,69,53,127,53v48,0,93,-21,134,-67v134,-152,212,-413,212,-697"},"1":{"d":"166,-225r270,0r174,-809r58,-140r-119,121r-199,127r-80,-157r527,-375r143,0r-262,1233r264,0r-47,225r-776,0"},"2":{"d":"788,-1462v196,-3,319,125,318,315v0,77,-18,155,-54,233v-110,248,-314,453,-501,623r-121,84r0,10r143,-28r367,0r-47,225r-819,0r28,-137r136,-126r161,-156v151,-152,313,-318,413,-513v27,-53,40,-102,40,-145v0,-104,-49,-157,-168,-154v-106,3,-190,57,-262,107r-62,-193v123,-87,231,-142,428,-145"},"3":{"d":"750,-467v0,-150,-76,-186,-242,-188r-143,0r30,-142r301,-338r131,-92r-155,19r-326,0r49,-226r744,0r-31,146r-350,389r-99,55r0,10r82,-12v118,17,197,87,237,188v42,105,30,265,-12,367v-83,205,-274,318,-563,320v-110,0,-253,-22,-319,-64r117,-227v58,37,138,60,237,59v151,-1,250,-62,294,-167v13,-32,18,-64,18,-97"},"4":{"d":"1096,-399r-215,0r-84,399r-236,0r84,-399r-588,0r31,-152r805,-893r209,0r-176,834r215,0xm758,-926r53,-172r-6,0r-98,148r-258,276r-113,78r127,-14r227,0"},"5":{"d":"188,-250v62,29,127,48,224,47v162,0,262,-69,308,-184v13,-35,19,-73,19,-113v0,-68,-21,-116,-63,-145v-42,-29,-110,-47,-207,-43r-158,6r158,-752r670,0r-52,250r-450,0r-59,283r75,-8v171,2,269,85,315,213v15,44,23,90,23,141v1,383,-229,589,-618,584v-114,-1,-221,-24,-299,-62"},"6":{"d":"723,-885v212,-3,337,151,334,363v-4,256,-115,425,-299,506v-103,45,-250,66,-370,22v-164,-60,-261,-207,-261,-438v0,-303,130,-543,284,-708v150,-161,367,-292,629,-322r15,211v-232,39,-412,158,-535,311v-44,55,-77,113,-100,176v64,-71,176,-120,303,-121xm555,-197v157,0,254,-120,252,-278v-2,-115,-57,-184,-182,-184v-106,0,-206,56,-248,122v-32,162,14,340,178,340"},"7":{"d":"127,0r674,-1104r104,-100r-119,20r-481,0r51,-250r881,0r-16,78r-830,1356r-264,0"},"8":{"d":"772,-1462v213,0,352,120,352,317v0,162,-86,252,-179,327v-34,27,-71,50,-109,70v61,48,104,99,132,153v54,105,51,256,2,362v-76,164,-237,262,-474,262v-175,0,-299,-73,-356,-195v-38,-81,-37,-206,-2,-292v55,-134,164,-229,300,-281v-79,-70,-144,-151,-141,-305v4,-216,126,-335,293,-390v57,-18,118,-28,182,-28xm535,-197v132,-5,231,-58,231,-192v0,-141,-100,-195,-188,-254v-69,35,-125,76,-166,123v-41,47,-62,100,-62,158v0,107,65,169,185,165xm741,-1237v-114,0,-202,71,-202,190v0,48,15,89,45,123v30,34,68,63,114,90v68,-51,133,-109,170,-188v10,-23,15,-46,15,-68v1,-96,-49,-147,-142,-147"},"9":{"d":"831,-639v-78,61,-160,94,-296,94v-157,0,-252,-87,-301,-210v-45,-113,-37,-291,10,-400v55,-128,153,-222,284,-271v110,-41,258,-53,371,-10v158,60,246,206,246,426v0,347,-139,581,-319,754v-112,108,-248,193,-404,245v-70,23,-136,36,-199,40r-12,-209v229,-43,408,-153,529,-304v39,-50,70,-102,91,-155xm903,-979v-1,-146,-51,-266,-196,-262v-163,4,-254,100,-254,268v0,129,59,204,182,207v103,2,203,-37,252,-90v7,-21,16,-97,16,-123"},":":{"d":"502,-719v-96,0,-164,-63,-164,-158v0,-96,68,-155,164,-155v97,0,166,59,166,155v0,96,-68,158,-166,158xm348,-2v-96,0,-164,-63,-164,-158v0,-96,68,-155,164,-155v97,0,166,59,166,155v0,96,-68,158,-166,158","w":643},";":{"d":"362,-283v91,0,143,72,142,156v-2,136,-65,234,-134,302v-56,56,-137,103,-210,128r-54,-110v74,-27,154,-107,177,-183v-51,-4,-97,-58,-97,-121v0,-104,80,-172,176,-172xm487,-719v-96,0,-163,-63,-163,-158v0,-95,68,-155,163,-155v97,0,166,59,166,155v0,96,-68,158,-166,158","w":628},"<":{"d":"104,-584r0,-143r791,-473r117,184r-459,285r-186,72r184,63r471,281r-117,184","w":1034},"=":{"d":"119,-612r905,0r0,229r-905,0r0,-229xm119,-1004r905,0r0,229r-905,0r0,-229","w":1034},">":{"d":"1040,-748r0,144r-792,473r-115,-186r457,-283r186,-74r-184,-61r-469,-283r115,-182","w":1034},"?":{"d":"233,-1339v117,-67,234,-123,422,-123v115,0,199,24,252,72v53,48,80,114,80,196v1,147,-50,237,-117,314v-66,76,-156,126,-230,194v-73,67,-142,141,-163,260r-217,0v21,-206,123,-329,245,-429v66,-54,132,-104,179,-169v21,-29,31,-62,31,-100v0,-85,-48,-118,-146,-117v-97,1,-210,51,-272,94xm332,23v-96,0,-164,-63,-164,-158v0,-96,68,-156,164,-156v98,0,166,59,166,156v0,96,-68,158,-166,158","w":880},"@":{"d":"1169,-1004v101,-1,155,34,213,78r64,-65r143,0r-100,555v-4,28,-8,55,-8,84v0,65,25,98,75,98v149,0,225,-106,264,-230v41,-132,27,-336,-26,-447v-99,-208,-308,-316,-608,-316v-233,0,-416,92,-538,215v-123,123,-216,306,-216,540v0,344,161,549,419,642v91,32,195,49,312,49v92,-1,206,-26,273,-60r63,197v-113,53,-210,74,-371,74v-438,0,-721,-191,-854,-507v-95,-225,-89,-568,11,-789v106,-234,287,-409,528,-504v219,-86,501,-89,727,-14v215,72,376,209,467,404v76,163,95,401,21,578v-63,150,-169,266,-314,332v-72,33,-149,49,-231,49v-149,1,-241,-66,-223,-225r-9,0v-81,109,-166,225,-350,225v-123,0,-192,-79,-225,-176v-40,-117,-16,-255,22,-370v52,-155,147,-284,274,-361v62,-38,128,-56,197,-56xm926,-542v-38,116,-37,298,104,290v88,-5,139,-74,184,-131v19,-24,35,-51,50,-78r53,-282v-37,-28,-66,-50,-127,-50v-95,0,-161,65,-204,127v-25,37,-46,78,-60,124","w":2168},"A":{"d":"793,-317r-418,0r-170,317r-283,0r797,-1444r196,0r187,1444r-268,0xm492,-543r290,0r-32,-319r2,-225r-11,0r-82,227","w":1191},"B":{"d":"340,-1423v125,-21,273,-31,420,-31v193,1,339,57,406,186v39,76,46,196,12,284v-48,125,-147,214,-297,236r0,11v123,33,212,116,215,268v3,181,-80,300,-189,375v-107,75,-265,113,-442,114v0,0,-128,1,-197,-3v-77,-4,-162,-11,-227,-27xm342,-223v71,14,128,12,174,12v126,0,225,-46,276,-127v30,-48,40,-144,6,-194v-44,-65,-135,-86,-243,-86r-131,0xm926,-1069v4,-155,-153,-160,-306,-152v-30,1,-53,4,-69,7r-80,383v0,0,182,0,221,-7v127,-24,230,-81,234,-231","w":1163},"C":{"d":"719,-221v120,1,190,-28,266,-68r4,230v-91,59,-203,88,-336,88v-278,-2,-434,-144,-501,-357v-62,-197,-30,-478,34,-642v83,-212,228,-362,432,-441v184,-71,460,-64,621,6r-104,238v-106,-57,-320,-62,-439,-2v-189,96,-293,294,-297,577v-3,216,116,370,320,371","w":1099},"D":{"d":"728,-22v-139,47,-333,51,-512,37v0,0,-131,-6,-175,-13r303,-1436v123,-17,256,-20,393,-20v359,0,555,179,555,541v0,465,-202,769,-564,891xm1012,-877v0,-216,-80,-327,-297,-327v-46,0,-119,2,-156,8r-203,963v167,16,267,7,374,-59v176,-108,282,-318,282,-585","w":1269},"E":{"d":"344,-1434r807,0r-53,250r-541,0r-72,334r494,0r-55,250r-490,0r-76,350r551,0r-51,250r-817,0","w":1030},"F":{"d":"344,-1434r807,0r-53,250r-541,0r-76,355r498,0r-51,249r-498,0r-123,580r-266,0","w":1001},"G":{"d":"399,-584v-2,207,102,362,295,363v67,0,125,-17,176,-51r58,-273r-209,-33r37,-170r430,0r-135,639v-110,86,-232,138,-412,138v-258,0,-409,-138,-481,-335v-69,-190,-38,-485,26,-655v81,-216,225,-367,432,-448v191,-74,487,-64,658,6r-107,236v-116,-52,-338,-65,-465,-4v-196,94,-300,297,-303,587","w":1198},"H":{"d":"932,-600r-498,0r-127,600r-266,0r303,-1434r266,0r-123,584r498,0r123,-584r266,0r-303,1434r-266,0","w":1277},"I":{"d":"375,-1434r264,0r-303,1434r-264,0","w":569},"J":{"d":"489,-1434r267,0r-224,1049v-48,226,-139,409,-411,410v-77,0,-176,-19,-225,-48r102,-229v46,28,132,40,182,10v66,-40,87,-127,105,-215","w":663},"K":{"d":"532,-612r-96,0r-129,612r-266,0r303,-1434r266,0r-135,635r64,-22r485,-613r319,0r-516,609r-122,71r90,80r311,674r-297,0","w":1214},"L":{"d":"903,0r-862,0r303,-1434r266,0r-252,1184r596,0","w":1013},"M":{"d":"1255,-743r91,-283r-13,0r-135,231r-403,531r-84,0r-193,-537r-37,-225r-10,0r-20,281r-158,745r-252,0r303,-1434r236,0r215,656r26,164r10,0r95,-168r483,-652r256,0r-303,1434r-264,0","w":1570},"N":{"d":"547,-750r-68,-229r-10,0r-18,229r-158,750r-252,0r307,-1444r184,0r353,766r63,223r13,0r14,-223r162,-756r252,0r-308,1444r-184,0","w":1292},"O":{"d":"621,29v-340,-2,-505,-212,-502,-566v3,-407,165,-706,433,-853v138,-76,343,-99,504,-40v192,71,283,255,283,523v0,409,-163,711,-427,862v-88,50,-185,74,-291,74xm399,-545v0,183,61,325,242,324v63,0,120,-19,171,-57v159,-120,247,-349,247,-625v0,-108,-22,-185,-63,-235v-76,-93,-243,-94,-344,-21v-161,116,-253,340,-253,614","w":1318},"P":{"d":"531,-485v-41,0,-88,-3,-121,-9r-103,494r-266,0r301,-1419v169,-29,400,-57,572,-11v175,47,294,160,296,381v2,213,-81,350,-201,441v-108,82,-268,121,-446,123r-32,0xm930,-1016v0,-194,-184,-215,-369,-186r-98,467v23,5,58,8,87,8r23,0v155,-2,273,-48,327,-153v20,-37,30,-83,30,-136","w":1126},"Q":{"d":"621,29v-340,-2,-505,-212,-502,-566v3,-407,165,-706,433,-853v138,-76,343,-99,504,-40v192,71,283,255,283,523v0,409,-163,711,-427,862v-88,50,-185,74,-291,74xm399,-545v0,183,61,325,242,324v63,0,120,-19,171,-57v159,-120,247,-349,247,-625v0,-108,-22,-185,-63,-235v-76,-93,-243,-94,-344,-21v-161,116,-253,340,-253,614xm1284,414v-125,35,-256,33,-382,4v-117,-27,-333,-91,-333,-91v-81,-23,-160,-31,-241,-10r51,-241v157,-38,307,15,429,52v124,37,267,82,432,60v31,-4,62,-10,95,-18","w":1318},"R":{"d":"342,-1419v171,-27,388,-59,557,-13v164,44,279,154,279,359v0,220,-102,352,-250,423v-47,22,-95,35,-144,42r80,63r199,545r-295,0r-197,-561r-141,-27r-123,588r-266,0xm897,-1034v0,-107,-74,-170,-199,-170v-48,0,-98,4,-137,10r-90,416r109,0v186,-2,317,-69,317,-256","w":1196},"S":{"d":"133,-295v101,59,266,103,426,73v93,-17,168,-60,170,-167v0,-37,-12,-68,-37,-94v-25,-26,-55,-51,-93,-74r-121,-73v-129,-81,-251,-179,-251,-390v0,-241,132,-368,324,-418v201,-52,472,-18,612,60r-135,233v-79,-49,-239,-99,-375,-67v-84,20,-155,62,-155,161v0,94,65,138,130,177r120,73v127,78,251,169,251,373v0,339,-242,457,-583,457v-164,0,-312,-31,-420,-86","w":1044},"T":{"d":"1257,-1184r-397,0r-252,1184r-264,0r250,-1184r-397,0r53,-250r1059,0","w":1120},"U":{"d":"401,-406v-1,132,71,181,201,181v82,0,145,-24,190,-72v45,-48,80,-125,103,-231r192,-906r250,0r-194,926v-38,178,-94,316,-199,414v-90,84,-211,117,-381,119v-302,3,-464,-152,-429,-465v3,-29,9,-59,16,-90r192,-904r264,0r-188,902v-11,52,-16,94,-17,126","w":1232},"V":{"d":"590,-594r-15,244r9,0r90,-244r442,-840r299,0r-809,1444r-192,0r-207,-1444r291,0","w":1185},"W":{"d":"510,-635r-29,254r11,0r79,-258r406,-795r180,0r60,799r-27,254r10,0r82,-258r336,-795r287,0r-682,1444r-187,0r-75,-796r16,-220r-12,0r-78,222r-408,794r-186,0r-70,-1444r281,0","w":1691},"X":{"d":"524,-731r-231,-703r289,0r123,414r20,146r76,-146r305,-414r319,0r-538,693r256,741r-285,0r-147,-442r-25,-152r-82,152r-330,442r-323,0","w":1245},"Y":{"d":"473,-532r-256,-902r295,0r133,539r-4,152r8,0r64,-156r358,-535r305,0r-637,899r-112,535r-265,0","w":1165},"Z":{"d":"31,-250r737,-852r119,-82r-658,0r52,-250r944,0r-51,250r-742,858r-115,76r658,0r-53,250r-945,0","w":1060},"[":{"d":"406,-1434r456,0r-45,224r-215,0r-309,1456r215,0r-49,225r-455,0","w":643},"\\":{"d":"967,195r-207,92r-686,-1655r211,-88","w":868},"]":{"d":"297,471r-457,0r49,-225r215,0r308,-1456r-215,0r45,-224r458,0","w":641},"^":{"d":"545,-1444r143,0r379,598r-268,0r-146,-250r-45,-143r-51,145r-158,248r-256,0","w":1034},"_":{"d":"-94,240r909,0r0,219r-909,0r0,-219","w":909},"`":{"d":"881,-1159r-142,0r-186,-254r14,-62r264,0","w":487},"a":{"d":"332,29v-186,2,-264,-136,-264,-324v0,-337,127,-578,357,-695v120,-61,282,-78,447,-50v56,9,111,21,164,36r-127,594v-25,123,-36,271,-26,412r-187,0r-28,-176r-9,0v-52,79,-132,149,-228,186v-32,12,-65,17,-99,17xm328,-344v0,80,19,166,100,162v114,-5,167,-91,217,-162r103,-477v-28,-13,-71,-21,-111,-21v-115,2,-181,79,-228,159v-50,86,-81,210,-81,339","w":1030},"b":{"d":"807,-1049v156,-1,221,125,221,285v0,256,-78,455,-196,589v-59,66,-126,115,-200,149v-74,34,-147,51,-222,51v-144,0,-286,-30,-365,-82r291,-1377r252,0r-127,590r8,0v58,-77,130,-149,229,-186v33,-12,70,-19,109,-19xm328,-215v30,22,75,29,127,29v34,0,70,-10,106,-34v130,-86,206,-255,207,-476v0,-94,-27,-142,-82,-142v-68,0,-117,42,-158,79v-44,40,-87,95,-114,147","w":1048},"c":{"d":"758,-84v-77,57,-199,113,-326,113v-186,0,-295,-82,-342,-219v-14,-42,-20,-87,-20,-134v-2,-230,73,-412,179,-535v91,-105,222,-190,396,-194v118,-2,182,25,254,60r-94,200v-48,-29,-99,-38,-172,-38v-93,0,-156,67,-202,129v-51,70,-90,180,-91,296v-1,123,54,210,164,213v83,1,154,-32,207,-63","w":843},"d":{"d":"621,-1049v76,0,121,8,172,31r88,-416r252,0r-228,1074v-21,100,-34,191,-35,299v0,0,-1,42,2,63r-172,0r-28,-176r-8,0v-53,79,-133,149,-229,186v-32,12,-64,17,-95,17v-181,0,-265,-146,-264,-338v1,-204,61,-387,148,-513v83,-120,210,-227,397,-227xm336,-328v-1,71,33,149,102,146v82,-4,132,-60,174,-108v16,-19,28,-37,37,-54r99,-463v-39,-24,-76,-31,-142,-31v-100,0,-158,78,-196,155v-45,91,-74,220,-74,355","w":1038},"e":{"d":"500,-182v105,2,213,-42,270,-80r53,164v-89,72,-229,127,-397,127v-223,0,-356,-143,-356,-369v0,-223,79,-401,185,-520v55,-61,119,-106,187,-142v141,-75,359,-64,453,30v46,46,76,107,76,192v0,128,-73,203,-163,253v-117,64,-298,92,-484,83v-4,28,-9,51,-9,79v-1,121,67,181,185,183xm360,-604v129,0,263,-10,334,-68v41,-34,49,-98,14,-144v-16,-20,-46,-32,-94,-32v-60,0,-112,23,-156,70v-44,47,-77,105,-98,174","w":954},"f":{"d":"879,-1221v-55,-22,-121,-30,-193,-30v-102,0,-120,62,-137,159r-12,68r204,0r-41,211r-196,0r-152,883v-32,203,-114,357,-350,356v-103,-1,-204,-12,-266,-57r69,-187v50,20,87,22,158,23v44,0,77,-18,101,-53v24,-35,42,-91,55,-168r129,-797r-144,0r46,-211r131,0v0,0,32,-196,63,-270v46,-110,130,-170,287,-168v116,1,225,19,307,55","w":602},"g":{"d":"313,16v-158,-2,-250,-136,-247,-305v6,-336,141,-580,362,-701v74,-40,155,-59,244,-59v146,0,276,29,368,70r-206,979v-58,262,-187,435,-502,434v-150,0,-261,-37,-352,-92r94,-186v0,0,121,55,173,60v28,3,60,7,97,7v152,-2,218,-106,250,-237r39,-160r-8,0v-58,88,-168,191,-312,190xm326,-338v0,76,32,143,100,143v60,0,106,-41,142,-75v41,-38,79,-97,104,-148r88,-399v-30,-16,-82,-21,-127,-21v-106,0,-173,71,-219,146v-53,87,-88,214,-88,354","w":1034},"h":{"d":"838,-1053v143,0,208,68,206,224v0,51,-8,115,-24,192r-135,637r-252,0r123,-582v13,-60,20,-110,20,-149v0,-66,-22,-100,-84,-100v-67,0,-122,47,-164,85v-45,41,-93,102,-118,156r-121,590r-252,0r303,-1434r252,0r-129,590r8,0v63,-76,146,-150,249,-188v36,-14,75,-21,118,-21","w":1081},"i":{"d":"272,-1024r252,0r-217,1024r-252,0xm311,1315v0,45,15,80,44,105v29,24,67,36,112,36v44,0,81,-12,112,-37v30,-25,45,-59,45,-104v0,-44,-15,-79,-46,-104v-31,-25,-68,-37,-111,-37v-45,0,-83,13,-112,38v-29,25,-44,59,-44,103","w":524},"j":{"d":"252,-1024r254,0r-227,1067v-26,123,-70,215,-131,281v-84,91,-227,117,-377,84r49,-218v154,12,197,-97,223,-223xm289,1315v0,45,15,80,44,105v29,24,67,36,112,36v44,0,81,-12,112,-37v30,-25,45,-59,45,-104v0,-44,-15,-79,-46,-104v-31,-25,-68,-37,-111,-37v-45,0,-83,13,-112,38v-29,25,-44,59,-44,103","w":499},"k":{"d":"459,-424r-82,0r-88,424r-252,0r303,-1434r252,0r-180,846r75,-26r289,-410r281,0r-305,412r-123,77r92,78r156,457r-271,0","w":952},"l":{"d":"248,25v-119,-3,-181,-37,-180,-160v0,-31,3,-68,12,-109r252,-1190r252,0r-240,1131v-14,52,-7,118,45,117v38,0,74,-8,109,-23r-6,182v-48,31,-162,53,-244,52","w":557},"m":{"d":"1260,-664v14,-78,15,-170,-70,-167v-56,2,-97,36,-131,68v-37,35,-75,84,-96,130r-132,633r-251,0v0,0,93,-437,136,-658v5,-29,7,-56,7,-79v0,-63,-24,-94,-72,-94v-93,0,-143,71,-189,127v-18,22,-31,44,-42,65r-131,639r-252,0r217,-1024r197,0r-13,180r8,0r67,-69v73,-71,162,-138,302,-140v114,-2,167,95,162,217v65,-81,148,-158,255,-198v35,-13,70,-19,107,-19v138,0,196,57,195,209v0,59,-11,135,-31,230r-129,614r-252,0v0,0,97,-440,138,-664","w":1570},"n":{"d":"825,-1053v132,0,206,72,203,217v0,52,-6,95,-16,142r-148,694r-252,0r136,-635v18,-88,30,-201,-74,-196v-101,5,-155,74,-205,136v-20,25,-36,51,-49,77r-131,618r-252,0r217,-1024r190,0r-10,180r8,0v88,-104,193,-209,383,-209","w":1067},"o":{"d":"90,-202v-41,-137,-15,-302,26,-425v56,-168,158,-296,300,-373v109,-59,265,-72,378,-22v121,53,188,166,189,334v2,217,-68,397,-166,518v-87,107,-212,196,-387,199v-128,2,-216,-48,-275,-115v-29,-34,-51,-73,-65,-116xm723,-672v0,-106,-25,-170,-131,-170v-33,0,-65,14,-96,41v-99,90,-166,249,-166,434v0,123,44,184,133,185v33,0,65,-14,96,-43v98,-94,164,-258,164,-447","w":1015},"p":{"d":"455,29v-61,1,-137,-13,-170,-37r-88,418r-250,0r303,-1434r186,0r-10,180r8,0v60,-81,139,-153,244,-190v34,-12,71,-19,110,-19v69,0,125,24,168,72v43,48,64,123,64,225v1,234,-69,431,-169,566v-51,69,-112,124,-181,162v-69,38,-140,57,-215,57xm760,-707v1,-71,-35,-135,-103,-135v-59,1,-101,34,-137,64v-39,34,-73,85,-98,131r-94,430v72,49,165,47,235,-8v122,-94,194,-268,197,-482","w":1036},"q":{"d":"729,410r-246,0r125,-570r-8,0v-45,75,-113,139,-201,172v-64,25,-157,22,-210,-9v-88,-51,-130,-153,-130,-288v0,-223,82,-412,188,-539v100,-120,247,-222,447,-225v117,-2,265,32,336,72xm319,-317v-1,72,26,135,89,135v65,0,112,-45,150,-83v41,-42,81,-103,106,-157r81,-395v-34,-15,-74,-21,-120,-21v-41,0,-80,14,-117,44v-117,94,-184,270,-189,477","w":1026},"r":{"d":"762,-805v-84,-28,-167,-11,-232,40v-47,36,-83,78,-108,126r-133,639r-252,0r217,-1024r186,0r2,180r9,0v30,-55,66,-101,109,-139v67,-59,162,-72,265,-41","w":702},"s":{"d":"729,-307v3,233,-171,335,-405,336v-122,1,-255,-25,-326,-68r80,-201v55,31,152,58,241,58v89,0,150,-31,150,-113v0,-66,-45,-94,-87,-127v0,0,-114,-72,-162,-118v-48,-47,-89,-108,-87,-203v3,-158,96,-243,219,-287v91,-32,260,-26,350,-6v52,12,93,27,123,45r-69,192v-55,-24,-140,-44,-221,-43v-78,1,-142,21,-142,94v0,58,45,83,87,111r81,54v84,61,167,132,168,276","w":811},"t":{"d":"307,29v-150,3,-235,-80,-214,-237v2,-15,3,-31,7,-48r119,-557r-137,0r49,-211r133,0r41,-193r268,-75r-57,268r240,0r-47,211r-238,0r-100,463v-8,37,-12,67,-13,90v0,59,25,78,82,78v60,0,95,-13,138,-35r0,188v-69,37,-168,55,-271,58","w":655},"u":{"d":"295,29v-142,0,-215,-66,-215,-226v0,-51,7,-106,20,-165r142,-662r252,0r-134,633v-8,41,-12,75,-12,102v1,54,19,89,74,86v93,-5,151,-68,200,-123v19,-22,33,-45,46,-67r131,-631r252,0r-129,614v-25,119,-42,267,-39,410r-203,0r-10,-184r-8,0v-63,82,-144,157,-252,194v-36,12,-74,19,-115,19","w":1048},"v":{"d":"428,-487r4,157r6,0r62,-162r280,-532r285,0r-627,1034r-155,0r-201,-1034r278,0","w":917},"w":{"d":"911,-1024r66,524r-2,170r10,0r62,-172r237,-522r246,0r-522,1034r-187,0r-71,-573r0,-129r-9,0r-53,131r-307,571r-193,0r-94,-1034r258,0r33,514r-12,182r10,0r70,-184r270,-512r188,0","w":1388},"x":{"d":"340,-524r-184,-500r284,0r78,219r27,143r90,-143r178,-219r293,0r-399,492r204,532r-278,0r-98,-246r-31,-151r-92,151r-203,246r-293,0","w":1015},"y":{"d":"33,188v60,24,102,8,151,-36v34,-32,69,-83,103,-152r-193,-1024r289,0r59,575r2,160r13,0r55,-162r279,-573r268,0r-492,920r-115,210v-63,111,-129,211,-224,275v-40,26,-83,39,-128,39v-60,0,-105,-10,-135,-31","w":925},"z":{"d":"18,-221r461,-490r146,-92r-484,0r49,-221r762,0r-47,221r-471,498r-131,84r479,0r-47,221r-762,0","w":890},"{":{"d":"416,-475v74,13,114,98,92,201r-84,397v-17,86,0,123,78,123r96,0r-49,225r-234,0v-139,0,-185,-94,-153,-248r88,-420v30,-131,-7,-179,-117,-182r45,-205v114,-3,169,-68,191,-174r90,-428v29,-135,101,-251,260,-250r233,0r-47,226r-98,0v-83,3,-111,45,-127,123r-84,399v-16,104,-88,172,-176,192","w":729},"|":{"d":"193,-1434r217,0r0,1700r-217,0r0,-1700","w":475},"}":{"d":"385,-489v-75,-13,-118,-96,-96,-201r84,-397v18,-82,0,-123,-76,-123r-94,0r45,-226r231,0v140,0,191,95,158,248r-90,420v-30,131,9,179,119,182r-43,205v-104,0,-168,58,-193,174r-92,428v-28,135,-109,251,-266,250r-226,0r50,-225r98,0v83,-3,106,-45,123,-123r86,-399v17,-104,86,-173,176,-193","w":735},"~":{"d":"412,-670v-102,0,-158,41,-230,101r-90,-205v64,-52,122,-88,173,-108v87,-34,166,-40,253,-12v67,21,192,74,192,74v93,34,191,14,251,-42r96,211v-79,58,-143,100,-250,100v-124,0,-200,-67,-295,-101v-32,-11,-65,-18,-100,-18","w":1034},"\u00a1":{"d":"242,-2458r-263,0r144,674r121,334r159,0r-18,-334xm534,-1159v0,-48,-15,-86,-45,-114v-30,-28,-69,-42,-118,-42v-51,0,-91,14,-121,42v-30,28,-45,66,-45,114v0,48,15,86,45,115v30,29,70,43,121,43v49,0,89,-14,119,-43v29,-29,44,-67,44,-115","w":579},"\u00a2":{"d":"715,-201v54,-12,112,-32,151,-55r49,172v-56,46,-147,82,-233,98r-39,191r-235,0r38,-187v-163,-35,-253,-151,-256,-342v-3,-207,58,-372,144,-493v77,-109,195,-196,340,-225r39,-187r235,0r-41,189v63,12,112,28,148,47r-92,200v-31,-16,-72,-27,-115,-32xm670,-815v-107,46,-176,144,-212,265v-24,80,-31,216,9,278v19,32,44,53,74,65"},"\u00a3":{"d":"678,-606v16,142,-54,291,-135,342r-97,61r-2,13r138,-31r446,0r-49,221r-918,0r50,-223r4,0v146,-11,237,-97,285,-209v17,-41,26,-86,26,-133v0,0,1,-28,-2,-41r-240,0r47,-211r144,0v-14,-62,-28,-121,-27,-203v3,-239,143,-361,330,-416v161,-48,393,-25,500,45r-86,199v-75,-37,-229,-73,-333,-32v-89,35,-153,109,-155,231v-1,75,12,121,29,176r287,0r-48,211r-194,0"},"\u00a5":{"d":"229,-690r174,0r-210,-744r311,0r137,539r-6,152r10,0r62,-156r354,-535r291,0r-527,744r179,0r-35,164r-256,0r-25,116r256,0r-35,164r-256,0r-51,246r-266,0r51,-246r-254,0r35,-164r254,0r24,-116r-251,0"},"\u00a7":{"d":"725,-1251v-83,0,-150,34,-150,106v0,59,62,75,111,95v66,27,149,46,205,86v60,41,110,99,110,200v0,133,-86,227,-161,283r-105,32v58,43,92,86,90,183v-1,94,-39,167,-113,218v-74,51,-171,77,-292,77v-135,0,-259,-41,-334,-90r88,-191v62,32,147,70,250,70v83,0,156,-31,158,-105v0,-22,-11,-40,-32,-55v-48,-34,-182,-87,-182,-87v-74,-33,-141,-72,-182,-137v-50,-76,-37,-209,17,-276v34,-42,71,-81,114,-112r99,-33v-53,-38,-92,-97,-92,-176v0,-155,113,-232,240,-275v98,-33,263,-28,354,0v50,16,93,33,129,52r-76,194v-53,-30,-160,-59,-246,-59xm539,-883v-52,31,-127,83,-125,164v0,42,15,75,46,98v31,23,80,46,148,68v53,-31,134,-81,133,-164v-2,-118,-118,-127,-202,-166","w":1034},"\u00a8":{"d":"504,-1194v-80,0,-135,-55,-135,-139v0,-86,53,-144,135,-144v81,0,135,58,135,144v0,84,-55,139,-135,139xm930,-1194v-80,0,-135,-57,-135,-141v0,-84,54,-142,135,-142v80,0,135,58,135,142v0,84,-55,141,-135,141","w":501},"\u00a9":{"d":"215,-288v-67,-178,-68,-440,7,-612v77,-178,208,-310,390,-381v176,-68,406,-69,581,0v180,71,317,203,392,381v74,175,74,437,0,612v-75,178,-212,310,-392,381v-176,70,-423,67,-597,0v-181,-69,-312,-200,-381,-381xm404,-824v-51,132,-51,328,0,460v52,134,152,229,284,281v127,51,304,50,432,0v196,-77,324,-243,324,-511v0,-268,-128,-435,-324,-511v-128,-50,-305,-51,-432,0v-132,52,-232,147,-284,281xm969,-418v57,0,92,-10,131,-31r59,181v-60,39,-160,63,-260,63v-227,0,-340,-159,-340,-389v0,-231,123,-388,340,-389v106,0,176,27,246,65r-66,179v-42,-20,-73,-31,-125,-31v-95,0,-129,63,-129,176v0,117,48,176,144,176","w":1712},"\u00aa":{"d":"506,-1298v-97,0,-165,21,-230,45r-28,-127v87,-43,214,-70,354,-70v82,0,140,17,173,51v33,34,50,76,50,127v0,175,-83,319,-90,494r-184,0r-6,-94r-6,0v-45,50,-121,106,-226,102v-116,-4,-190,-63,-190,-174v0,-149,105,-206,231,-232v73,-15,160,-15,240,-8v22,-79,-8,-114,-88,-114xm352,-991v0,36,22,61,60,61v77,0,107,-36,141,-71r14,-72v-90,-9,-214,-9,-215,82","w":821},"\u00ab":{"d":"61,-530r410,-471r123,131r-217,258r-113,80r74,75r123,252r-172,127xm442,-530r410,-471r123,131r-217,258r-113,80r74,75r123,252r-172,127","w":952},"\u00ac":{"d":"135,-844r905,0r0,463r-245,0r0,-233r-660,0r0,-230","w":1079},"\u00ae":{"d":"285,-677v-58,-138,-59,-353,1,-491v61,-139,168,-241,311,-294v138,-53,312,-52,449,0v209,80,351,253,351,538v0,287,-144,460,-355,540v-138,52,-313,50,-450,0v-143,-52,-248,-153,-307,-293xm460,-1088v-38,96,-36,245,4,337v59,134,172,223,355,223v186,0,300,-83,355,-220v38,-94,40,-255,0,-348v-57,-134,-172,-221,-355,-221v-188,0,-305,90,-359,229xm1022,-1051v0,88,-66,135,-145,140r57,28r133,224r-125,0r-129,-213r-98,-31r0,244r-107,0r0,-531v45,-14,143,-20,205,-20v112,2,209,41,209,159xm784,-965v71,-1,124,-14,125,-82v1,-47,-39,-71,-118,-71v-27,1,-58,-1,-76,8r0,145r69,0","w":1419},"\u00af":{"d":"641,-1348r631,0r-39,189r-631,0","w":641},"\u00b0":{"d":"274,-980v-35,-79,-36,-200,0,-280v51,-116,150,-202,310,-202v161,0,264,79,315,196v35,81,36,206,0,286v-51,115,-155,194,-315,194v-159,0,-260,-80,-310,-194xm586,-1268v-76,0,-133,65,-133,146v0,82,56,141,133,141v75,0,137,-60,137,-141v0,-82,-61,-146,-137,-146","w":897},"\u00b1":{"d":"119,-1059r332,0r0,-338r239,0r0,338r332,0r0,230r-332,0r0,217r-239,0r0,-217r-332,0r0,-230xm119,-518r903,0r0,229r-903,0r0,-229","w":1034},"\u00b4":{"d":"829,-1475r256,0r-12,62r-272,254r-142,0","w":487},"\u00b5":{"d":"426,25v-102,0,-143,-50,-168,-123r-10,0r-8,235r-58,273r-252,0r303,-1434r254,0r-120,559v-9,42,-14,82,-15,121v1,95,41,147,137,147v138,-2,211,-83,261,-182r139,-645r252,0r-148,690v-18,103,-44,217,-41,334r-184,0r-35,-152r-6,0v-62,86,-156,177,-301,177","w":1110},"\u03bc":{"d":"426,25v-102,0,-143,-50,-168,-123r-10,0r-8,235r-58,273r-252,0r303,-1434r254,0r-120,559v-9,42,-14,82,-15,121v1,95,41,147,137,147v138,-2,211,-83,261,-182r139,-645r252,0r-148,690v-18,103,-44,217,-41,334r-184,0r-35,-152r-6,0v-62,86,-156,177,-301,177","w":1110},"\u00b6":{"d":"815,-1434r219,0r0,1700r-219,0r0,-1700xm438,-602v-105,-2,-174,-60,-224,-126v-76,-100,-115,-297,-60,-448v36,-99,102,-180,194,-224v46,-23,99,-34,156,-34r151,0r0,1700r-217,0r0,-868","w":1101},"\u00b7":{"d":"150,-377v0,48,15,86,45,114v30,28,69,42,118,42v51,0,91,-14,121,-42v30,-28,45,-66,45,-114v0,-48,-15,-86,-45,-115v-30,-29,-70,-43,-121,-43v-49,0,-89,14,-119,43v-29,29,-44,67,-44,115","w":518},"\u00b8":{"d":"795,88v86,3,143,57,143,141v0,207,-255,231,-455,189r41,-99v69,7,118,3,144,-12v26,-15,39,-32,39,-51v0,-44,-53,-64,-160,-61r153,-195r162,0","w":743},"\u00ba":{"d":"397,-762v-163,3,-274,-100,-274,-260v0,-151,58,-256,137,-328v69,-63,167,-107,285,-108v172,-2,276,79,276,246v0,226,-101,364,-265,424v-51,19,-104,26,-159,26xm348,-1034v0,58,28,101,86,100v45,0,84,-23,115,-70v31,-47,47,-108,47,-182v0,-67,-29,-100,-88,-100v-56,0,-88,37,-114,74v-28,42,-46,108,-46,178","w":817},"\u00bb":{"d":"575,-549r-409,471r-127,-125r221,-260r113,-84r-72,-80r-127,-254r176,-120xm952,-549r-409,471r-127,-125r221,-260r113,-84r-72,-80r-127,-254r176,-120","w":952},"\u00bf":{"d":"680,-1454v-8,-74,-25,-137,-50,-189v-25,-53,-55,-98,-88,-137v-34,-39,-70,-74,-107,-103v-37,-29,-71,-58,-102,-85v-31,-27,-56,-55,-77,-84v-21,-29,-31,-62,-31,-100v0,-37,11,-65,32,-86v21,-21,59,-31,114,-31v42,0,88,9,139,28v51,18,95,40,133,66r64,-192v-56,-34,-117,-63,-182,-87v-66,-24,-146,-36,-240,-36v-115,0,-199,24,-252,73v-53,48,-80,113,-80,195v0,73,11,134,33,184v21,49,49,93,84,131v34,37,72,71,113,100v41,29,80,60,117,93v37,33,71,70,101,111v30,41,51,90,62,149r217,0xm772,-1163v0,-48,-15,-86,-45,-114v-30,-28,-70,-42,-119,-42v-51,0,-91,14,-121,42v-30,28,-45,66,-45,114v0,48,15,86,45,115v30,29,70,43,121,43v49,0,89,-14,119,-43v30,-29,45,-67,45,-115","w":880},"\u00c1":{"d":"903,-1782r321,0r-12,62r-352,180r-213,0xm793,317r-418,0r-170,-317r-283,0r797,1444r196,0r187,-1444r-268,0xm492,543r290,0r-32,319r2,225r-11,0r-82,-227","w":1191},"\u00c9":{"d":"869,-1782r321,0r-12,62r-352,180r-213,0xm344,1434r266,0r541,0r-53,-250r-541,0r-72,-334r494,0r-55,-250r-490,0r-76,-350r551,0r-51,-250r-551,0r-266,0","w":1030},"\u00cd":{"d":"623,-1782r321,0r-12,62r-352,180r-213,0xm375,1434r264,0r-303,-1434r-264,0","w":569},"\u00d3":{"d":"1006,-1782r321,0r-12,62r-352,180r-213,0xm119,537v0,127,17,246,52,359v35,113,84,211,149,295v64,84,141,150,232,199v91,48,192,72,304,72v74,0,141,-11,200,-33v59,-21,110,-55,152,-101v41,-45,74,-103,97,-173v23,-69,34,-152,34,-248v0,-129,-17,-250,-52,-363v-35,-113,-84,-212,-148,-297v-63,-85,-139,-153,-227,-202v-88,-49,-185,-74,-291,-74v-161,0,-285,48,-371,143v-86,95,-130,236,-131,423xm399,545v0,-98,19,-177,57,-236v37,-59,99,-88,185,-88v63,0,120,19,171,57v51,37,95,88,132,151v37,63,65,136,85,218v20,82,30,167,30,256v0,108,-21,187,-64,236v-42,49,-100,73,-174,73v-61,0,-118,-18,-169,-53v-51,-35,-96,-83,-133,-144v-37,-61,-67,-132,-88,-213v-21,-81,-32,-167,-32,-257","w":1318},"\u00da":{"d":"998,-1782r321,0r-12,62r-352,180r-213,0xm1087,1434r250,0r-194,-926v-21,-98,-47,-181,-80,-249v-33,-67,-72,-122,-119,-165v-47,-42,-101,-72,-164,-91v-63,-19,-135,-28,-217,-28v-79,0,-146,9,-201,28v-54,19,-99,45,-134,79v-35,34,-60,74,-76,121v-15,46,-23,97,-23,153v0,27,2,55,5,84v3,29,9,59,16,90r192,904r264,0r-188,-902v-11,-52,-16,-94,-17,-126v0,-65,17,-112,52,-140v34,-27,84,-41,149,-41v82,0,146,24,191,72v45,48,79,125,102,231","w":1232},"\u00dd":{"d":"924,-1782r321,0r-12,62r-352,180r-213,0xm473,532r-256,902r295,0r133,-539r-4,-152r8,0r64,156r358,535r305,0r-637,-899r-112,-535r-265,0","w":1165},"\u00e1":{"d":"909,410v-11,-52,-18,-105,-23,-158v-5,-53,-7,-104,-7,-152v0,-19,0,-38,1,-55v1,-17,2,-32,3,-47r-187,0r-28,176r-9,0v-15,-25,-35,-49,-59,-73v-23,-23,-49,-45,-78,-65v-29,-20,-59,-36,-91,-48v-32,-11,-65,-17,-99,-17v-90,0,-157,29,-200,88v-43,59,-64,137,-64,236v0,100,13,196,38,287v25,91,64,172,117,242v53,69,121,125,202,167v81,41,178,62,290,62v48,0,100,-5,157,-14v56,-9,111,-20,164,-35xm428,182v25,0,48,5,70,16v21,10,41,23,60,40v19,16,35,34,50,53v14,19,26,36,37,53r103,477v-15,7,-33,12,-53,16v-19,3,-39,5,-58,5v-49,0,-93,-15,-131,-44v-38,-29,-70,-68,-97,-115v-27,-47,-47,-101,-61,-160v-13,-59,-20,-119,-20,-179v0,-44,7,-82,22,-114v14,-32,40,-48,78,-48xm782,1475r256,0r-12,-62r-272,-254r-142,0","w":1030},"\u00e9":{"d":"823,98v-42,-35,-97,-65,-164,-90v-67,-25,-144,-37,-233,-37v-111,0,-198,33,-261,98v-63,65,-95,155,-95,271v0,109,17,208,51,296v34,88,79,163,134,224v55,61,118,109,188,143v69,33,139,50,208,50v56,0,104,-7,145,-22v40,-14,73,-34,99,-59v26,-25,45,-54,58,-87v12,-33,18,-68,18,-105v0,-56,-14,-105,-43,-148v-29,-42,-69,-77,-120,-105v-51,-28,-113,-49,-186,-64v-72,-14,-151,-21,-237,-21v-11,0,-21,0,-31,1v-9,1,-19,1,-30,1v-3,-17,-5,-31,-7,-44v-1,-13,-2,-24,-2,-35v0,-61,16,-107,49,-138v32,-30,77,-45,136,-45v60,0,114,9,162,27v47,18,83,36,108,53xm360,604v38,0,79,1,122,4v43,3,83,9,120,20v37,10,67,25,92,45v25,19,37,46,37,81v0,21,-8,42,-23,63v-15,21,-46,31,-94,31v-60,0,-112,-23,-157,-70v-44,-47,-76,-105,-97,-174xm749,1475r256,0r-12,-62r-272,-254r-142,0","w":954},"\u00ed":{"d":"272,-1024r252,0r-217,1024r-252,0xm487,1475r256,0r-12,-62r-272,-254r-142,0","w":524},"\u00f3":{"d":"70,332v0,108,15,206,46,295v31,89,72,164,123,227v51,63,110,112,178,147v67,35,138,52,212,52v65,0,121,-10,166,-31v45,-21,81,-48,109,-82v28,-34,48,-73,61,-117v12,-43,18,-88,18,-135v0,-107,-15,-204,-45,-292v-30,-88,-70,-163,-121,-226v-51,-63,-109,-112,-176,-147v-67,-35,-137,-52,-211,-52v-64,0,-119,11,-164,32v-45,21,-82,49,-111,83v-29,34,-51,73,-65,116v-13,43,-20,86,-20,130xm330,367v0,-123,44,-184,133,-185v33,0,65,14,96,43v31,29,59,66,84,113v25,47,44,99,59,158v14,59,21,117,21,176v0,55,-9,97,-28,126v-18,29,-52,44,-103,44v-33,0,-65,-14,-96,-41v-31,-27,-59,-63,-84,-108v-25,-44,-45,-95,-60,-152v-15,-57,-22,-115,-22,-174xm745,1475r256,0r-12,-62r-272,-254r-142,0","w":1015},"\u00f7":{"d":"119,-807r905,0r0,229r-905,0r0,-229xm569,-932v-96,0,-163,-63,-163,-158v0,-95,68,-155,163,-155v97,0,166,59,166,155v0,96,-68,158,-166,158xm569,-139v-96,0,-163,-63,-163,-158v0,-95,68,-156,163,-156v98,0,166,59,166,156v0,96,-68,158,-166,158","w":1034},"\u00fa":{"d":"494,1024r-134,-633v-8,-41,-12,-75,-12,-102v0,-27,6,-49,17,-64v11,-15,30,-22,57,-22v23,0,47,6,71,18v23,11,46,26,68,45v22,18,42,38,61,61v18,22,33,44,46,66r131,631r252,0r-129,-614v-7,-27,-13,-60,-18,-97v-5,-37,-9,-75,-13,-114v-4,-39,-7,-76,-8,-111v-1,-18,-1,-34,-1,-49v0,-15,0,-28,1,-39r-203,0r-10,184r-8,0v-19,-26,-42,-52,-67,-77v-25,-25,-53,-47,-84,-68v-31,-21,-64,-37,-101,-50v-36,-12,-74,-18,-115,-18v-64,0,-116,16,-156,49v-39,32,-59,91,-59,177v0,51,7,106,20,165r142,662r252,0xm720,1475r256,0r-12,-62r-272,-254r-142,0","w":1048},"\u00fd":{"d":"442,449r2,-160r13,0r55,162r279,573r268,0r-492,-920r-115,-210v-36,-64,-73,-119,-110,-166v-37,-47,-75,-83,-115,-109v-39,-26,-82,-39,-127,-39v-60,0,-105,10,-135,31r68,201v8,-4,17,-7,26,-9v9,-1,17,-2,25,-2v33,0,66,16,101,48v34,31,68,82,102,151r-193,1024r289,0xm677,1475r256,0r-12,-62r-272,-254r-142,0","w":925},"\u010c":{"d":"991,-1509r-172,0r-207,-193r17,-80r188,0r84,92r25,62r51,-60r131,-94r201,0r-17,82xm989,59v-91,-59,-203,-88,-336,-88v-90,0,-169,15,-236,45v-67,30,-122,72,-167,125v-44,53,-77,116,-99,187v-21,71,-32,147,-32,229v0,161,23,299,68,413v45,114,104,208,178,281v73,73,158,126,253,160v95,34,192,51,291,51v78,0,145,-6,200,-18v55,-11,99,-24,130,-39r-104,-238v-27,15,-60,27,-99,34v-38,7,-86,11,-145,11v-69,0,-134,-14,-195,-43v-60,-29,-112,-70,-156,-123v-43,-53,-78,-117,-103,-194v-25,-77,-38,-163,-38,-260v0,-116,29,-207,87,-273v58,-65,136,-98,233,-98v61,0,112,7,153,20v40,13,78,29,113,48","w":1099},"\u010d":{"d":"805,793v-26,15,-53,26,-81,31v-28,5,-58,7,-91,7v-37,0,-73,-12,-108,-36v-35,-23,-66,-55,-94,-94v-28,-39,-50,-84,-67,-136v-16,-52,-24,-105,-24,-159v0,-69,15,-122,45,-159v30,-36,70,-54,119,-54v41,0,79,6,114,19v35,13,66,27,93,44r47,-172v-44,-33,-95,-60,-153,-81v-58,-21,-116,-32,-173,-32v-65,0,-121,10,-167,29v-45,19,-82,45,-111,78v-29,33,-50,70,-64,113v-13,42,-20,86,-20,133v0,115,16,217,49,307v33,90,76,166,130,228v54,62,116,110,185,144v69,33,139,50,211,50v64,0,115,-6,153,-19v37,-12,71,-26,101,-41xm710,1126r-178,0r-143,373r211,0r47,-135r10,-100r58,100r114,135r201,0","w":843},"\u010e":{"d":"878,-1509r-172,0r-207,-193r17,-80r188,0r84,92r25,62r51,-60r131,-94r201,0r-17,82xm344,1434v29,4,60,7,94,10v34,3,66,5,96,6v29,1,55,2,76,2v12,0,29,0,52,1v23,1,48,1,75,1v83,0,159,-11,228,-32v68,-21,126,-53,175,-97v48,-43,85,-99,112,-168v27,-68,40,-149,40,-244v0,-60,-5,-125,-15,-194v-10,-69,-27,-138,-52,-207v-25,-69,-59,-136,-102,-201v-43,-64,-97,-121,-162,-170v-65,-49,-142,-88,-233,-119v-91,-30,-196,-45,-316,-45v-21,0,-41,1,-62,2v-21,1,-35,1,-43,1v-27,1,-58,3,-91,5r-100,6v-33,2,-58,4,-75,7xm356,233v5,-1,14,-2,26,-3v11,-1,24,-1,38,-2v13,-1,26,-1,39,-1r28,0v95,0,177,22,244,65v67,43,121,97,163,162v41,65,71,135,90,211v19,75,28,146,28,212v0,109,-23,191,-69,246v-46,54,-122,81,-228,81v-27,0,-56,-1,-86,-2v-30,-1,-53,-3,-70,-6","w":1269},"\u010f":{"d":"1106,-1079v63,-94,114,-227,141,-355r221,0v-39,133,-121,257,-200,352v-26,31,-48,53,-66,66xm905,360v-12,-57,-21,-111,-27,-160v-5,-49,-8,-95,-8,-139r0,-31v0,-10,1,-21,2,-32r-172,0r-28,176r-8,0v-15,-25,-35,-49,-59,-73v-24,-23,-50,-45,-79,-65v-29,-20,-59,-36,-91,-48v-32,-11,-64,-17,-95,-17v-85,0,-150,30,-196,91v-45,60,-68,142,-68,247v0,95,13,188,39,277v26,89,63,168,110,237v47,69,104,124,172,165v67,41,142,61,224,61v39,0,72,-3,98,-8v26,-5,51,-12,74,-23r88,416r252,0xm748,807v-17,11,-36,19,-57,24v-21,5,-50,7,-85,7v-41,0,-78,-14,-112,-42v-33,-28,-62,-66,-85,-113v-23,-47,-41,-102,-54,-163v-13,-61,-19,-125,-19,-192v0,-39,9,-74,27,-103v17,-29,42,-43,75,-43v21,0,42,5,63,16v21,10,40,23,59,40v19,16,36,34,52,53v15,19,28,36,37,53","w":1038},"\u011a":{"d":"835,-1509r-172,0r-207,-193r17,-80r188,0r84,92r25,62r51,-60r131,-94r201,0r-17,82xm344,1434r266,0r541,0r-53,-250r-541,0r-72,-334r494,0r-55,-250r-490,0r-76,-350r551,0r-51,-250r-551,0r-266,0","w":1030},"\u011b":{"d":"823,98v-42,-35,-97,-65,-164,-90v-67,-25,-144,-37,-233,-37v-111,0,-198,33,-261,98v-63,65,-95,155,-95,271v0,109,17,208,51,296v34,88,79,163,134,224v55,61,118,109,188,143v69,33,139,50,208,50v56,0,104,-7,145,-22v40,-14,73,-34,99,-59v26,-25,45,-54,58,-87v12,-33,18,-68,18,-105v0,-56,-14,-105,-43,-148v-29,-42,-69,-77,-120,-105v-51,-28,-113,-49,-186,-64v-72,-14,-151,-21,-237,-21v-11,0,-21,0,-31,1v-9,1,-19,1,-30,1v-3,-17,-5,-31,-7,-44v-1,-13,-2,-24,-2,-35v0,-61,16,-107,49,-138v32,-30,77,-45,136,-45v60,0,114,9,162,27v47,18,83,36,108,53xm360,604v38,0,79,1,122,4v43,3,83,9,120,20v37,10,67,25,92,45v25,19,37,46,37,81v0,21,-8,42,-23,63v-15,21,-46,31,-94,31v-60,0,-112,-23,-157,-70v-44,-47,-76,-105,-97,-174xm743,1126r-178,0r-143,373r211,0r47,-135r10,-100r58,100r114,135r201,0","w":954},"\u0147":{"d":"962,-1509r-172,0r-207,-193r17,-80r188,0r84,92r25,62r51,-60r131,-94r201,0r-17,82xm547,750r-68,229r-10,0r-18,-229r-158,-750r-252,0r307,1444r184,0r353,-766r63,-223r13,0r14,223r162,756r252,0r-308,-1444r-184,0","w":1292},"\u0148":{"d":"604,0r136,635v8,38,12,71,12,100v0,30,-6,54,-19,71v-12,17,-34,25,-67,25v-25,0,-49,-6,-74,-18v-25,-12,-48,-28,-70,-49v-21,-21,-42,-44,-61,-69v-19,-25,-36,-51,-49,-77r-131,-618r-252,0r217,1024r190,0r-10,-180r8,0v18,22,39,45,63,70v24,24,52,46,83,67v31,21,67,38,106,52v39,13,82,20,131,20v61,0,111,-17,148,-51v37,-33,55,-89,55,-166v0,-21,-1,-43,-3,-66v-2,-23,-6,-49,-13,-76r-148,-694r-252,0xm774,1126r-178,0r-143,373r211,0r47,-135r10,-100r58,100r114,135r201,0","w":1067},"\u0158":{"d":"829,-1509r-172,0r-207,-193r17,-80r188,0r84,92r25,62r51,-60r131,-94r201,0r-17,82xm342,1419v65,12,132,21,199,27v67,5,127,8,180,8v63,0,122,-8,178,-23v56,-15,105,-37,146,-68v41,-31,73,-70,97,-119v24,-49,36,-106,36,-171v0,-75,-11,-141,-34,-196v-23,-55,-53,-101,-90,-139v-37,-37,-79,-67,-126,-88v-47,-21,-95,-35,-144,-42r80,-63r199,-545r-295,0r-197,561r-141,27r-123,-588r-266,0xm471,778r109,0v39,0,78,4,117,12v38,7,72,21,101,41v29,19,53,45,72,78v18,33,27,74,27,125v0,47,-16,87,-47,120v-31,33,-82,50,-152,50v-27,0,-53,-1,-77,-3v-23,-2,-43,-4,-60,-7","w":1196},"\u0159":{"d":"440,1024r2,-180r9,0v30,55,67,101,110,139v43,38,97,57,162,57v29,0,63,-5,102,-16r-63,-219v-13,4,-26,7,-39,10v-12,3,-25,4,-39,4v-56,0,-108,-18,-155,-54v-47,-36,-82,-78,-107,-126r-133,-639r-252,0r217,1024r186,0xm630,1126r-178,0r-143,373r211,0r47,-135r10,-100r58,100r114,135r201,0","w":702},"\u0160":{"d":"878,-1509r-172,0r-207,-193r17,-80r188,0r84,92r25,62r51,-60r131,-94r201,0r-17,82xm1028,1145v-26,17,-64,34,-115,51v-50,17,-106,25,-168,25v-31,0,-62,-3,-92,-10v-30,-6,-57,-16,-80,-30v-23,-13,-41,-31,-55,-53v-13,-21,-20,-47,-20,-77v0,-39,12,-73,37,-101v24,-27,55,-53,93,-77r121,-72v43,-25,83,-53,121,-86v37,-33,68,-72,93,-118v24,-46,36,-102,36,-169v0,-81,-14,-150,-42,-208v-28,-58,-68,-105,-119,-142v-51,-37,-112,-64,-184,-81v-71,-17,-151,-26,-238,-26v-48,0,-94,3,-137,9v-43,5,-83,12,-120,20v-37,8,-69,17,-97,28v-28,10,-50,20,-66,29r137,238v13,-8,31,-17,53,-27v22,-9,47,-18,75,-27v28,-8,58,-15,91,-20v33,-5,66,-8,99,-8v38,0,74,3,108,9v34,6,64,16,89,31v25,14,45,32,60,54v14,22,21,49,21,82v0,37,-12,68,-37,94v-25,26,-56,51,-93,74r-121,73v-43,25,-84,55,-121,89v-37,34,-68,75,-93,124v-25,48,-37,107,-37,177v0,79,14,147,42,203v28,56,66,102,114,137v48,35,104,61,168,78v64,16,133,24,207,24v39,0,79,-2,119,-6v39,-4,77,-10,112,-18v35,-7,68,-16,99,-26v30,-10,55,-21,75,-34","w":1044},"\u0161":{"d":"78,240v27,-15,63,-29,106,-41v43,-11,88,-17,135,-17v48,0,85,9,110,28v25,19,39,47,40,85v0,27,-8,51,-25,71v-16,19,-37,38,-62,56r-81,54v-29,19,-56,40,-81,64v-25,23,-46,52,-63,85v-16,33,-24,72,-24,118v0,45,9,87,27,126v17,38,42,71,75,98v32,27,71,49,117,64v45,15,97,22,154,22v79,0,145,-6,197,-18v51,-11,92,-26,122,-44r-69,-192v-27,12,-61,22,-100,31v-39,8,-79,12,-121,12v-44,0,-79,-8,-104,-23v-25,-15,-38,-38,-38,-71v0,-22,8,-42,25,-59v16,-17,37,-34,62,-52r81,-54v29,-19,56,-41,81,-67v25,-26,46,-56,63,-89v16,-33,24,-73,24,-120v0,-113,-37,-198,-111,-253v-73,-55,-171,-83,-294,-83v-69,0,-133,7,-192,20v-58,13,-103,29,-134,48xm630,1126r-178,0r-143,373r211,0r47,-135r10,-100r58,100r114,135r201,0","w":811},"\u0164":{"d":"874,-1509r-172,0r-207,-193r17,-80r188,0r84,92r25,62r51,-60r131,-94r201,0r-17,82xm1257,1184r-397,0r-252,-1184r-264,0r250,1184r-397,0r53,250r1059,0","w":1120},"\u0165":{"d":"586,-1126v63,-94,114,-227,141,-355r221,0v-39,133,-121,257,-200,352v-26,31,-48,53,-66,66xm131,1024r133,0r41,193r268,75r-57,-268r240,0r-47,-211r-238,0r-100,-463v-8,-37,-12,-67,-13,-90v0,-30,7,-51,21,-62v13,-11,34,-16,61,-16v26,0,50,3,71,9v21,5,44,14,67,26r0,-188v-15,-8,-34,-16,-55,-24v-21,-7,-43,-13,-68,-18v-25,-5,-50,-9,-76,-12v-26,-3,-50,-4,-72,-4v-69,0,-123,16,-161,49v-37,32,-56,81,-56,146v0,13,1,28,3,43v2,15,4,30,7,47r119,557r-137,0","w":655},"\u016e":{"d":"1147,-1581v0,139,-118,180,-265,180v-97,0,-165,-19,-204,-52v-39,-33,-58,-76,-58,-128v0,-143,109,-184,262,-184v95,0,163,16,203,49v40,33,62,78,62,135xm882,-1518v59,0,93,-13,93,-63v0,-45,-31,-68,-93,-68v-60,0,-90,23,-90,68v0,42,30,63,90,63xm1087,1434r250,0r-194,-926v-21,-98,-47,-181,-80,-249v-33,-67,-72,-122,-119,-165v-47,-42,-101,-72,-164,-91v-63,-19,-135,-28,-217,-28v-79,0,-146,9,-201,28v-54,19,-99,45,-134,79v-35,34,-60,74,-76,121v-15,46,-23,97,-23,153v0,27,2,55,5,84v3,29,9,59,16,90r192,904r264,0r-188,-902v-11,-52,-16,-94,-17,-126v0,-65,17,-112,52,-140v34,-27,84,-41,149,-41v82,0,146,24,191,72v45,48,79,125,102,231","w":1232},"\u016f":{"d":"494,1024r-134,-633v-8,-41,-12,-75,-12,-102v0,-27,6,-49,17,-64v11,-15,30,-22,57,-22v23,0,47,6,71,18v23,11,46,26,68,45v22,18,42,38,61,61v18,22,33,44,46,66r131,631r252,0r-129,-614v-7,-27,-13,-60,-18,-97v-5,-37,-9,-75,-13,-114v-4,-39,-7,-76,-8,-111v-1,-18,-1,-34,-1,-49v0,-15,0,-28,1,-39r-203,0r-10,184r-8,0v-19,-26,-42,-52,-67,-77v-25,-25,-53,-47,-84,-68v-31,-21,-64,-37,-101,-50v-36,-12,-74,-18,-115,-18v-64,0,-116,16,-156,49v-39,32,-59,91,-59,177v0,51,7,106,20,165r142,662r252,0xm448,1325v0,57,20,105,59,142v39,37,95,55,169,55v69,0,125,-17,166,-51v41,-33,61,-82,61,-146v0,-53,-20,-99,-61,-136v-40,-37,-95,-56,-166,-56v-73,0,-129,17,-169,52v-39,35,-59,81,-59,140xm596,1325v0,-22,8,-39,24,-51v15,-11,34,-17,56,-17v23,0,43,6,58,17v15,11,22,28,22,51v0,23,-8,41,-24,53v-16,11,-35,17,-56,17v-22,0,-41,-6,-57,-17v-15,-11,-23,-28,-23,-53","w":1048},"\u017d":{"d":"839,-1509r-172,0r-207,-193r17,-80r188,0r84,92r25,62r51,-60r131,-94r201,0r-17,82xm31,250r737,852r119,82r-658,0r52,250r944,0r-51,-250r-742,-858r-115,-76r658,0r-53,-250r-945,0","w":1060},"\u017e":{"d":"18,221r461,490r146,92r-484,0r49,221r762,0r-47,-221r-471,-498r-131,-84r479,0r-47,-221r-762,0xm665,1126r-178,0r-143,373r211,0r47,-135r10,-100r58,100r114,135r201,0","w":890},"\u0192":{"d":"-49,162v61,25,107,39,190,39v49,0,88,-17,115,-51v27,-34,47,-89,59,-166r125,-783r-159,0r0,-225r196,0v0,0,29,-196,57,-270v45,-117,140,-171,304,-168v117,2,228,30,315,65r-66,199v-67,-26,-131,-39,-194,-39v-103,0,-110,47,-129,145r-10,68r243,0r0,225r-282,0r-146,869v-33,205,-121,356,-358,356v-107,0,-223,-19,-303,-49"},"\u02c6":{"d":"934,-1499r168,0r137,373r-197,0r-49,-136r-8,-100r-55,100r-117,136r-199,0","w":882},"\u02c7":{"d":"1001,-1126r-178,0r-143,-373r211,0r47,135r10,100r58,-100r114,-135r201,0","w":882},"\u02d8":{"d":"834,-1354v116,-1,199,-50,251,-121r105,56v-42,115,-134,199,-252,241v-115,42,-260,24,-334,-46v-50,-47,-77,-107,-80,-185r138,-66v29,81,86,121,172,121","w":583},"\u02d9":{"d":"797,-1174v-88,0,-156,-53,-156,-141v0,-90,67,-141,156,-141v86,0,157,53,157,141v0,87,-73,141,-157,141","w":544},"\u02da":{"d":"1010,-1133v-134,0,-228,-67,-228,-192v0,-124,93,-197,228,-197v133,0,228,66,227,197v-1,115,-100,192,-227,192xm1010,-1395v-45,1,-80,22,-80,70v0,44,37,68,80,68v46,0,80,-21,80,-68v0,-45,-38,-70,-80,-70","w":821},"\u02db":{"d":"694,403v-117,0,-194,-56,-194,-159v0,-161,131,-221,258,-264r192,0v-51,17,-95,40,-132,68v-37,28,-56,64,-56,108v0,80,88,80,156,53r10,127v-48,35,-148,67,-234,67","w":782},"\u02dc":{"d":"780,-1272v-62,0,-102,23,-145,58r-8,-134v48,-51,90,-85,126,-104v59,-31,108,-39,167,-14v42,18,86,43,128,61v78,32,152,3,205,-41r9,143v-44,44,-83,74,-117,91v-34,17,-65,26,-94,26v-111,-3,-160,-86,-271,-86","w":714},"\u02dd":{"d":"780,-1434r230,0r-6,33r-195,232r-152,0xm1126,-1434r246,0r-6,33r-279,232r-159,0","w":972},"\u2206":{"d":"2,0r0,-145r494,-1299r161,0r498,1299r0,145r-1153,0xm301,-238r553,0r-229,-610r-47,-205r-11,0r-49,207","w":1206},"\u0394":{"d":"2,0r0,-145r494,-1299r161,0r498,1299r0,145r-1153,0xm301,-238r553,0r-229,-610r-47,-205r-11,0r-49,207","w":1206},"\u03a9":{"d":"825,-1212v-253,1,-383,151,-379,415v3,224,125,345,316,381r0,416r-612,0r0,-225r215,0r174,26r0,-57r-95,-18v-183,-89,-292,-267,-292,-539v0,-322,160,-512,399,-603v163,-62,402,-60,562,2v165,64,280,178,344,341v50,129,61,316,21,459v-43,157,-135,270,-264,338r-100,20r0,57r174,-26r217,0r0,225r-614,0r0,-416v137,-25,237,-103,287,-222v36,-86,39,-215,10,-314v-47,-156,-157,-261,-363,-260","w":1601},"\u2126":{"d":"825,-1212v-253,1,-383,151,-379,415v3,224,125,345,316,381r0,416r-612,0r0,-225r215,0r174,26r0,-57r-95,-18v-183,-89,-292,-267,-292,-539v0,-322,160,-512,399,-603v163,-62,402,-60,562,2v165,64,280,178,344,341v50,129,61,316,21,459v-43,157,-135,270,-264,338r-100,20r0,57r174,-26r217,0r0,225r-614,0r0,-416v137,-25,237,-103,287,-222v36,-86,39,-215,10,-314v-47,-156,-157,-261,-363,-260","w":1601},"\u03c0":{"d":"354,-799v-68,6,-92,39,-131,90r-127,-98v39,-69,87,-123,144,-161v57,-38,121,-56,190,-56r938,0r-47,225r-162,0r-104,480v-10,63,-8,99,41,102v27,2,65,-7,88,-12r2,184v-69,27,-155,57,-262,57v-121,0,-163,-65,-149,-182v2,-15,4,-31,7,-47r123,-582r-272,0r-168,799r-252,0r168,-799r-27,0","w":1363},"\u2013":{"d":"266,-696r858,0r-51,213r-858,0","w":1284},"\u2014":{"d":"266,-696r1170,0r-52,213r-1169,0","w":1595},"\u2018":{"d":"408,-1397v49,-1,79,54,79,105v0,53,-16,92,-47,118v-31,26,-65,39,-102,39v-89,0,-135,-61,-135,-147v0,-166,108,-261,214,-322v31,-18,58,-28,77,-32r38,110v-51,19,-109,74,-124,129","w":440},"\u2019":{"d":"332,-1188v-53,-6,-87,-52,-84,-117v3,-75,47,-116,102,-138v18,-6,35,-9,51,-9v93,-2,133,50,134,137v1,115,-53,197,-110,256v-49,50,-119,87,-183,111r-39,-113v56,-24,111,-64,129,-127","w":442},"\u201a":{"d":"62,2497v0,25,5,46,16,65v10,18,23,33,38,46v15,12,31,21,49,27v17,6,34,9,50,9v48,0,82,-12,103,-37v21,-25,31,-58,31,-100v0,-56,-11,-105,-32,-148v-21,-42,-47,-78,-78,-108v-31,-30,-63,-54,-96,-72v-33,-17,-62,-30,-87,-39r-39,113v29,12,55,28,79,49v23,21,40,47,50,78v-25,3,-45,14,-62,34v-16,20,-23,48,-22,83","w":462},"\u201c":{"d":"823,1292v0,-53,-16,-93,-47,-119v-31,-25,-65,-38,-102,-38v-23,0,-44,4,-61,13v-17,9,-31,20,-42,35v-11,14,-19,30,-24,47v-5,17,-8,34,-8,52v0,55,12,103,35,146v23,42,50,78,83,107v32,29,64,53,96,70v32,17,58,27,77,31r38,-110v-27,-11,-53,-28,-77,-52v-23,-24,-39,-50,-47,-77v23,0,42,-10,57,-31v15,-21,22,-45,22,-74xm487,1292v0,-53,-16,-93,-47,-119v-31,-25,-65,-38,-102,-38v-23,0,-44,4,-61,13v-17,9,-31,20,-42,35v-11,14,-19,30,-24,47v-5,17,-8,34,-8,52v0,55,12,103,35,146v23,42,50,78,83,107v32,29,64,53,96,70v32,17,58,27,77,31r38,-110v-27,-11,-53,-28,-77,-52v-23,-24,-39,-50,-47,-77v23,0,42,-10,57,-31v15,-21,22,-45,22,-74","w":776},"\u201d":{"d":"582,1305v0,25,5,46,16,65v10,18,23,33,38,46v15,12,31,21,49,27v17,6,34,9,50,9v48,0,82,-12,103,-37v21,-25,31,-58,31,-100v0,-56,-11,-105,-32,-148v-21,-42,-47,-78,-78,-108v-31,-30,-63,-54,-96,-72v-33,-17,-62,-30,-87,-39r-39,113v29,12,55,28,79,49v23,21,40,47,50,78v-25,3,-45,14,-62,34v-16,20,-23,48,-22,83xm248,1305v0,25,5,46,16,65v10,18,23,33,38,46v15,12,31,21,49,27v17,6,34,9,50,9v48,0,82,-12,103,-37v21,-25,31,-58,31,-100v0,-56,-11,-105,-32,-148v-21,-42,-47,-78,-78,-108v-31,-30,-63,-54,-96,-72v-33,-17,-62,-30,-87,-39r-39,113v29,12,55,28,79,49v23,21,40,47,50,78v-25,3,-45,14,-62,34v-16,20,-23,48,-22,83","w":776},"\u201e":{"d":"393,2497v0,25,5,46,16,65v10,18,23,33,38,46v15,12,31,21,49,27v17,6,34,9,50,9v48,0,82,-12,103,-37v21,-25,31,-58,31,-100v0,-56,-11,-105,-32,-148v-21,-42,-47,-78,-78,-108v-31,-30,-63,-54,-96,-72v-33,-17,-62,-30,-87,-39r-39,113v29,12,55,28,79,49v23,21,40,47,50,78v-25,3,-45,14,-62,34v-16,20,-23,48,-22,83xm62,2497v0,25,5,46,16,65v10,18,23,33,38,46v15,12,31,21,49,27v17,6,34,9,50,9v48,0,82,-12,103,-37v21,-25,31,-58,31,-100v0,-56,-11,-105,-32,-148v-21,-42,-47,-78,-78,-108v-31,-30,-63,-54,-96,-72v-33,-17,-62,-30,-87,-39r-39,113v29,12,55,28,79,49v23,21,40,47,50,78v-25,3,-45,14,-62,34v-16,20,-23,48,-22,83","w":796},"\u2020":{"d":"227,-1051r226,0r94,33r-8,-110r65,-306r240,0r-66,306r-53,110r109,-33r225,0r-49,230r-230,0r-90,-33r10,102r-159,752r-119,410r-178,0r57,-412r160,-750r49,-102r-104,33r-228,0","w":1003},"\u2021":{"d":"461,-760r49,-92r-104,31r-228,0r49,-230r226,0r94,31r-8,-102r65,-312r240,0r-66,312r-51,102r107,-31r225,0r-49,230r-230,0r-90,-31r10,92r-34,172r-52,92r103,-30r229,0r-47,229r-227,0r-92,-31r8,103r-47,225r-121,410r-174,0r55,-412r47,-223r51,-103r-106,31r-227,0r49,-229r225,0r94,30r-8,-92","w":1003},"\u2022":{"d":"226,-506v-32,-72,-33,-185,0,-258v48,-106,138,-186,286,-186v148,0,241,74,288,181v32,74,33,190,0,263v-47,107,-140,180,-288,180v-148,0,-239,-74,-286,-180","w":925},"\u2026":{"d":"1260,23v-96,0,-164,-63,-164,-158v0,-96,68,-156,164,-156v98,0,165,59,165,156v0,96,-68,158,-165,158xm729,23v-96,0,-164,-63,-164,-158v0,-96,68,-156,164,-156v98,0,166,59,166,156v0,96,-68,158,-166,158xm201,23v-96,0,-164,-63,-164,-158v0,-96,68,-156,164,-156v98,0,166,59,166,156v0,96,-69,158,-166,158","w":1574},"\u2030":{"d":"1312,-1462r150,135r-1180,1356r-149,-142xm113,1022v0,74,13,138,38,193v25,54,59,99,100,136v41,36,86,63,136,81v49,17,99,26,148,26v90,0,159,-21,206,-63v47,-41,70,-102,70,-183v0,-78,-12,-145,-35,-202v-23,-56,-54,-103,-94,-140v-39,-37,-85,-64,-136,-82v-51,-17,-104,-26,-159,-26v-85,0,-152,24,-201,71v-49,47,-73,110,-73,189xm338,1034v-1,-30,6,-54,21,-73v15,-18,36,-27,65,-27v45,0,84,24,115,71v31,47,47,107,47,181v0,67,-29,100,-88,100v-23,0,-45,-7,-64,-21v-19,-13,-36,-31,-51,-54v-15,-22,-26,-49,-35,-80v-8,-31,-11,-63,-10,-97xm801,1782v0,74,13,138,38,193v25,54,59,99,100,136v41,36,86,63,136,81v49,17,99,26,148,26v90,0,159,-21,206,-63v47,-41,70,-102,70,-183v0,-78,-12,-145,-35,-202v-23,-56,-54,-103,-94,-140v-39,-37,-85,-64,-136,-82v-51,-17,-104,-26,-159,-26v-85,0,-152,24,-201,71v-49,47,-73,110,-73,189xm1026,1794v-1,-30,6,-54,21,-73v15,-18,36,-27,65,-27v45,0,84,24,115,71v31,47,47,107,47,181v0,67,-29,100,-88,100v-23,0,-45,-7,-64,-21v-19,-13,-36,-31,-51,-54v-15,-22,-26,-49,-35,-80v-8,-31,-11,-63,-10,-97xm1557,1782v0,74,13,138,38,193v25,54,59,99,100,136v41,36,86,63,136,81v49,17,99,26,148,26v90,0,159,-21,206,-63v47,-41,70,-102,70,-183v0,-78,-12,-145,-35,-202v-23,-56,-54,-103,-94,-140v-39,-37,-85,-64,-136,-82v-51,-17,-104,-26,-159,-26v-85,0,-152,24,-201,71v-49,47,-73,110,-73,189xm1782,1794v-1,-30,6,-54,21,-73v15,-18,36,-27,65,-27v45,0,84,24,115,71v31,47,47,107,47,181v0,67,-29,100,-88,100v-23,0,-45,-7,-64,-21v-19,-13,-36,-31,-51,-54v-15,-22,-26,-49,-35,-80v-8,-31,-11,-63,-10,-97","w":2342},"\u2039":{"d":"82,-530r410,-471r122,131r-217,258r-112,80r73,75r123,252r-172,127","w":614},"\u203a":{"d":"600,-549r-410,471r-127,-125r222,-260r112,-84r-71,-80r-127,-254r176,-120","w":600},"\u2044":{"d":"600,-1464r174,102r-880,1391r-177,-109","w":376},"\u20ac":{"d":"1047,-63v-128,85,-408,128,-577,54v-167,-72,-254,-229,-255,-464r-227,0r104,-191r131,0v5,-41,12,-80,21,-118r-193,0r107,-191r149,0v86,-199,232,-358,422,-435v142,-58,285,-69,434,-34v50,12,90,28,123,47r-108,185v-58,-27,-131,-39,-222,-39v-53,0,-110,14,-169,43v-93,44,-182,135,-234,233r520,0r-94,191r-500,0v-9,37,-16,76,-20,118r454,0r-94,191r-364,0v12,186,103,289,305,289v106,0,181,-30,252,-66"},"\u2122":{"d":"938,-1208r-242,0r0,512r-266,0r0,-512r-242,0r0,-226r750,0r0,226xm1767,-991r35,-211r-12,0r-74,174r-139,240r-160,0r-139,-234r-80,-180r-10,0r47,209r0,297r-227,0r0,-738r266,0r186,308r49,129r2,0r52,-133r172,-304r264,0r0,738r-232,0r0,-295","w":1951},"\u2202":{"d":"496,29v-263,4,-434,-158,-430,-416v4,-275,109,-482,292,-587v113,-65,336,-80,439,-5r10,0v-12,-108,-75,-175,-151,-219v-70,-41,-163,-58,-267,-59v0,0,-39,-1,-57,2r45,-207v455,-24,704,174,704,622v0,283,-53,505,-165,662v-90,125,-224,203,-420,207xm807,-731v-51,-46,-101,-74,-197,-74v-78,0,-143,37,-194,109v-51,72,-76,172,-76,299v0,112,60,202,178,200v124,-2,186,-80,228,-169v44,-93,60,-232,61,-365","w":1107},"\u220f":{"d":"1010,-1184r-543,0r0,1594r-281,0r0,-1844r1092,0r0,1844r-268,0r0,-1594","w":1345},"\u2211":{"d":"455,78r-86,82r737,0r0,250r-985,0r0,-250r381,-598r86,-70r-94,-76r-373,-600r0,-250r985,0r0,250r-713,0r94,84r353,576","w":1034},"\u221a":{"d":"395,-973r162,381r45,236r8,0r37,-240r246,-838r256,0r-471,1444r-137,0r-310,-755r-229,0r0,-228r393,0","w":974},"\u221e":{"d":"1337,-309v-212,-3,-322,-112,-417,-234v-85,139,-210,234,-410,234v-178,0,-285,-103,-342,-235v-42,-97,-40,-247,0,-345v58,-142,169,-239,362,-241v212,-3,333,97,433,212v61,-77,127,-132,197,-164v107,-49,255,-69,370,-20v134,57,219,182,219,373v0,207,-97,334,-248,392v-51,19,-105,28,-164,28xm1499,-723v-5,-107,-58,-180,-168,-180v-42,0,-86,13,-131,38v-45,25,-87,64,-127,115v44,81,101,156,185,196v126,58,248,-38,241,-169xm385,-715v0,101,79,181,178,178v108,-3,198,-88,250,-159v-31,-61,-68,-112,-111,-150v-43,-38,-94,-57,-151,-57v-95,0,-166,89,-166,188","w":1763},"\u222b":{"d":"817,-1202v-62,-20,-103,-35,-182,-35v-48,0,-81,14,-99,42v-18,28,-26,79,-26,153r0,1112v0,249,-89,351,-320,356v-110,2,-240,-20,-313,-49r60,-209v60,23,117,35,172,35v121,0,135,-76,135,-209r0,-1096v2,-251,77,-360,315,-360v112,0,220,21,303,51","w":759},"\u2248":{"d":"59,579v64,52,122,88,173,108v51,19,99,29,143,29v39,0,76,-6,110,-17v34,-11,67,-24,98,-37r94,-37v31,-11,62,-17,93,-17v25,0,50,4,76,12v26,8,53,24,82,47r96,-211v-49,-37,-95,-63,-136,-78v-41,-15,-79,-22,-114,-22v-38,0,-74,6,-107,19v-33,12,-64,26,-95,41v-31,15,-62,28,-93,41v-31,12,-65,18,-100,18v-33,0,-68,-7,-106,-22v-37,-14,-79,-40,-124,-79xm59,975v64,52,122,88,173,108v51,19,99,29,143,29v39,0,76,-6,110,-17v34,-11,67,-24,98,-37r94,-37v31,-11,62,-17,93,-17v25,0,50,4,76,12v26,8,53,24,82,47r96,-211v-49,-37,-95,-63,-136,-78v-41,-15,-79,-22,-114,-22v-38,0,-74,6,-107,19v-33,12,-64,26,-95,41v-31,15,-62,28,-93,41v-31,12,-65,18,-100,18v-33,0,-68,-7,-106,-22v-37,-14,-79,-40,-124,-79","w":1034},"\u2260":{"d":"119,-1004r475,0r102,-231r232,0r-103,231r199,0r0,230r-301,0r-74,164r375,0r0,229r-475,0r-117,264r-229,0r116,-264r-200,0r0,-229r301,0r74,-164r-375,0r0,-230","w":1034},"\u2264":{"d":"1026,-164r-115,197r-782,-441r115,-196xm106,-846r0,-143r791,-473r117,184r-459,285r-186,71r184,64r471,280r-117,185","w":1034},"\u2265":{"d":"1022,-420r-780,453r-115,-195r778,-454xm1083,-1010r0,144r-790,473r-117,-185r459,-284r186,-72r-184,-63r-471,-281r117,-184","w":1034},"\u25ca":{"d":"643,10r-154,0r-403,-710r403,-744r154,0r412,733xm641,-412r164,-272r-187,-322r-55,-172r-10,0r-57,177r-160,274r184,319r58,172r8,0","w":1034},"\ufb01":{"d":"1030,-1182v-64,-41,-165,-63,-274,-63v-153,0,-197,97,-224,221r519,0r-154,1024r-252,0r123,-813r-276,0r-123,813v-38,233,-100,426,-367,426v-103,-1,-204,-12,-266,-57r69,-187v50,20,87,22,158,23v44,0,77,-17,101,-51v24,-34,43,-86,53,-154r123,-813r-136,0r43,-211r134,0r12,-57v27,-130,79,-225,155,-284v76,-59,175,-89,295,-89v158,-1,301,26,390,82","w":1077},"\ufb02":{"d":"-195,182v50,20,87,22,158,23v44,0,77,-17,101,-51v24,-34,43,-86,53,-154r125,-813r-136,0r44,-211r133,0r12,-57v57,-250,173,-379,473,-379v133,0,280,15,393,37r-191,1131v-2,11,-3,23,-3,34v0,48,18,72,55,72v43,-1,66,-8,104,-21r-8,182v-63,29,-150,50,-241,50v-115,0,-185,-38,-185,-152v0,-26,4,-52,8,-78r172,-1028v-34,-9,-103,-17,-149,-16v-60,0,-103,21,-129,63v-26,42,-46,95,-59,162r147,0r-41,211r-147,0r-125,813v-42,230,-98,427,-367,426v-103,-1,-204,-12,-266,-57","w":1144},"\ufb03":{"d":"1476,1024r252,0r-217,-1024r-252,0xm1515,1315v0,45,15,80,44,105v29,24,67,36,112,36v44,0,81,-12,112,-37v30,-25,45,-59,45,-104v0,-44,-15,-79,-46,-104v-31,-25,-68,-37,-111,-37v-45,0,-83,13,-112,38v-29,25,-44,59,-44,103xm1106,813r-152,-883v-8,-51,-20,-97,-35,-140v-15,-43,-35,-80,-62,-113v-27,-32,-61,-57,-102,-76v-41,-18,-91,-27,-151,-27v-49,0,-98,4,-145,12v-47,7,-87,22,-121,45r69,187v23,-9,47,-16,70,-19v23,-3,53,-4,88,-4v44,0,78,18,102,53v23,35,41,91,54,168r129,797r-144,0r46,211r131,0r26,137v9,51,22,95,37,133v15,37,36,69,61,94v25,25,55,43,92,56v36,12,81,18,134,18v22,0,47,-1,75,-3v28,-2,56,-5,83,-10v27,-5,53,-11,79,-18v26,-7,49,-15,70,-24r-59,-186v-31,12,-64,20,-97,24v-33,4,-65,6,-96,6v-44,0,-76,-13,-96,-39v-19,-25,-33,-65,-41,-120r-12,-68r204,0r-41,-211r-196,0xm504,813r-152,-883v-8,-51,-20,-97,-35,-140v-15,-43,-35,-80,-62,-113v-27,-32,-61,-57,-102,-76v-41,-18,-91,-27,-151,-27v-49,0,-98,4,-145,12v-47,7,-87,22,-121,45r69,187v23,-9,47,-16,70,-19v23,-3,53,-4,88,-4v44,0,78,18,102,53v23,35,41,91,54,168r129,797r-144,0r46,211r131,0r26,137v9,51,22,95,37,133v15,37,36,69,61,94v25,25,55,43,92,56v36,12,81,18,134,18v22,0,47,-1,75,-3v28,-2,56,-5,83,-10v27,-5,53,-11,79,-18v26,-7,49,-15,70,-24r-59,-186v-31,12,-64,20,-97,24v-33,4,-65,6,-96,6v-44,0,-76,-13,-96,-39v-19,-25,-33,-65,-41,-120r-12,-68r204,0r-41,-211r-196,0","w":1728},"\ufb04":{"d":"1548,303v-4,-19,-6,-36,-6,-50v0,-15,2,-28,7,-38v9,-19,23,-29,44,-29v38,0,74,8,109,23r-6,-182v-25,-15,-60,-28,-107,-38v-47,-9,-92,-14,-137,-14v-59,0,-103,11,-134,34v-31,23,-46,65,-46,126v0,31,4,68,12,109r252,1190r252,0xm1106,813r-152,-883v-8,-51,-20,-97,-35,-140v-15,-43,-35,-80,-62,-113v-27,-32,-61,-57,-102,-76v-41,-18,-91,-27,-151,-27v-49,0,-98,4,-145,12v-47,7,-87,22,-121,45r69,187v23,-9,47,-16,70,-19v23,-3,53,-4,88,-4v44,0,78,18,102,53v23,35,41,91,54,168r129,797r-144,0r46,211r131,0r26,137v9,51,22,95,37,133v15,37,36,69,61,94v25,25,55,43,92,56v36,12,81,18,134,18v22,0,47,-1,75,-3v28,-2,56,-5,83,-10v27,-5,53,-11,79,-18v26,-7,49,-15,70,-24r-59,-186v-31,12,-64,20,-97,24v-33,4,-65,6,-96,6v-44,0,-76,-13,-96,-39v-19,-25,-33,-65,-41,-120r-12,-68r204,0r-41,-211r-196,0xm504,813r-152,-883v-8,-51,-20,-97,-35,-140v-15,-43,-35,-80,-62,-113v-27,-32,-61,-57,-102,-76v-41,-18,-91,-27,-151,-27v-49,0,-98,4,-145,12v-47,7,-87,22,-121,45r69,187v23,-9,47,-16,70,-19v23,-3,53,-4,88,-4v44,0,78,18,102,53v23,35,41,91,54,168r129,797r-144,0r46,211r131,0r26,137v9,51,22,95,37,133v15,37,36,69,61,94v25,25,55,43,92,56v36,12,81,18,134,18v22,0,47,-1,75,-3v28,-2,56,-5,83,-10v27,-5,53,-11,79,-18v26,-7,49,-15,70,-24r-59,-186v-31,12,-64,20,-97,24v-33,4,-65,6,-96,6v-44,0,-76,-13,-96,-39v-19,-25,-33,-65,-41,-120r-12,-68r204,0r-41,-211r-196,0","w":1761},"\u00a0":{"w":518}}});
